{"layers":[{"out_depth":1,"out_sx":24,"out_sy":24,"layer_type":"input"},{"sx":5,"sy":5,"stride":1,"in_depth":1,"out_depth":8,"out_sx":24,"out_sy":24,"layer_type":"conv","l1_decay_mul":0,"l2_decay_mul":1,"pad":2,"filters":[{"sx":5,"sy":5,"depth":1,"w":{"0":0.07993518840536859,"1":-0.11074310831253784,"2":0.3051035493383045,"3":0.2754804637681999,"4":0.2736633022918189,"5":-0.1438671234980012,"6":0.09158527978249424,"7":-0.46451442372605245,"8":-0.12558571725563603,"9":0.3623497482550118,"10":-0.246712960600542,"11":-0.3351584563990567,"12":0.06240514252646637,"13":-0.20642084797215707,"14":0.09445542550507316,"15":-0.03155328222940131,"16":0.005935540913070666,"17":-0.15694929449064574,"18":-0.2823897820072062,"19":-0.660101626575343,"20":0.28350492267076705,"21":0.31288778424508085,"22":-0.37307803507945125,"23":-0.044861626048029644,"24":0.1352335391707374}},{"sx":5,"sy":5,"depth":1,"w":{"0":-0.13965288796676836,"1":0.38362106012770913,"2":-0.09989348138709409,"3":-0.07586915606544581,"4":-0.4389700508904034,"5":-0.3120615130461967,"6":-0.9806855933134893,"7":-0.33681764788225815,"8":-0.36558756680014215,"9":-0.1377363396539579,"10":-0.2602227484677531,"11":-0.26111206978051743,"12":-0.13127945950859363,"13":0.18761738071449854,"14":0.2136062766681445,"15":-0.1073183304656585,"16":0.09309678103894053,"17":0.4297267547072885,"18":-0.2759500342277056,"19":0.31471107904280177,"20":0.21161634283060432,"21":0.4976038851270289,"22":0.28615846187250443,"23":0.18640262778282546,"24":0.20186667743725353}},{"sx":5,"sy":5,"depth":1,"w":{"0":-0.3069315579447433,"1":-0.2191206697615385,"2":0.29857368925072736,"3":0.11160485052463134,"4":0.2246201657611518,"5":-0.016337044379106085,"6":0.2667346108379202,"7":0.1289613108269923,"8":0.2859194207132475,"9":0.2949749878460435,"10":-0.07242234468676885,"11":0.18759107390107863,"12":0.20124612939119518,"13":0.17228593462193417,"14":-0.08402714341121365,"15":0.07654501460255114,"16":0.3623458567190628,"17":0.20759974528867697,"18":-0.3181401264125671,"19":-0.2664469245527209,"20":0.3321679116721212,"21":-0.11362860460861497,"22":-0.18752701623266116,"23":-0.4413267173243455,"24":-0.19615711336576572}},{"sx":5,"sy":5,"depth":1,"w":{"0":0.4725270928500715,"1":0.004020762118897727,"2":0.29241282032617033,"3":-0.22593182318598506,"4":-0.2533109246592334,"5":-0.07266045948682828,"6":0.5461634826604989,"7":0.409930831227139,"8":0.13768183510474052,"9":-0.011894723893809729,"10":0.0769293992879039,"11":0.6110503214718357,"12":0.32426362537534087,"13":-0.001508951734847051,"14":-0.21121099757561806,"15":0.516293885404018,"16":0.13047593628503024,"17":-0.03742756681865176,"18":-0.08701104696436035,"19":-0.08137697174117418,"20":-0.108963634537175,"21":0.03907323891604787,"22":-0.22617814789608887,"23":-0.49409781393937274,"24":-0.33802559284540085}},{"sx":5,"sy":5,"depth":1,"w":{"0":-0.33011515006889763,"1":0.48843934115788146,"2":0.5376599441014202,"3":0.03506054429745272,"4":0.22456917626562398,"5":-0.07871415651983837,"6":0.4060767661274391,"7":0.09526331659577071,"8":-0.09780059699781979,"9":-0.4123902518132342,"10":-0.10772452643866896,"11":0.1746341557300428,"12":0.0943487818044806,"13":-0.03575550350662753,"14":-0.2798977944555646,"15":-0.06570471028518074,"16":0.14408667214352536,"17":-0.04584414451054247,"18":0.14956764056036984,"19":-0.056269881484673344,"20":0.22551323267774187,"21":-0.04533486702505112,"22":0.33479421887643634,"23":0.10226831579761575,"24":0.004107687625453738}},{"sx":5,"sy":5,"depth":1,"w":{"0":-0.39827287168444914,"1":0.1090176510346852,"2":0.5041006573280569,"3":-0.20670688706726745,"4":-0.3166187091057545,"5":-0.1114051658123961,"6":0.010883779093417811,"7":0.44418704246311197,"8":0.2399967745814044,"9":0.0626750367070679,"10":-0.265738990199476,"11":-0.03058935976036073,"12":-0.018754106283333547,"13":0.4083376742355022,"14":-0.12767801262638484,"15":-0.02720512495133359,"16":-0.008989158523282846,"17":-0.023087672313146013,"18":-0.015240795977056364,"19":0.08013843408905101,"20":-0.10084967246420302,"21":-0.0932042547218415,"22":0.10363061102971417,"23":-0.019257765298841795,"24":0.14179802647344084}},{"sx":5,"sy":5,"depth":1,"w":{"0":-0.09133833963632644,"1":-0.2179593355580364,"2":-0.22282240334576028,"3":-0.4418337125277994,"4":-0.14621032595245578,"5":-0.0058826329218582205,"6":-0.04533043212425418,"7":-0.513604595983389,"8":-0.6372136503818633,"9":-0.777994716453324,"10":0.6229562300385829,"11":-0.3419139749257183,"12":0.1968194639336276,"13":-0.2727765791857394,"14":-0.29719260797419744,"15":0.6942792805500778,"16":0.674101484670802,"17":-0.026619935742725524,"18":-0.06444402739827043,"19":-0.20482528829620134,"20":0.2250012946138215,"21":0.8402585406468366,"22":0.4021425715085035,"23":0.47011903309530007,"24":0.25036398812205707}},{"sx":5,"sy":5,"depth":1,"w":{"0":0.37649606116212153,"1":0.4939058153685857,"2":0.3927299482871888,"3":0.4802465952186314,"4":-0.11244769135290192,"5":0.30394510522152973,"6":0.3986417646652131,"7":-0.17332282733650825,"8":0.7959373641318395,"9":0.07416735153481373,"10":-0.07565465053734236,"11":0.1772847374874126,"12":-0.21735654149510175,"13":-0.1447023174694633,"14":0.4418313394440456,"15":-0.6409553986580875,"16":-0.5211883957584418,"17":-0.3499928079429444,"18":-0.10054865321275515,"19":-0.32147511135022383,"20":-0.783347369649001,"21":-0.33341591269065385,"22":-0.42400686033342094,"23":-0.2906317262905369,"24":-0.2574946074033573}}],"biases":{"sx":1,"sy":1,"depth":8,"w":{"0":-0.05972595913407683,"1":0.14090846836940565,"2":-0.10958907887122203,"3":-0.04467115177684628,"4":-0.20079889711328905,"5":-0.1430505500239372,"6":0.015542632629905904,"7":0.16090788486275248}}},{"out_depth":8,"out_sx":24,"out_sy":24,"layer_type":"relu"},{"sx":2,"sy":2,"stride":2,"in_depth":8,"out_depth":8,"out_sx":12,"out_sy":12,"layer_type":"pool","pad":0},{"sx":5,"sy":5,"stride":1,"in_depth":8,"out_depth":16,"out_sx":12,"out_sy":12,"layer_type":"conv","l1_decay_mul":0,"l2_decay_mul":1,"pad":2,"filters":[{"sx":5,"sy":5,"depth":8,"w":{"0":-0.10504481210228736,"1":-0.007101338454379441,"2":0.06163088355336066,"3":0.11395409773725071,"4":0.11148635000577084,"5":-0.018273965264244723,"6":0.049175557900480726,"7":0.043627885342052905,"8":-0.19314207818996987,"9":0.08066579227461876,"10":-0.14968643140076227,"11":-0.22312767369888642,"12":-0.1632498153278191,"13":-0.1779946122599841,"14":-0.17290181246523725,"15":-0.09167571411780998,"16":-0.012080207139634324,"17":0.062251359832069954,"18":-0.0513159549305711,"19":-0.05655368796758574,"20":-0.021631897203046677,"21":-0.020958291317725333,"22":-0.202599035742011,"23":-0.3541141487901364,"24":-0.009718642988248996,"25":-0.022576028043874423,"26":0.09626150964449119,"27":0.10329284056278126,"28":0.19613769543868198,"29":0.09474200664125249,"30":-0.03381228504854948,"31":-0.21591723968802148,"32":-0.043458141589480095,"33":-0.025482757309616896,"34":0.10117589974536328,"35":-0.1033354964474645,"36":0.19867989155384583,"37":-0.04520794797357715,"38":-0.009738195762211278,"39":0.06550834550083322,"40":-0.022984405524344814,"41":-0.026148338996174667,"42":-0.19651585146058945,"43":-0.17837466766349533,"44":-0.009570036252676594,"45":-0.10545981244477232,"46":-0.16823934247178898,"47":0.103963187944631,"48":-0.2423529026699153,"49":0.0874272326282775,"50":-0.06018152341793681,"51":-0.16971464885330073,"52":-0.1740261112825754,"53":-0.11371812466560485,"54":-0.40313997374837185,"55":-0.25273904528292307,"56":-0.0780661497903501,"57":-0.13915852873817833,"58":0.1284169864687054,"59":0.09047597245044493,"60":0.12184476866321943,"61":-0.1185009280989055,"62":-0.2628861640240886,"63":-0.31239822762203984,"64":-0.08299067676438789,"65":-0.261943669836732,"66":-0.00012396433884678077,"67":0.03277173532389072,"68":0.14386260346689486,"69":0.09528940631248792,"70":-0.08990037630558222,"71":-0.1449287832039662,"72":-0.15289548061898436,"73":-0.10543076192184267,"74":-0.176491329045063,"75":-0.18839012674926817,"76":-0.17464663735664618,"77":0.04974947153614868,"78":-0.12209005759501305,"79":0.05549767107494667,"80":-0.21856186297390587,"81":0.006094862599156642,"82":0.0881592342509979,"83":-0.11670890846415563,"84":0.007028681798440636,"85":0.0002598371388580938,"86":-0.0737556342402402,"87":-0.11022184862734616,"88":-0.11823377206890459,"89":0.13158385883339915,"90":0.06747337836682427,"91":-0.11676862548755806,"92":0.12526132787879257,"93":0.05464547893509282,"94":-0.07948406539909474,"95":-0.17191130028995177,"96":-0.12960830158354447,"97":-0.1004713865748664,"98":0.019565794259943297,"99":-0.12084035148712415,"100":0.012137512989078718,"101":0.10977054639610052,"102":0.17333275635704418,"103":-0.03419076587476888,"104":-0.03733532144404741,"105":0.00631201339720378,"106":-0.07151555499224488,"107":-0.2124970482858281,"108":0.029276718138417195,"109":-0.07574823111747102,"110":0.13740493353996663,"111":-0.13495123912466417,"112":0.09396163725028168,"113":-0.070272898494641,"114":-0.14087858639943404,"115":-0.0654070953963874,"116":-0.05017993240874907,"117":-0.22792659677087704,"118":0.10090429805663587,"119":-0.0785358238001079,"120":-0.031207767421277552,"121":0.2952091586495283,"122":0.007771114752527602,"123":-0.06362671118859353,"124":-0.000040911949107617614,"125":0.0411829003670196,"126":-0.01572611701075476,"127":-0.21943827658393447,"128":0.02886976695806961,"129":0.1661317594568351,"130":0.059622947702224295,"131":0.053148805349878286,"132":0.015078944619602828,"133":-0.12597499507356785,"134":0.1269573765699673,"135":-0.11681013171704936,"136":-0.0923109741065973,"137":-0.03191172915258451,"138":-0.03563817781938638,"139":0.05726254903031489,"140":-0.018243202351947305,"141":0.02746484276532211,"142":0.09084000062462215,"143":-0.2518083320357839,"144":-0.056597838772049394,"145":0.05714823335873201,"146":-0.17318908921135714,"147":-0.13053109995626744,"148":0.04272892874065929,"149":0.0004425896126880966,"150":0.30725272625688427,"151":-0.23734509580753554,"152":0.1141392014275888,"153":0.08728335200035428,"154":-0.14381990333606953,"155":-0.19385633938951927,"156":-0.023476413318332962,"157":-0.211795364080926,"158":0.49118184371303447,"159":-0.39095728207278163,"160":0.12184306058132593,"161":0.1900534570925943,"162":0.10324704236730013,"163":0.2366974407941762,"164":0.04802510857174961,"165":0.010944229687396487,"166":-0.18650647919766944,"167":0.08110382322166265,"168":-0.0052800844807215875,"169":-0.07105350246282581,"170":0.11404120363258125,"171":0.07856233997880521,"172":0.08715115705528272,"173":0.029213273669754826,"174":-0.15213726579741446,"175":0.07481301889030367,"176":0.27542852034616994,"177":-0.09725342124514204,"178":0.06403116209722902,"179":0.026785712143895364,"180":0.09962373747322747,"181":0.1395335396547084,"182":-0.07442970019750589,"183":0.12546623227220732,"184":0.20434545757510425,"185":-0.04557287324229365,"186":-0.013085028460622724,"187":-0.07714804087232179,"188":-0.15818175465363726,"189":0.020261551296212356,"190":-0.06531039027690297,"191":0.13006662442028097,"192":0.03477059981171274,"193":-0.08658572995060045,"194":-0.11003610999595165,"195":0.09740876844945717,"196":-0.13433003265237037,"197":0.10730909942437895,"198":0.13106703098535546,"199":0.17116362487506132}},{"sx":5,"sy":5,"depth":8,"w":{"0":0.025499385513758605,"1":0.003191793461245744,"2":0.07761873351505168,"3":0.10915553589534346,"4":0.06388959921398518,"5":-0.2184806338561754,"6":0.22743699709259987,"7":-0.1645136287856815,"8":0.04909891845683316,"9":-0.09920269487005562,"10":-0.011074204981250835,"11":-0.07194923044403917,"12":-0.017628485894490793,"13":-0.0957269050145376,"14":-0.08248596788009792,"15":0.1620035136030842,"16":0.044509680692229735,"17":-0.019511376914190783,"18":-0.08214360899474556,"19":-0.005863300856372431,"20":0.0738999478768778,"21":0.010762044958117112,"22":-0.206121411176427,"23":0.06889809875436438,"24":0.02939559907724126,"25":0.1338901720083679,"26":-0.2849762199576449,"27":-0.21786657702675077,"28":0.0071618654108433835,"29":-0.08332959878900344,"30":-0.21071854561336908,"31":0.06947658386121802,"32":0.06535437626685332,"33":0.14051482703593696,"34":-0.08242674036756896,"35":-0.027644177893963298,"36":-0.061775432637411684,"37":-0.086394617095043,"38":-0.019998762023987884,"39":-0.19590003321553662,"40":0.07097102310731547,"41":-0.18211838438092687,"42":-0.1134527032178249,"43":0.11958408573054233,"44":0.07756998774429981,"45":0.04164616973515491,"46":0.23507405364906644,"47":0.015924449616304553,"48":0.10632929642148609,"49":-0.11699963685809821,"50":-0.04635974039282828,"51":0.11644572958487512,"52":0.050265096004275416,"53":-0.015394124800918544,"54":0.19355462610579652,"55":-0.1395857820191589,"56":-0.06657493863099238,"57":-0.1712571552113039,"58":-0.16182301679550934,"59":-0.012350453807371922,"60":-0.16427378646472518,"61":-0.10226087713567526,"62":-0.07070797489909313,"63":-0.2540587289741664,"64":-0.18606896393873704,"65":0.12807782046474858,"66":-0.22794970699966377,"67":-0.1172656110757388,"68":-0.15521772495628675,"69":-0.007734648392270495,"70":-0.22385215496615518,"71":-0.2623503125836326,"72":-0.06059501060758804,"73":0.1863185800529252,"74":-0.15999522332883923,"75":-0.08417021087078205,"76":-0.05436483964410669,"77":0.003577820709227998,"78":-0.01795383324474445,"79":-0.36524253484238656,"80":-0.04669446014590865,"81":-0.049271121326726224,"82":-0.17399601879135015,"83":0.005284712664414613,"84":0.2333692806884946,"85":0.12720031453023775,"86":0.02269030932267687,"87":-0.019883951305213744,"88":0.07576560325769333,"89":0.032993793640803085,"90":0.015126398682530122,"91":0.050967189274252145,"92":-0.16117597665535052,"93":0.017688052719603886,"94":0.3675471050518705,"95":-0.24066974204581323,"96":0.002496738998378152,"97":-0.12700402540926933,"98":-0.16629535617090782,"99":-0.0010515472316802346,"100":-0.24517879437768864,"101":-0.14191931187148776,"102":-0.06576627887618408,"103":-0.10417680018030069,"104":-0.24947271186087622,"105":0.04341365881050235,"106":-0.20510408966138866,"107":-0.13106362198501337,"108":-0.15969126515447432,"109":0.10790729181120123,"110":-0.28710628238750485,"111":-0.28525998258794344,"112":0.09985279833617886,"113":0.10586241356807644,"114":0.08675195728383339,"115":0.10594996893118482,"116":0.04659748622468245,"117":0.14461530306072323,"118":-0.04781042077965533,"119":-0.3156714805213077,"120":-0.0635884800775739,"121":-0.1667922178623707,"122":0.018566586941980837,"123":0.06771236368355361,"124":0.198220356713283,"125":0.20428830165979292,"126":-0.005787626796207211,"127":-0.1422163911876178,"128":-0.1712513840303166,"129":-0.23265010146972648,"130":0.09612773196129658,"131":0.15223144419715165,"132":0.11852626917288507,"133":0.08572894848247291,"134":0.17421212641514502,"135":-0.11768488203764593,"136":-0.18416103005015505,"137":-0.07474409855640593,"138":-0.04550665034586956,"139":-0.10936373249652154,"140":-0.2836983242178838,"141":-0.24468350672708322,"142":0.02528205539843426,"143":-0.4892862579118264,"144":-0.2746124202018287,"145":0.24855404826122743,"146":-0.03441497634544702,"147":-0.17455098033009409,"148":0.006173726442581318,"149":0.04064009581267644,"150":-0.28122150067219714,"151":-0.42093393446778665,"152":-0.15384921777562008,"153":0.056668945129018454,"154":0.23173595085129828,"155":0.03288257578794703,"156":0.14138103463193835,"157":0.11767419894582455,"158":-0.16929811130855055,"159":-0.271635202319055,"160":-0.027421153672000202,"161":-0.12345091473681762,"162":0.08128910069521204,"163":0.07472668853329732,"164":0.09464207558420519,"165":0.2195398022923782,"166":-0.1531396473396955,"167":-0.3476092132597618,"168":-0.24026912152191612,"169":-0.24158106517364142,"170":0.04391621426771607,"171":0.14916257173900616,"172":0.07312949185084637,"173":0.11038024883557747,"174":0.07908354634516811,"175":-0.16412941912611184,"176":-0.1777868152334378,"177":0.07279969823850937,"178":-0.0823986107884912,"179":-0.2088524801533158,"180":0.013225636005817257,"181":-0.01531522838682658,"182":0.04017580150409536,"183":-0.21122277346546067,"184":-0.06831676498766559,"185":0.05497579860208984,"186":0.03980930313954497,"187":-0.10441258084027372,"188":0.046772765067457145,"189":0.1554524869376025,"190":-0.06554486565099096,"191":-0.23864843241884764,"192":-0.02396872644133572,"193":-0.2056028918990257,"194":0.21325813060707513,"195":0.12210511202398211,"196":0.3022447854971536,"197":0.15867082402176205,"198":0.04757554588134621,"199":-0.23594339413644153}},{"sx":5,"sy":5,"depth":8,"w":{"0":-0.28734735223220753,"1":0.1684793402759347,"2":-0.05567171388341755,"3":-0.0149563254176805,"4":-0.20664448354484305,"5":-0.09052886024713826,"6":0.024124586969045334,"7":-0.2631582976433518,"8":-0.38740104165748,"9":0.04112216942581362,"10":0.092704868204133,"11":-0.07774139669729423,"12":-0.08206837423556608,"13":0.10852221630482743,"14":-0.18518920256050458,"15":-0.21308569677263622,"16":-0.15117502372439126,"17":0.02246232863217677,"18":0.14009758841071532,"19":0.19403889034843774,"20":0.09078926100321452,"21":0.1375322785125112,"22":-0.09613747576626017,"23":-0.2806775315441405,"24":0.01091556984909497,"25":-0.19787390506219477,"26":0.15040548614744345,"27":0.141361715920476,"28":0.06954106960976657,"29":0.09933170183464711,"30":-0.0075285931950030485,"31":-0.10480961745510206,"32":0.03923461573545014,"33":-0.08636396337158614,"34":-0.06604760242612635,"35":-0.028070539434494078,"36":-0.08741273552632271,"37":-0.10786245745779086,"38":0.06933291110261347,"39":0.09609214653715768,"40":-0.18191860092007656,"41":-0.15569607804396546,"42":0.09244738042419089,"43":-0.0935258431196817,"44":-0.0023417587786604853,"45":-0.09872039928528151,"46":-0.3387889185264836,"47":0.0543461309745294,"48":-0.019106433644698165,"49":-0.21386453849380957,"50":0.05791001460097433,"51":0.08765291509481705,"52":0.022427103778280225,"53":-0.01255083922084885,"54":-0.4470629090887667,"55":0.08553673898433745,"56":-0.093341533983536,"57":-0.23771634991739127,"58":0.21876895803213664,"59":0.13157105166737892,"60":0.07460640279624146,"61":0.041488777281089545,"62":-0.24298748449894064,"63":-0.039749115673770916,"64":0.033036223011637215,"65":-0.30911731693572636,"66":0.08631488485827996,"67":0.07873399763138324,"68":0.10300514095952293,"69":-0.06877167774853403,"70":-0.006746042863394549,"71":-0.06567021990788804,"72":0.15357815577241746,"73":-0.2306191746552872,"74":-0.1150392941852317,"75":0.0546250549161764,"76":-0.03347529062199968,"77":-0.10024326486341839,"78":-0.2008866657540871,"79":0.09080839800062873,"80":-0.08793791174962455,"81":0.029573327624146287,"82":0.029481058236217408,"83":-0.1500764339420743,"84":0.09175950493068806,"85":-0.16342301941489015,"86":-0.3479060412151938,"87":0.10151995488252187,"88":-0.035959855986950194,"89":-0.16676964523367752,"90":0.11656882334747697,"91":0.009295811586725817,"92":0.10802524474556982,"93":0.10260463639003041,"94":-0.18969954881272205,"95":-0.04963242162388657,"96":-0.07892499691628996,"97":-0.23305170065632844,"98":0.07740747056238122,"99":0.18631167107118607,"100":0.029166013228159912,"101":0.16555083411475477,"102":-0.1949064863034693,"103":-0.0344813795223169,"104":-0.0513630287705937,"105":-0.21632624029615577,"106":0.1299414292697997,"107":0.08524279569217905,"108":0.12630866048951123,"109":-0.08510365940019837,"110":-0.04110085283045752,"111":-0.06155196090520829,"112":-0.1251854522235804,"113":-0.09546477489115494,"114":-0.14383967290518787,"115":-0.09338470041213859,"116":-0.17678840325733355,"117":-0.1747469914863586,"118":0.0035423577867559246,"119":-0.10445617215508038,"120":-0.045136770566397116,"121":-0.18112052659992145,"122":0.132796161207442,"123":0.0037275861150936683,"124":0.18496179285284106,"125":-0.05716723464815237,"126":-0.236732376438327,"127":-0.064998782878235,"128":0.11627606971711915,"129":-0.27135948354452594,"130":0.10089551642787542,"131":0.07343132073851848,"132":0.03713079360478648,"133":0.09402265777049285,"134":-0.1871207550928507,"135":0.05028283822442164,"136":-0.015782206712559282,"137":-0.10547845622018759,"138":0.04762031557147546,"139":0.20201538332626745,"140":0.08786440147864027,"141":-0.016556195789350813,"142":-0.13033926005467794,"143":-0.02155051991982505,"144":-0.1267077126643158,"145":-0.08369248212419927,"146":-0.08669143309687714,"147":0.11205151036329858,"148":-0.0012053783348344228,"149":-0.08404418653851059,"150":0.045043202178893696,"151":-0.17295866340371088,"152":-0.25586867829388504,"153":-0.04711124308871105,"154":-0.2582962006045367,"155":-0.22525695488163294,"156":-0.02289096309614876,"157":0.08626286734253769,"158":0.05463709017424772,"159":-0.25358136854907604,"160":-0.18494403720147642,"161":-0.12058998705352522,"162":0.06385218832674369,"163":-0.09127549901448101,"164":-0.005066470606341569,"165":-0.008400943647307852,"166":-0.2942376330539281,"167":-0.08528342311347367,"168":-0.1967232218833887,"169":-0.05101850799113755,"170":-0.22415816719450007,"171":-0.029027907470490548,"172":-0.007132583309303798,"173":-0.0771227817486855,"174":-0.024217349469342536,"175":0.0024606094370570666,"176":-0.002662159216241855,"177":0.09821653962280488,"178":-0.018020707273697374,"179":0.04614319202926629,"180":0.08201598519415323,"181":-0.008767411655409594,"182":-0.06629088458033211,"183":-0.16072591608433834,"184":-0.05102027419356142,"185":0.11828458234737932,"186":0.04489624590348749,"187":-0.04235529646517259,"188":-0.06910310619492918,"189":-0.07338435044321456,"190":0.07760841083995386,"191":-0.1411224578098555,"192":-0.042875507597957205,"193":0.07134917008873977,"194":0.1989468769289459,"195":0.09559300565508176,"196":0.056033210387136406,"197":-0.010516699696181315,"198":-0.07355285423191091,"199":-0.11272060258941617}},{"sx":5,"sy":5,"depth":8,"w":{"0":-0.015866881774274956,"1":-0.05316880156437485,"2":-0.11109039649796093,"3":0.07971147469738007,"4":-0.06335422762127808,"5":-0.09049354192932602,"6":-0.1636231198411401,"7":-0.03291967686139687,"8":-0.2813796344779128,"9":0.039561895044007714,"10":0.0395743235197708,"11":-0.11610022160538466,"12":-0.04587228313439134,"13":-0.2178826332445219,"14":-0.3369186097308073,"15":-0.056463980160164066,"16":-0.13756977740680337,"17":-0.05024441908045621,"18":-0.01989951213744305,"19":-0.21922169436263325,"20":-0.02402032483757173,"21":-0.04705577024967622,"22":-0.4509078854116006,"23":-0.20387974833666386,"24":0.09846107586008654,"25":0.16121482757796898,"26":0.12869330464986226,"27":0.10335278139559612,"28":0.1583559358562372,"29":0.01973765211623401,"30":-0.04557555801254654,"31":-0.16979169119915588,"32":0.045716201554228904,"33":-0.2996869187154522,"34":-0.002596012401383397,"35":0.210682915107363,"36":-0.08055620399810452,"37":0.037288830646208894,"38":-0.10190419521139048,"39":0.17915628270583434,"40":-0.11824014823357128,"41":-0.09600645776306417,"42":-0.3447750629005634,"43":-0.34257065265122866,"44":-0.08590190403427106,"45":-0.20930170253681082,"46":-0.2268410252476809,"47":-0.01902557947505687,"48":-0.12919150654392642,"49":0.11015878502541886,"50":-0.1126385341673376,"51":-0.19942959831910187,"52":-0.16143604656121335,"53":-0.10776328827905127,"54":-0.20717520471433612,"55":-0.19707416749646825,"56":0.02407585710955179,"57":0.0670044309722491,"58":0.1801458691273863,"59":0.11213800354190198,"60":0.07404026939658791,"61":-0.0714148285874486,"62":0.03196783426720997,"63":-0.11323597719032641,"64":0.012893547732863407,"65":-0.15334148594279962,"66":0.04845333782867222,"67":0.043315941811131686,"68":0.13612478858351784,"69":0.02350675014937756,"70":0.13186806206790153,"71":-0.05636047177983549,"72":-0.06137542836052084,"73":-0.2875670369186521,"74":-0.027407164302252564,"75":0.016341424014792206,"76":-0.04956041916708508,"77":-0.15332338819894867,"78":-0.24222263977653022,"79":-0.05360890491575254,"80":-0.2474067701160511,"81":0.1790298478821617,"82":-0.2027505028210792,"83":-0.29162837727082314,"84":-0.16461396320608662,"85":-0.16608088837238943,"86":-0.12930637885822063,"87":-0.1471168347814273,"88":0.08872374165423053,"89":0.16662687431363782,"90":0.15186608298766774,"91":-0.0022504006733327464,"92":-0.04105504079524071,"93":0.11900364229963155,"94":-0.06865266559868927,"95":0.009340165567693603,"96":0.14263214912024305,"97":0.05560838965658568,"98":0.06499384603580878,"99":0.1367676857814673,"100":0.07649296571797673,"101":0.08918895403906535,"102":0.22511851477362763,"103":0.12776599229713517,"104":-0.06749252262744447,"105":-0.06457549148013915,"106":0.009324718061718647,"107":0.07932845311984534,"108":0.0606200112206446,"109":0.07748449953924967,"110":0.004351305964597311,"111":0.03828608539455146,"112":-0.10384626914412771,"113":-0.2596375888495415,"114":-0.2950213042599201,"115":-0.0511013206276071,"116":-0.27049803474528394,"117":-0.1978023453668727,"118":-0.10656396768378804,"119":-0.0613205575826038,"120":-0.04799459963680494,"121":0.09226770996530685,"122":0.13066663443772342,"123":-0.046910974774981594,"124":-0.10310735842429904,"125":0.11395652802100338,"126":-0.172110226170999,"127":-0.1653208166969917,"128":0.10394702507645154,"129":-0.16495397253608562,"130":0.26100537022345605,"131":0.16926992283009465,"132":0.05847339169344126,"133":0.04800466985826629,"134":-0.05839507016342911,"135":0.219737385966779,"136":-0.014136197127143129,"137":-0.2971134307360781,"138":0.08023524894596311,"139":0.1466706188841074,"140":0.14197361571820893,"141":0.2508125515491039,"142":0.004531367874404575,"143":0.06336302893115717,"144":-0.25110802665019283,"145":-0.18644741970310055,"146":-0.3006774586461149,"147":-0.006492908074497581,"148":-0.03669021077007484,"149":-0.15732151300917013,"150":-0.2831450085129104,"151":0.11818739202562879,"152":-0.27617675309250167,"153":-0.19104217555536895,"154":-0.3159736544130705,"155":-0.41879357840055786,"156":-0.28343478135358546,"157":-0.16429428515229283,"158":-0.3178747981554314,"159":-0.19679070670028484,"160":0.10288351994133714,"161":-0.06257455792855249,"162":0.08475143592655787,"163":-0.022897210511886857,"164":0.030040904787403976,"165":0.10254674923683449,"166":-0.03732298573838069,"167":-0.013566845884086052,"168":0.21454100438263624,"169":-0.031210938638867834,"170":0.1476916295538946,"171":0.19267371791286153,"172":0.13489227342914392,"173":-0.0003155200313689191,"174":-0.021402220990656196,"175":0.030801052421792888,"176":0.16247582534159238,"177":0.058140319976862365,"178":-0.11710862850353349,"179":-0.034629515325971263,"180":-0.13943326033026673,"181":-0.19487071991314447,"182":-0.11650389508201704,"183":0.03949621280437229,"184":-0.17395972066018492,"185":0.08468504739000676,"186":-0.2506027283386447,"187":-0.3458546308614323,"188":-0.2959952340282362,"189":-0.1369625962650489,"190":-0.19064750420647733,"191":-0.030925939480408237,"192":-0.167671896394458,"193":-0.10923062323126133,"194":0.07565708292892583,"195":-0.1577931134062094,"196":-0.05169089790743912,"197":-0.00035137660777256424,"198":0.012290265311324461,"199":-0.2834298969381442}},{"sx":5,"sy":5,"depth":8,"w":{"0":-0.07662252701939502,"1":-0.16699797397341382,"2":-0.004302332924241487,"3":-0.0038953651654670563,"4":-0.04121919401173515,"5":-0.017287507739958078,"6":-0.11502004066255798,"7":0.12192725610795081,"8":0.06543434504824391,"9":0.08833255652046358,"10":0.018875750029330514,"11":-0.06287475928535037,"12":-0.09867833782658617,"13":0.046253073533385314,"14":-0.0158429842373289,"15":0.05137250219003053,"16":-0.009132321207562329,"17":0.05215153946299863,"18":-0.029934306994214364,"19":-0.045091007538086904,"20":-0.03908158915978278,"21":0.0899390801832229,"22":-0.08439794047498024,"23":-0.14547757910892223,"24":-0.025327822049576305,"25":0.1555424232982751,"26":0.15573519825914092,"27":0.057357280201440965,"28":0.006205262847366152,"29":0.019987076674868577,"30":-0.018489496035719644,"31":-0.21919186940156915,"32":-0.031772766211641386,"33":0.3564363055896498,"34":0.2112297050428263,"35":0.14925887413819808,"36":-0.06847173279293804,"37":-0.0709023535016792,"38":0.08087295034092547,"39":-0.18295343774896786,"40":-0.07158316773343058,"41":-0.04357562031564247,"42":-0.2677201611013357,"43":-0.31229560989811495,"44":-0.12912673112743817,"45":-0.24155231468687968,"46":-0.12961446702980695,"47":0.06290962403415938,"48":-0.03997365059158548,"49":-0.13605129022936924,"50":-0.1404256105013642,"51":-0.10319777367870947,"52":-0.26553907625356726,"53":-0.20435756616385825,"54":-0.08395726577731599,"55":0.0024573967730758335,"56":-0.14981513651631198,"57":-0.18282135795434248,"58":-0.07217383689934705,"59":-0.12065263085671794,"60":-0.08147727489767022,"61":0.02823551817828064,"62":-0.0991810042746352,"63":-0.08874692349573744,"64":-0.06736853503873605,"65":0.051854971422409774,"66":0.022565741002343914,"67":0.09521220148189634,"68":0.10622971406050473,"69":0.09529891616717995,"70":0.08963565258414447,"71":-0.022044605339317205,"72":0.18996781623057285,"73":0.09660215630673175,"74":0.2377754005454951,"75":0.20120775184778658,"76":-0.03402829629357682,"77":0.028506699701845387,"78":0.0969223334774785,"79":0.10045632582598238,"80":0.021012355796712272,"81":0.08829348470380367,"82":-0.1905274937388666,"83":-0.2932660290193936,"84":-0.14187462620848698,"85":-0.18399291921452662,"86":0.2162166938359358,"87":-0.16576642648641202,"88":0.050897974375707436,"89":-0.08531720803935311,"90":-0.2635947701595989,"91":-0.3161472054881052,"92":-0.011499561230372757,"93":-0.2153612867295423,"94":0.3017165115527821,"95":-0.04026919669472599,"96":0.24622384826426297,"97":-0.270847500712901,"98":-0.056702715322608,"99":-0.5295364403461832,"100":-0.1812689666132335,"101":-0.07194826029633454,"102":0.17900848589544285,"103":-0.04771472402173782,"104":0.04337660186105461,"105":-0.2186823991479185,"106":0.056841836411612216,"107":-0.1176714866331863,"108":-0.026064573485137046,"109":0.11085133412529155,"110":-0.05559006283777369,"111":0.16745060733248274,"112":0.0434419710370862,"113":-0.18645733199943518,"114":-0.0036393463705849992,"115":-0.003206467256715865,"116":0.0629418921159283,"117":0.07121693454086253,"118":-0.017558330416119174,"119":0.35091868566790146,"120":-0.1048489348889305,"121":0.12842936601625293,"122":-0.05376921706352659,"123":0.02513903799039112,"124":0.023511622915564523,"125":0.0055521425082885245,"126":0.15413443067555746,"127":-0.13406198745138126,"128":-0.1291105652789143,"129":0.03516603829392199,"130":-0.2613884685496661,"131":0.06671972266651749,"132":-0.05486017753126421,"133":-0.000352763424401408,"134":0.25906562022503576,"135":-0.16758628073528037,"136":0.17604434204806807,"137":-0.00010087657002102557,"138":-0.1653487173784762,"139":-0.3056751291416298,"140":-0.27235778723342746,"141":-0.09795621666516471,"142":0.12548310588148037,"143":-0.25775532849844596,"144":0.12794714500230567,"145":0.062058428218437066,"146":-0.014641669880646212,"147":-0.2504769767683831,"148":-0.03566671859671594,"149":0.1741406392196636,"150":-0.034554042659365694,"151":0.002833159034253815,"152":0.2204191023725266,"153":0.027693693324994932,"154":0.035183539912743006,"155":-0.0832378771542608,"156":0.03981083322330216,"157":-0.12491458338646796,"158":0.08080930062273503,"159":-0.004327031434433894,"160":-0.10286374760680235,"161":0.07431974999868837,"162":0.02840046594094311,"163":0.007771554018229546,"164":0.026500442761714628,"165":-0.04546682797810762,"166":0.13573621870669011,"167":-0.3756635022839523,"168":0.018420270326803528,"169":0.02601240527797569,"170":0.08306496162069556,"171":-0.02411380685150167,"172":0.09993778629425397,"173":0.11115500196692965,"174":0.20840806545891638,"175":-0.14006469076545555,"176":-0.06421480729203813,"177":-0.048289920466724964,"178":-0.036510942291477465,"179":-0.15669176876205818,"180":-0.05632439064250459,"181":0.06717557221790775,"182":0.1346149779816526,"183":-0.24881856205074052,"184":-0.0006977598954617009,"185":0.13814777510113443,"186":0.020581506307358506,"187":-0.016021423900194766,"188":-0.028513355373806455,"189":0.12658353649036558,"190":0.2262516205765613,"191":-0.27211517241815797,"192":-0.06013644801387397,"193":0.007940307353107679,"194":0.03448484037797183,"195":0.035447945102295486,"196":0.021687338116968585,"197":-0.06386431754809319,"198":0.1061110366052987,"199":-0.06204843601731724}},{"sx":5,"sy":5,"depth":8,"w":{"0":-0.10292774483984331,"1":-0.13428503989911003,"2":0.13122478007332736,"3":0.3481357337519101,"4":0.08533876482949806,"5":0.09361308028234219,"6":-0.07192481705251581,"7":-0.32178329096360975,"8":-0.12558300891847074,"9":-0.34549012478619506,"10":0.04612519938862149,"11":0.10450034142061308,"12":0.08092636895599073,"13":0.032038320589169236,"14":-0.030698572232497636,"15":-0.13803990121833465,"16":-0.034804358281547355,"17":-0.2174567916714278,"18":-0.06620158072355106,"19":-0.06933038270070223,"20":-0.12456101808408876,"21":-0.31203907891133437,"22":0.03699317805383713,"23":0.013427060758109642,"24":-0.0900767303959284,"25":-0.059821711000290885,"26":0.047445790837320964,"27":0.08783104310008218,"28":0.08880656489057362,"29":-0.014586815896396975,"30":-0.05968165134542972,"31":0.006326289399804913,"32":0.13100984037261482,"33":-0.0641569227473884,"34":-0.022672552535066934,"35":0.10761671496646465,"36":-0.08977436561017481,"37":-0.07763875887947222,"38":-0.09076271154237021,"39":0.02639149506252247,"40":-0.15494733558456664,"41":-0.2662855560576021,"42":-0.14233684357714438,"43":0.07159331326863053,"44":0.07847459332837865,"45":-0.07900853050048294,"46":-0.048175264739048054,"47":-0.016547858472986263,"48":0.07704582434118022,"49":-0.019546683938056284,"50":0.03134194591087729,"51":0.02547666120321712,"52":0.0666262671469915,"53":-0.06532585452207541,"54":0.2847919591124017,"55":-0.22753637856953382,"56":0.0006099578074704648,"57":0.010576538688273521,"58":0.039124787553410166,"59":0.04063739142284567,"60":0.027823186264045844,"61":0.028457212443781216,"62":0.17199728263393527,"63":-0.16763418953631562,"64":-0.05031866272020864,"65":0.062234190852717315,"66":-0.012242668679452699,"67":0.009171683864272957,"68":-0.0619630202771763,"69":-0.05255681308264946,"70":0.08721561699206058,"71":-0.11135167102920422,"72":-0.051690304723443756,"73":0.03160977877186235,"74":-0.14076341738647988,"75":-0.09923826645609125,"76":0.04659737626907378,"77":-0.09570830326023917,"78":0.13949686976377174,"79":-0.046490480036025315,"80":0.007737502531532882,"81":-0.27496690223286985,"82":0.009720202572346716,"83":0.004423406126508872,"84":-0.06249795475523069,"85":0.02368683908076677,"86":-0.023840136293741307,"87":0.0681743109518229,"88":-0.10883557677034188,"89":-0.14680673173225192,"90":-0.02428212185882095,"91":-0.04480966229216956,"92":0.03781762800051204,"93":0.05106359407895058,"94":-0.03661187031664908,"95":0.056361155609303194,"96":0.05190444759184887,"97":0.125489471430785,"98":0.09975865728728592,"99":0.06999817195282491,"100":0.006812235998142791,"101":-0.048294728895732775,"102":0.05468586761284745,"103":0.1250870788334899,"104":-0.009415335080234564,"105":-0.11456876391858319,"106":0.013597753630827417,"107":0.06971307231141963,"108":-0.053698773921023284,"109":-0.042567912947486526,"110":-0.01287514951634856,"111":-0.003456354208665789,"112":-0.112599357316746,"113":-0.06734473153744543,"114":-0.047536234521777514,"115":-0.08265210028822267,"116":-0.22017132561582903,"117":-0.0584469434935773,"118":0.05406232669686695,"119":0.04787681546598308,"120":-0.04715413628669292,"121":0.005340086524929189,"122":-0.1352179359124916,"123":-0.034126990469460904,"124":-0.09055733163769988,"125":-0.06405369774758234,"126":-0.0052837173402511565,"127":0.03426433077733667,"128":0.1309182434586261,"129":-0.000738214424523125,"130":-0.14044096365737524,"131":-0.07762181540426921,"132":-0.08732046816233904,"133":-0.12241608013460174,"134":0.005609967851212117,"135":0.12685375466917198,"136":-0.03136961097456741,"137":-0.12362016984605953,"138":-0.04759758095596456,"139":-0.10025938253542377,"140":0.0035839486982911263,"141":-0.10383369194373908,"142":-0.1309900598402837,"143":0.009165260401080969,"144":-0.05736099831168383,"145":-0.12235381413434389,"146":-0.20396744252402998,"147":-0.12370045362523516,"148":-0.03507546793319483,"149":-0.06148300166483968,"150":-0.19384234151290608,"151":0.026741365486965343,"152":-0.023743042942874503,"153":0.004177000544231046,"154":-0.31469606860115207,"155":-0.12289962270637546,"156":-0.2793192375458168,"157":-0.14198852805291334,"158":-0.08330295664101363,"159":0.05318022660509691,"160":0.08340622328516127,"161":-0.02806903481113767,"162":-0.12454423016837902,"163":-0.06556442943246552,"164":-0.05978726382929526,"165":-0.059847810425624814,"166":0.16240598361524122,"167":-0.22351581989928812,"168":-0.00791637770334554,"169":0.06257089540831844,"170":-0.10178210322821897,"171":0.016421569892056828,"172":-0.05905621357933516,"173":-0.0985954907321335,"174":0.08796760298035418,"175":-0.09154490720796861,"176":0.012346861647062056,"177":0.01831411730944858,"178":-0.021049261276733185,"179":-0.06998497192371911,"180":-0.08507131146522479,"181":-0.04022466448726803,"182":0.12612711067213903,"183":-0.06354065841753095,"184":0.02699105679881463,"185":0.13136362714374086,"186":-0.022921693304774282,"187":0.0029490063414268405,"188":0.029501169771664233,"189":-0.013367262866981701,"190":0.08750922564743706,"191":-0.022845043625437333,"192":-0.025779764315875208,"193":0.026434672242902132,"194":-0.241517844264478,"195":-0.214694668883636,"196":0.019836236674976967,"197":-0.15544678155057043,"198":0.0695225308291122,"199":-0.15954335058005706}},{"sx":5,"sy":5,"depth":8,"w":{"0":0.1440176667568714,"1":-0.1028742836771261,"2":0.24701821618319275,"3":0.07602013422038803,"4":0.19366471003230679,"5":0.1480745500458223,"6":-0.07111722414308534,"7":-0.1565756583999286,"8":0.3048332696943719,"9":-0.3019535895648402,"10":0.08354109635449014,"11":0.12522527078039097,"12":0.11013213186548054,"13":0.14220522380509193,"14":-0.21348273217041366,"15":0.08455300436703611,"16":0.13854893704229898,"17":-0.27409997980865636,"18":0.15579008287396856,"19":0.05914336868945594,"20":0.03461660954571933,"21":-0.03603512995577325,"22":-0.14877104110659045,"23":0.046337833252986405,"24":0.04854399485721538,"25":-0.0878777373834889,"26":-0.022177121045012117,"27":-0.02071138547081398,"28":0.0676951919755328,"29":-0.048698698905724286,"30":-0.19969765140259,"31":-0.07976962571378265,"32":-0.03456122693089274,"33":0.02251613388630027,"34":0.06996984459548193,"35":0.11326353423055777,"36":0.0344473834473702,"37":0.06763432826971631,"38":0.09843444911569717,"39":-0.0863501927595771,"40":-0.0059673460282412966,"41":-0.14522227555519357,"42":0.06381842745440865,"43":0.19697119640855248,"44":-0.005443919819896907,"45":-0.005343179779154808,"46":-0.20894841011038148,"47":0.10144034828673698,"48":-0.040936031077448316,"49":-0.11563052399499436,"50":0.00983608511189905,"51":-0.05868548952543647,"52":0.016429873559951274,"53":-0.09855592197686201,"54":-0.22200944970554443,"55":0.1286999808355242,"56":-0.060572656618464046,"57":-0.21552453128479152,"58":-0.04794452628915561,"59":-0.09006192090587954,"60":-0.0302265690476776,"61":-0.03159241815672778,"62":-0.2796577729434332,"63":-0.004716195897969127,"64":-0.008124044490932826,"65":-0.13487919213484928,"66":-0.08812007615031679,"67":-0.20080505205239257,"68":-0.06305036847395014,"69":-0.09233458624198788,"70":-0.08120670471276242,"71":-0.13731818706102397,"72":0.12093047291146736,"73":-0.16263636598781467,"74":0.19259865599606504,"75":0.07165362824902242,"76":0.14300400205310768,"77":0.06604349023784177,"78":0.015356824088802337,"79":0.12017519585312804,"80":0.007395742395890267,"81":0.0162154818551008,"82":-0.052292318464064666,"83":-0.05561968688572498,"84":-0.07387156506668024,"85":-0.1231431881554001,"86":0.032576480706837364,"87":0.11298086786326621,"88":-0.15825949454970156,"89":-0.005911779540823199,"90":-0.04287190208626698,"91":-0.06256322107767841,"92":-0.11379133149859534,"93":-0.06782789255145111,"94":-0.12170345713921234,"95":0.013564087581774784,"96":-0.081230648126268,"97":-0.16144509325822612,"98":-0.25837810752070556,"99":-0.16653634560751504,"100":-0.34885838983414996,"101":-0.1181738193812361,"102":-0.15071381243520177,"103":-0.07782171738342913,"104":0.11551742895841455,"105":-0.18002589580752706,"106":-0.11056109459189882,"107":0.024126262585548758,"108":0.08895906351937136,"109":-0.017645153390965736,"110":-0.24322839490245698,"111":-0.016261597503718854,"112":0.07516527883940025,"113":-0.02329470892384381,"114":0.10473263743117349,"115":0.023127659663943364,"116":0.07955615747281455,"117":0.12428892207660647,"118":0.005951485593689892,"119":0.10610888559765727,"120":0.05217299806429335,"121":0.05763515318234117,"122":-0.007798823443596873,"123":-0.08994238593037089,"124":-0.19423290137656832,"125":-0.10250861750577511,"126":0.06485281450107366,"127":-0.07587454965246399,"128":-0.10119572993078045,"129":-0.06752440502136296,"130":-0.07485585835398934,"131":-0.1303647308880741,"132":-0.005859532566598138,"133":-0.0021310514088779295,"134":-0.05625067141285645,"135":-0.022905583762756893,"136":-0.14530238172269794,"137":-0.03212453670729579,"138":-0.15841134722755926,"139":-0.23329685557827184,"140":-0.15683783874326712,"141":-0.17674349561026398,"142":-0.24718064017620292,"143":-0.023810913444404752,"144":-0.048887016149445205,"145":0.050165348447793315,"146":-0.1492418781894402,"147":-0.19660846470865823,"148":-0.13554159065440816,"149":-0.08017254471877218,"150":-0.12030894563334125,"151":0.0169492329541699,"152":-0.3048277164701877,"153":0.4128456270080686,"154":-0.07798063076824144,"155":-0.09786360106235008,"156":-0.08483386362869579,"157":-0.04359472355442891,"158":0.3121322631004272,"159":-0.029354443228597787,"160":-0.046301419625418234,"161":-0.22088936316414712,"162":-0.006133132701341384,"163":0.024214769704810398,"164":0.05828848309617357,"165":-0.010199568016009143,"166":-0.03847833782390359,"167":-0.1866561149945619,"168":-0.016736210044655506,"169":-0.1266673996385255,"170":-0.07088010349044145,"171":-0.020409259980456448,"172":-0.15989190213072826,"173":-0.16194285325512872,"174":0.0645648667384197,"175":-0.334983625949546,"176":-0.13305672904581475,"177":0.08997049319578798,"178":-0.26597002954891896,"179":-0.27795158713846607,"180":-0.1261419807107227,"181":-0.12471742275052006,"182":-0.048969443793600846,"183":-0.27931758614183566,"184":-0.000991822832684475,"185":0.203011433029264,"186":-0.03428797326025821,"187":-0.0381104068012621,"188":0.04989667793610659,"189":-0.16806730274161683,"190":-0.004500626222631964,"191":-0.13466360566599211,"192":0.12114293347470567,"193":0.14142374252366122,"194":0.18705858569982312,"195":0.09913527247321607,"196":0.015556559675660003,"197":0.024018482448102514,"198":-0.02260833588098529,"199":-0.19641259271476572}},{"sx":5,"sy":5,"depth":8,"w":{"0":0.10795000804461327,"1":-0.1511116398200293,"2":0.015634527604767023,"3":-0.07751234648842256,"4":-0.1507968677913189,"5":0.06539629155268527,"6":-0.1534019648269942,"7":0.20582036723816335,"8":0.057016096572562576,"9":0.05672599928671474,"10":-0.17416714236737224,"11":0.03978888863697759,"12":0.020702075390862544,"13":0.02451249760997232,"14":0.07874655921195566,"15":-0.03199475911812202,"16":0.1434131697673139,"17":0.10284297185681468,"18":0.05153616868068729,"19":0.20330108022079582,"20":-0.01944721220433389,"21":-0.04688498102755229,"22":0.2757112293822747,"23":-0.16309933656755282,"24":0.09449102955673143,"25":0.03802028365885796,"26":-0.16876164516431888,"27":-0.14159952495826666,"28":0.06945810516072595,"29":-0.22504288427190677,"30":0.08322418220028491,"31":-0.24509108906796778,"32":-0.03392902491194631,"33":-0.05154533998487086,"34":-0.1792638130349747,"35":-0.29944021730930487,"36":-0.2868664637698699,"37":-0.1189542300453344,"38":0.0246022502100013,"39":-0.1573497486292693,"40":0.026602108114963243,"41":-0.016402539268112658,"42":-0.1841801095441301,"43":-0.3821500240661661,"44":0.04952445891301066,"45":0.14080351566518523,"46":-0.354449863185164,"47":0.09671478519247599,"48":0.1917734449616425,"49":-0.04046968608557123,"50":0.00859872604582124,"51":0.02815408037151393,"52":0.0250336618489332,"53":-0.04695624861876485,"54":-0.2800771882706638,"55":-0.03869297753919328,"56":-0.1613475370119274,"57":-0.06008465822907515,"58":0.1299181333767424,"59":0.15886225790443081,"60":0.1374121667007669,"61":0.22560808465681986,"62":0.06852806446313418,"63":-0.0027424426462351807,"64":0.002870174352200718,"65":-0.03731071107481775,"66":0.15426969100671625,"67":0.08051008485648159,"68":-0.11649384557261355,"69":-0.03299712147509559,"70":0.058207941383980444,"71":-0.08895809147613583,"72":0.031083871481286867,"73":-0.15210445783363707,"74":-0.19756382303224868,"75":-0.1267421151647234,"76":-0.203301052630371,"77":-0.052497276095999204,"78":-0.13144324035517627,"79":-0.124637489301284,"80":-0.015397309687596072,"81":0.25355803680135836,"82":0.1619290943382642,"83":0.02393212880728851,"84":-0.19533764073561838,"85":-0.08748704705184988,"86":-0.15586199189769756,"87":-0.44439372107591407,"88":0.20368133123759374,"89":-0.027455214977809977,"90":0.1916132445026795,"91":0.10265884907908744,"92":0.07914452377917583,"93":0.07849597918807878,"94":-0.18251643819271154,"95":0.01995146398764081,"96":-0.0652926240080024,"97":-0.055527471663067034,"98":0.16210679929213737,"99":0.08461659561225192,"100":0.08007260566475895,"101":0.2384457427685188,"102":0.07818405657325733,"103":0.10619580291785329,"104":-0.05042614264246805,"105":-0.1892351535012337,"106":-0.2330027409618982,"107":0.1658602468292791,"108":-0.02349059382343907,"109":-0.27108274379421027,"110":0.04043374281649378,"111":-0.04098025205714347,"112":-0.02444087928506682,"113":0.08304339576132037,"114":0.004064458715955427,"115":-0.11538307259507666,"116":-0.07947731509080265,"117":-0.04638805855000811,"118":-0.1964880230263875,"119":-0.045691250489692935,"120":0.017312927138636844,"121":0.18863949211870315,"122":0.20392042302435257,"123":0.03305945447063573,"124":0.007091075681448691,"125":-0.08110640026269796,"126":-0.1483929346163003,"127":-0.031109302294478818,"128":-0.023436936653078187,"129":0.033052240108236076,"130":0.03596764301661522,"131":0.10237580073192364,"132":0.09182071648634389,"133":0.10808291812376387,"134":-0.13670139222265365,"135":0.12681125935151022,"136":-0.03418358046590969,"137":-0.08381251221938206,"138":-0.08154511472739545,"139":0.0003855383034672339,"140":0.025931403651440196,"141":0.16046728789553003,"142":0.0796535672752179,"143":0.023302094337007407,"144":-0.28777429942945426,"145":-0.12044783274131622,"146":-0.13184618423164357,"147":-0.046736093493123805,"148":-0.21450215883618584,"149":-0.050971641188584785,"150":0.0050247244929403825,"151":-0.2175695256007208,"152":-0.013816344314369946,"153":0.13520752521890314,"154":-0.0948150783093508,"155":-0.1671972768171829,"156":-0.020169324241474513,"157":0.10816327299159498,"158":0.0426378216423503,"159":-0.10569605053730087,"160":-0.09085728135415,"161":0.018455684850636717,"162":-0.018404784239087563,"163":0.14003653402306035,"164":-0.06750154527827638,"165":-0.2541228049519159,"166":-0.17203269547214642,"167":-0.04219102567047541,"168":-0.05277319678765021,"169":-0.018407172999241214,"170":-0.10161008713349172,"171":0.06866677564915195,"172":-0.010316557211084378,"173":-0.06867431061524312,"174":0.011493280481951472,"175":0.1624809842493656,"176":0.00825020010384399,"177":0.1482525363415926,"178":0.055779902409780986,"179":0.033012867393611665,"180":-0.0007546144265765548,"181":-0.08190467787618552,"182":-0.03401007107180505,"183":-0.132332615633982,"184":0.007459724622103754,"185":0.043016387389415364,"186":-0.1978905407385379,"187":0.012593745250746264,"188":-0.12948251286680956,"189":-0.09763833488294534,"190":0.09968071664931942,"191":-0.16414791062519202,"192":-0.113440655671184,"193":0.045615423818894316,"194":0.05330730783425828,"195":-0.11108556230939508,"196":0.007509024048284017,"197":0.24523383533626641,"198":-0.03729960356399937,"199":-0.17845320254107708}},{"sx":5,"sy":5,"depth":8,"w":{"0":-0.14372182108365253,"1":0.20063460604613206,"2":-0.26310759615736057,"3":-0.3529331735367856,"4":-0.06653545875502387,"5":-0.13280292458296816,"6":-0.2940927140138134,"7":-0.27927803857199746,"8":-0.07940117426940523,"9":0.16890481036829652,"10":-0.00900344805290303,"11":0.1597861171712747,"12":0.005323359938476215,"13":-0.004747264749445773,"14":-0.022762232593232283,"15":-0.3608819534444439,"16":0.1456820965445911,"17":0.2831161920458408,"18":0.20359760083978834,"19":0.08135807269593014,"20":-0.08352148963978005,"21":-0.019274639724101983,"22":-0.02902412042667583,"23":-0.18376301916494645,"24":-0.0363333147166557,"25":-0.0001528118831728598,"26":0.2598437282335583,"27":0.07192592220140324,"28":0.03717221272654341,"29":0.14154665737617483,"30":-0.21842867130501314,"31":-0.07170182433542133,"32":0.04972660856994818,"33":0.022222906059036457,"34":0.011428635727401899,"35":-0.03669115316065298,"36":0.24493486237976345,"37":0.07471042825504617,"38":-0.16555648666830772,"39":0.19989020321892562,"40":-0.27818209867735655,"41":0.11913913956146073,"42":0.011392405337976122,"43":-0.04680083230652515,"44":0.04948366929193271,"45":0.10683822363026603,"46":-0.06122331171933495,"47":-0.25120201396941316,"48":-0.043313819168212975,"49":0.09365258127748421,"50":-0.0029939499953714377,"51":0.1501212790397174,"52":0.00860688076195419,"53":-0.014781299911375213,"54":-0.27134902252946624,"55":-0.24284403212719513,"56":-0.015474245011615987,"57":-0.07276188665842089,"58":0.11132496841358042,"59":0.09881308171293231,"60":0.15375605879190773,"61":0.06543263684076715,"62":-0.06730865443553902,"63":-0.21538704644771983,"64":-0.04533256618538114,"65":-0.0866959648492817,"66":-0.036609794625958446,"67":-0.015262138914735308,"68":0.04525554518891833,"69":0.01687308066860117,"70":-0.10810290063015869,"71":-0.03763075191410509,"72":-0.23526520770340315,"73":-0.02827966109371765,"74":-0.11496086004742244,"75":0.07720503786933841,"76":0.007225280739751339,"77":-0.02993336770563839,"78":-0.15124825348561716,"79":-0.09061316724446618,"80":-0.00990014387515072,"81":-0.10534764200347287,"82":-0.006209963584151569,"83":0.01712375730360536,"84":0.07245294937968784,"85":0.1430570740196425,"86":-0.11525295571958057,"87":0.049180240838245855,"88":-0.16893980367697517,"89":-0.3720695379397777,"90":-0.11152626113454749,"91":0.0768214032800343,"92":0.21064671354793713,"93":0.09712892703851803,"94":-0.0728909047656529,"95":-0.09131067719501407,"96":-0.09208097976584279,"97":-0.1824454625542461,"98":-0.06874758282819236,"99":-0.11308320928299624,"100":0.10133165661833686,"101":0.09385240366893721,"102":0.1256438712306782,"103":-0.18779952873399364,"104":-0.05057902625559074,"105":-0.1866948964927572,"106":-0.03875069519956573,"107":-0.11577826961816952,"108":0.12123798709547384,"109":-0.04556683822123481,"110":-0.034137843852312534,"111":-0.2760523662538818,"112":-0.04775346515086585,"113":0.054199405128489815,"114":0.07764071959899224,"115":0.08653810027435867,"116":-0.036000355850003184,"117":-0.03832315455932522,"118":-0.015585306813107705,"119":-0.048901148486029014,"120":0.06999446077759294,"121":-0.21822425771397608,"122":-0.02945919151512162,"123":-0.006125281378032955,"124":-0.04936755852208959,"125":0.05971636346590898,"126":-0.16335727301007963,"127":0.19314770138014184,"128":0.18802786056168716,"129":-0.38395235190797394,"130":-0.010656039293001417,"131":0.10932074189670313,"132":-0.03297247355254114,"133":-0.050848925227574004,"134":0.15935218890783992,"135":0.1591866257838602,"136":0.031150813996547302,"137":-0.06946073054529985,"138":-0.1493866463230529,"139":-0.032986879360291065,"140":-0.056786418192977084,"141":0.1139714776019446,"142":0.005572326687934964,"143":0.13260820738711324,"144":-0.02073995444656262,"145":0.13925989824524923,"146":0.1310410938354833,"147":-0.07763090081641938,"148":-0.08720616069455144,"149":-0.15823337442402316,"150":-0.03678314306079413,"151":0.14169170580470947,"152":-0.024010706667379745,"153":0.1332806370730594,"154":0.23870794589674868,"155":-0.09179770713125888,"156":-0.006461442185542355,"157":-0.020636856470346035,"158":-0.0057856967171238454,"159":-0.026489691588900507,"160":0.19222869625787317,"161":-0.09054234280580935,"162":-0.004673186699871225,"163":-0.11677723763948081,"164":-0.06371213258207298,"165":-0.008732539334960984,"166":-0.03830574367730314,"167":-0.13365000987289402,"168":0.015700920096484366,"169":0.05630384108669762,"170":-0.12071845762032767,"171":-0.09499650808499135,"172":-0.12580720165682902,"173":-0.12014608996288033,"174":0.1882689218542936,"175":-0.04674070655022218,"176":-0.05028461796932732,"177":0.20173979166561049,"178":0.11016373889634179,"179":-0.00009554374249638059,"180":-0.14009735187109779,"181":0.02779932992995865,"182":0.012217599819341745,"183":0.12372342137898189,"184":-0.12191139712053715,"185":0.32118142659015275,"186":0.13185430054929623,"187":0.1544944529117525,"188":-0.08488341155306273,"189":0.04151691266442577,"190":-0.15367020596302405,"191":-0.07240874269800916,"192":-0.0004618119710061109,"193":-0.2125538931146856,"194":-0.10837942028255197,"195":0.01551139307428146,"196":-0.03652489013009148,"197":-0.016411226935915818,"198":-0.1540362580446699,"199":0.18794686215460754}},{"sx":5,"sy":5,"depth":8,"w":{"0":0.19888220589966946,"1":-0.10439642288262989,"2":0.02168612345751455,"3":-0.015570318295877494,"4":-0.09204145405170698,"5":-0.011277988138944766,"6":-0.03741294115692177,"7":0.017673540097338125,"8":0.10749391400181714,"9":-0.19226349974146015,"10":0.17155292261748184,"11":-0.05509086742922009,"12":0.09239955094224885,"13":-0.039474247772752435,"14":-0.03582465821898627,"15":0.12357057671609914,"16":0.17891887474333293,"17":-0.06925849273399098,"18":-0.010771714722107075,"19":0.051881042177728647,"20":0.012328722093619585,"21":0.00483407383143972,"22":-0.10012931424777989,"23":0.214895902781759,"24":-0.11846525146351962,"25":-0.12544029700321088,"26":0.07151456396523694,"27":-0.05145727181234625,"28":0.1019758087268799,"29":0.010724428689353012,"30":-0.2076169380598219,"31":-0.036224984168693845,"32":-0.14961185461316295,"33":-0.3376222903917249,"34":-0.0068229906306538435,"35":0.11985774481896232,"36":0.022754728802456634,"37":-0.03342562913435498,"38":-0.1227414990422159,"39":0.033613023498701974,"40":0.11903925808215388,"41":0.05481789260175705,"42":0.02976941359282293,"43":-0.12690542380928704,"44":-0.15775124437522592,"45":-0.22327866820849365,"46":-0.13892658999845742,"47":-0.0725985963198561,"48":-0.04289204689889653,"49":0.01877731158417478,"50":-0.06832955415625064,"51":-0.06084051996716733,"52":-0.0941356164622718,"53":-0.14100821366343314,"54":-0.09891152426265926,"55":-0.053646971979818825,"56":-0.09060113015557313,"57":-0.017149747844010892,"58":-0.06986227373039573,"59":-0.18764022516707335,"60":-0.07621130229338728,"61":-0.15720308640476474,"62":-0.22872149552132945,"63":-0.07304461899625371,"64":0.11331066780188884,"65":-0.06892252610675144,"66":0.15495161906026464,"67":0.0977042704587669,"68":-0.06437387146670238,"69":0.033136164271351555,"70":0.019953856855423096,"71":0.08301337975998803,"72":-0.0984984839453851,"73":-0.27416641424809707,"74":-0.05980083593031046,"75":0.002873925591799147,"76":0.02468463952536113,"77":0.014085413719904533,"78":0.18592459951764256,"79":0.08669909970209093,"80":0.012054603660744567,"81":-0.043140930784846626,"82":-0.02419843832143985,"83":0.025325001140468487,"84":-0.12280833161889872,"85":-0.14518073565072895,"86":-0.0809037788662388,"87":-0.052682704827466044,"88":-0.09258814300815414,"89":-0.0008220478147414375,"90":-0.23051164425837187,"91":-0.19884812258911203,"92":-0.2874175645642517,"93":-0.09754660185674549,"94":-0.2576925209971527,"95":-0.16742468478754177,"96":0.0033292135427184463,"97":-0.04287393221727226,"98":0.12066498102977814,"99":0.020646469015355582,"100":-0.08002783088790229,"101":-0.13687079181868408,"102":-0.02252778602190554,"103":-0.156950991332648,"104":0.18388804973860653,"105":0.12338034818931899,"106":0.2859066940231178,"107":0.08518169477655366,"108":0.0199917471504452,"109":0.14748570659711524,"110":0.11575697715385017,"111":0.13166095738352865,"112":0.055087382849195565,"113":-0.18667094996428754,"114":-0.04792930718898677,"115":-0.007701791310532094,"116":0.016475654383305473,"117":0.030809417632934974,"118":0.08550184971147219,"119":0.09865370935500214,"120":-0.018663810817333423,"121":-0.022731050006548705,"122":-0.09584608374916544,"123":-0.050065639122711086,"124":-0.052268549292792676,"125":-0.21133990767886465,"126":0.07623619944678019,"127":-0.1403853930721138,"128":-0.19638578125091782,"129":-0.13451866577234337,"130":0.008719729846545997,"131":-0.08902415294274368,"132":-0.13245671727876457,"133":-0.06328490713897142,"134":-0.23818589462698528,"135":-0.15358056667882383,"136":-0.011760892193764508,"137":0.10349645698646115,"138":-0.09100035768701081,"139":0.07854354176020753,"140":0.06696997844093273,"141":0.10520121752157668,"142":0.06446338239694269,"143":-0.2183679717263225,"144":-0.12670845286922833,"145":0.013883118788953028,"146":0.05314213003367975,"147":0.10674692466563795,"148":-0.04394545330929625,"149":0.04028809069067661,"150":0.11961010883556641,"151":-0.1290020185367631,"152":0.021495533511148236,"153":0.056720777951146564,"154":-0.17522935028167158,"155":-0.1645510684395152,"156":-0.2076364778225319,"157":-0.29568799082284325,"158":0.09543653527340067,"159":-0.10414934600400724,"160":0.0012666677684025926,"161":0.026474238599103486,"162":-0.004217356064668807,"163":-0.08789569815230816,"164":0.06300065840719897,"165":-0.2169554758810239,"166":0.10245471268301508,"167":-0.1475595503353971,"168":0.08833261947758866,"169":0.06556551720349243,"170":0.056137045228233595,"171":-0.013208894628564144,"172":-0.15338325116305795,"173":-0.024444600322649487,"174":-0.2157786872087469,"175":-0.1785914214728198,"176":-0.046870154700650396,"177":-0.0006646349607915079,"178":0.061614142600792385,"179":0.15840127841602394,"180":0.08760812674272236,"181":0.07984141966894379,"182":-0.08077034001189935,"183":0.018538075459060502,"184":-0.036478593119110364,"185":-0.15642149890392776,"186":0.08671334073362622,"187":0.04762467728635468,"188":-0.10228046387852202,"189":-0.019513661193665696,"190":0.14691066257998758,"191":0.13226655794312317,"192":-0.04817483305126076,"193":-0.04696295727536168,"194":-0.35130804164325724,"195":-0.07299793245614362,"196":-0.20053892525262051,"197":-0.2240053185720488,"198":0.006846696354432847,"199":-0.1559611512336081}},{"sx":5,"sy":5,"depth":8,"w":{"0":-0.03695978955754266,"1":-0.07535021604330389,"2":0.08470789287987766,"3":0.07125718402058721,"4":-0.02040314260466199,"5":0.08196167161023646,"6":-0.1605665956967957,"7":0.0020886016490276192,"8":-0.08839778949767357,"9":-0.026662573575086595,"10":0.014436158142839843,"11":0.0785365853526054,"12":0.02955424964130477,"13":0.05998932010359891,"14":-0.16534836992761098,"15":-0.015284949983811375,"16":-0.06640272171388126,"17":-0.1431867720920085,"18":0.15328291290577284,"19":0.19966826585748937,"20":0.18142509222107575,"21":0.05951298396582017,"22":-0.14829979380732566,"23":-0.22115342865719123,"24":0.10826047022728037,"25":-0.30159838314551274,"26":0.13174467640184498,"27":0.0974365093136246,"28":0.17235440670561253,"29":-0.029424576487161694,"30":-0.1800169667401449,"31":-0.0970790981757243,"32":0.05873704253745772,"33":-0.10019795235174461,"34":0.0949506392082267,"35":0.10302169247387696,"36":0.1012519217678789,"37":0.10534369976827422,"38":-0.14801737345906935,"39":0.2248751891310835,"40":0.04197362186602073,"41":-0.36111226677176406,"42":0.010406788441477457,"43":-0.004762852697644305,"44":0.10074751497562867,"45":-0.2278592385464456,"46":-0.14311156509132178,"47":0.022455997322990966,"48":-0.11657851597608357,"49":-0.24567846283448652,"50":-0.1236253591944372,"51":-0.09825343747626847,"52":0.16960336713829377,"53":0.06916271792128464,"54":-0.18194806175722272,"55":0.05807578649385357,"56":-0.19108936496576892,"57":-0.32971869705809265,"58":-0.06753233615313388,"59":-0.06706335314066583,"60":0.2551859864937907,"61":0.3220367281441576,"62":0.011690047293206128,"63":-0.28838120367886716,"64":0.11443321812416861,"65":-0.27809825994753284,"66":-0.05330129160005976,"67":0.1008593532762478,"68":0.08837209136547944,"69":0.0904246617833438,"70":0.3471220482277666,"71":-0.3834178699768759,"72":0.17312041685554147,"73":-0.04080351835470052,"74":0.22088095289854318,"75":-0.035840119912533115,"76":0.17790540156165474,"77":0.13456177003403638,"78":0.1622640937059816,"79":-0.010611263485810606,"80":-0.04102147990194076,"81":-0.32140020532228003,"82":-0.02746559305478177,"83":-0.04257938370420824,"84":0.11042253794708054,"85":-0.14610520622705644,"86":0.012411390460542676,"87":-0.21743829118096397,"88":0.31241015732423183,"89":-0.252893289192337,"90":-0.11024476725674862,"91":-0.1025558777783789,"92":-0.021701341167898354,"93":0.06578919073896247,"94":-0.28573271126805705,"95":0.06910296335913359,"96":0.07282367918246982,"97":-0.18864957097705856,"98":0.04209551286606564,"99":-0.03947630971038761,"100":0.13753370776702953,"101":0.19424431019471133,"102":-0.06832227303542071,"103":0.12597984119831246,"104":0.14200016467785453,"105":-0.08495619637362538,"106":0.002741200364329472,"107":0.07272269281376212,"108":-0.07246885234357531,"109":0.11415952699094248,"110":0.1769935398011431,"111":-0.0748915928539839,"112":0.10663698107204941,"113":0.031161639114207936,"114":0.11774745496946275,"115":0.1508380510493604,"116":0.05021286009750371,"117":-0.05928921682970027,"118":-0.0018945212616825562,"119":0.013610771412841127,"120":0.05953994247417672,"121":-0.0773011460741715,"122":-0.02530692924125612,"123":0.022297915332852036,"124":-0.06276666952684162,"125":-0.0034854914221547633,"126":-0.14291610631145613,"127":-0.06981654512455665,"128":0.06300817111849154,"129":-0.09959054861789259,"130":-0.04460207390597931,"131":-0.11807692954879188,"132":-0.16759886661682877,"133":-0.06592351174183689,"134":-0.27358148505259827,"135":-0.006698305452891616,"136":0.0863665263471467,"137":0.04196080068326802,"138":0.030554771365060192,"139":0.19407733072913297,"140":-0.035607603020106696,"141":0.1410860634115965,"142":-0.15128518281078407,"143":-0.01934433429769878,"144":0.008986325042385404,"145":-0.21428930193093537,"146":-0.17995221342853515,"147":0.01993304673402225,"148":0.044280162001139364,"149":0.18744583809345522,"150":0.0070888429523312,"151":-0.2244135992613592,"152":0.039049569143893834,"153":-0.023196184865333775,"154":-0.03245149688263673,"155":-0.0944559571976114,"156":-0.01695452424391554,"157":-0.10644055797668375,"158":0.13436476257740962,"159":-0.13000196081924256,"160":-0.09893650238810056,"161":0.07740573144092633,"162":-0.022549096734008903,"163":-0.10490659082194731,"164":-0.05878522858915898,"165":0.07425687757955919,"166":0.03292675628458471,"167":-0.12341896174114529,"168":-0.020990123263546843,"169":0.08264846127548034,"170":0.008961052682569894,"171":0.062454316487202205,"172":-0.0752026923585727,"173":-0.029248348723036305,"174":-0.03614586475658649,"175":-0.20505316798626766,"176":0.08461847617046674,"177":-0.1230752765676261,"178":-0.03889548698757965,"179":-0.15338817878965866,"180":-0.12189731319056386,"181":0.11891174366404234,"182":-0.0714739615156176,"183":-0.07591554630065177,"184":0.08324250061426051,"185":-0.21742334551533873,"186":0.031264444334178056,"187":0.10817726130384828,"188":0.07955981737819372,"189":0.032592007284936775,"190":-0.1994730150035218,"191":0.06163370603810861,"192":-0.10969317177773256,"193":-0.29704319436570015,"194":-0.09226976694768683,"195":0.07419926173072729,"196":-0.06626986027705734,"197":0.17592665861698997,"198":-0.014822413988330773,"199":0.028643164989021634}},{"sx":5,"sy":5,"depth":8,"w":{"0":-0.04841630081917306,"1":0.0959819830290622,"2":-0.018666554738371373,"3":-0.07305710938077112,"4":-0.04606819045240119,"5":0.0797352275295014,"6":0.04311442390603823,"7":-0.022047785597298322,"8":-0.11370694151639434,"9":-0.011944108545135959,"10":-0.025817029028093928,"11":0.061910342267610025,"12":-0.019843296264680125,"13":0.15457394586377693,"14":-0.05395263075929855,"15":-0.005815012413992084,"16":0.0716090595958278,"17":-0.052305001702021015,"18":-0.05886307098450098,"19":-0.07794436497634893,"20":0.15492798947532038,"21":-0.060102749087223045,"22":0.04581699337279366,"23":0.12837716248112074,"24":0.10195951309313309,"25":0.053036521142072995,"26":-0.04800643379957002,"27":0.027543480404818466,"28":-0.04864391817161921,"29":0.05872076968774146,"30":-0.18731285544017634,"31":0.005706047738390213,"32":0.03351678222534394,"33":-0.09891067563004415,"34":0.11146738132186976,"35":-0.09799963916364186,"36":-0.050380139732265176,"37":0.11056961440031061,"38":-0.201551728648357,"39":0.0002688083272957051,"40":-0.08724434845719148,"41":-0.14346835203472405,"42":0.015542874726599274,"43":-0.11948390103589579,"44":-0.043542046329112676,"45":0.0400693609124899,"46":-0.3951549401879543,"47":0.14903480545787964,"48":0.02004153346442992,"49":-0.05186379241264795,"50":0.025531008408438156,"51":0.0478248078982197,"52":0.07850101924597463,"53":0.03333492395982888,"54":-0.10979261145031141,"55":0.0833881921331969,"56":0.134645243170541,"57":0.087580866362208,"58":0.05140648526922752,"59":0.10856607211378022,"60":0.0982783588550277,"61":-0.017199168386164705,"62":0.14287151460710482,"63":-0.21833569586732238,"64":-0.0023575591119558504,"65":-0.158730431024933,"66":0.09780785364373797,"67":0.0008818868799897345,"68":-0.0612635926502348,"69":-0.08359129959198278,"70":-0.09346323460118065,"71":-0.0695537752716845,"72":-0.06946304539362473,"73":-0.09663654718898165,"74":-0.005147932660271672,"75":0.002447678362094053,"76":0.06853546372270108,"77":-0.04960388728973167,"78":-0.2830186638558022,"79":-0.056735460898561525,"80":-0.1278990301890018,"81":0.22982930651765598,"82":0.026200623704844127,"83":-0.2413908258127129,"84":0.04852413901392627,"85":-0.15716808965076293,"86":-0.1583861333344846,"87":-0.33481245246599206,"88":0.14210979247612415,"89":0.03631578937502444,"90":0.23228573189715226,"91":0.1664409589039536,"92":0.19988432273134144,"93":0.17134676312825017,"94":-0.14319057711467584,"95":-0.27401268497716935,"96":0.016765285643869546,"97":-0.028041783916513328,"98":0.19721736241326207,"99":0.3905493392889382,"100":0.1115506556969875,"101":-0.07160981525005433,"102":-0.015038819959691503,"103":-0.032580573079643786,"104":-0.09546154076897459,"105":-0.24171876361738653,"106":-0.0981078986859114,"107":-0.051264240303392335,"108":-0.1136519080855789,"109":-0.2428108310110129,"110":-0.18749310695410293,"111":-0.044348864547193834,"112":-0.03357641083091858,"113":-0.003938585186709776,"114":-0.07905806255314873,"115":-0.13676195596206853,"116":-0.025763721903068013,"117":-0.054947936065924435,"118":-0.01585271872054387,"119":-0.19800486964781877,"120":-0.1359801954493237,"121":0.11911185952642707,"122":0.2830513491157886,"123":-0.011439016656049473,"124":0.008616040975815517,"125":-0.01036796587317867,"126":-0.31249999812479196,"127":-0.1664035855774909,"128":-0.03752346723804231,"129":-0.07503765305720322,"130":0.13172670593963254,"131":0.2958876110079607,"132":0.20040991434647595,"133":0.043346595486945916,"134":-0.019320166543658427,"135":-0.03322966668336783,"136":-0.0261984091290954,"137":-0.18690913355513425,"138":-0.12641032552356485,"139":0.02220024038137823,"140":0.06559048233243289,"141":-0.15075718400179117,"142":-0.025879934931415327,"143":-0.03864044659032307,"144":-0.19913163019007946,"145":0.12689837647265098,"146":-0.2101132399076337,"147":-0.14940800951089486,"148":-0.2277604705651997,"149":-0.1455020126487571,"150":-0.11218335538320218,"151":-0.017910519488269338,"152":-0.16397132381371335,"153":0.018399045740176825,"154":-0.1372867202628354,"155":-0.08453304976413116,"156":-0.1955534218669863,"157":-0.11868665585014468,"158":-0.16410372449689334,"159":-0.2656577230852477,"160":-0.16322649905617045,"161":-0.1874316089869886,"162":0.22052510300726944,"163":0.15027598842267953,"164":0.22819683112298736,"165":0.05196451120363982,"166":0.09026485859655853,"167":-0.13919749097566148,"168":0.058487722217573354,"169":-0.22822813584835286,"170":-0.03210577202343474,"171":0.028116655115444037,"172":0.12806189073429308,"173":0.08331349328061284,"174":0.20671227613791324,"175":-0.13126428060084863,"176":-0.06105410253954266,"177":-0.15345666373534186,"178":-0.13387299128969438,"179":-0.09512845043732883,"180":-0.11328801062559564,"181":0.015349890372768927,"182":0.10591454985602967,"183":-0.19527786016172025,"184":-0.04994951163402635,"185":-0.07681793878205655,"186":-0.22513571406815,"187":0.004178905330523688,"188":-0.07331431806400858,"189":-0.13340474324366106,"190":0.018667738573993346,"191":-0.223033763711388,"192":0.1067328849592262,"193":0.1871088364248054,"194":-0.08023431525814613,"195":-0.08599539076104022,"196":0.11600303252124995,"197":-0.009800584515559816,"198":0.09726325141422061,"199":-0.08181303553231374}},{"sx":5,"sy":5,"depth":8,"w":{"0":0.04976098154339149,"1":-0.24904801759828107,"2":0.12158822586584747,"3":0.2402684132580235,"4":0.1198259555724441,"5":0.2047200687772684,"6":-0.0679311718070342,"7":-0.05789352878906369,"8":0.05868394986848723,"9":-0.29684662701910347,"10":0.112353043620009,"11":0.11148212014005449,"12":0.04240174638514998,"13":0.05150447761844026,"14":0.026114432828488292,"15":-0.055921965941319256,"16":0.11996828830559216,"17":-0.3002606251359768,"18":0.007874610433121744,"19":0.006094562532533974,"20":0.062418192415315966,"21":0.04590592324379825,"22":0.10547588709761646,"23":-0.1330994910157282,"24":0.03740294110585127,"25":-0.04763305462025691,"26":-0.18722177572845577,"27":0.017089347252159375,"28":0.05471197954422054,"29":-0.04145746743017841,"30":-0.004491264744969697,"31":-0.24860766344087745,"32":-0.06952734923987815,"33":0.1079437998054024,"34":-0.02680653709885918,"35":-0.054168885880193814,"36":0.05458711627995346,"37":-0.020966197740082262,"38":0.08006969832854197,"39":-0.21335700887348868,"40":-0.028122115742073888,"41":-0.25178824439516734,"42":-0.0059647948197000715,"43":-0.008051124950487588,"44":0.07162633805689948,"45":0.2242554228231862,"46":-0.1638611744177598,"47":-0.12087604314758965,"48":-0.0054251237421719355,"49":-0.31272199221247005,"50":0.10920648658232972,"51":0.07030377629849628,"52":0.07274944369898419,"53":0.06031634382466752,"54":-0.06702930765228961,"55":-0.1901277771203354,"56":0.009963437549094963,"57":0.022221030662956186,"58":0.014115299903676198,"59":0.11150923269394344,"60":0.039239589460182786,"61":-0.04782460119889097,"62":-0.06353254365299642,"63":-0.22219888374850935,"64":-0.10095899658247001,"65":0.045563279874702906,"66":0.051785951099942565,"67":-0.005104657004853144,"68":-0.041888220311971223,"69":-0.08161523927530445,"70":-0.013663150038763328,"71":0.13855409678523248,"72":-0.10071766556076359,"73":0.20053421377686462,"74":0.1700748749978888,"75":0.04349191414492848,"76":0.2023004230091069,"77":0.09989082290912944,"78":0.017257591357063305,"79":-0.03253551639656277,"80":-0.025167775739073056,"81":-0.06878209481273032,"82":-0.14180863735662655,"83":-0.08173517153248301,"84":0.10345824506113366,"85":0.1718476078246995,"86":-0.022454439517490415,"87":-0.22202068562955474,"88":-0.11311173102288984,"89":-0.21007381525496635,"90":0.03552731885577606,"91":0.0500947789532858,"92":0.13145181942510736,"93":-0.023242397656105213,"94":0.04739865465672492,"95":-0.4197833169470412,"96":-0.07655902049547064,"97":0.004912272875455248,"98":0.09538415365791542,"99":0.04084423803816476,"100":-0.05176491346729211,"101":0.006318280784839756,"102":-0.05354503022938145,"103":-0.32464295516989183,"104":0.04454712222022303,"105":0.2293070823738401,"106":0.18604447413240416,"107":0.13241477448866684,"108":-0.00737265528832429,"109":0.028789696201652244,"110":-0.2032611103236493,"111":-0.19757237312182643,"112":-0.005452151735567939,"113":0.06115024363333488,"114":0.14252603672774267,"115":0.1885957768698937,"116":-0.1109923687140895,"117":0.029149802316077042,"118":-0.3332763917637946,"119":0.11743216659480407,"120":-0.010134825964117133,"121":-0.16014019664263135,"122":-0.07960260597648493,"123":-0.059169841582553014,"124":0.06542138433592912,"125":0.2346862920526248,"126":0.0676838611245703,"127":-0.010303356747163775,"128":-0.06751641521531912,"129":-0.011779632201894069,"130":-0.01591057443490186,"131":-0.0021699982108921816,"132":0.15636593400821439,"133":0.07836427101484157,"134":0.10727628315773938,"135":-0.26760516833195663,"136":-0.03444068286885921,"137":-0.019973145865445865,"138":0.1192565154569008,"139":-0.10643224420668494,"140":0.03291805597097025,"141":-0.024239491866168566,"142":0.1367368698773969,"143":-0.4499736506180715,"144":0.10086223178071452,"145":-0.204071188978607,"146":0.13421514757024117,"147":-0.05379095473039974,"148":0.1853316564925419,"149":0.07383243159616548,"150":0.11051891729442673,"151":-0.14540370406962652,"152":0.16928982947861304,"153":-0.10688927854027304,"154":0.12429964115061487,"155":-0.08395719161447965,"156":0.08903020795829575,"157":0.11059064454780825,"158":-0.13190091815145785,"159":0.19399714067289145,"160":0.1834603251662702,"161":-0.07755022185152166,"162":0.10629493610002294,"163":0.06145116653498446,"164":-0.12146284378149048,"165":0.0740021974091073,"166":-0.1440657235689928,"167":0.19294012253848059,"168":0.027100818830609552,"169":-0.11456630250334708,"170":0.13237303577976856,"171":0.01391306058051827,"172":-0.14451361139251737,"173":0.049757402881594436,"174":-0.25371530136963905,"175":0.2776454111629689,"176":-0.14990840604686323,"177":-0.22472031568221218,"178":0.0061331787182272906,"179":-0.09350222436337256,"180":0.10848246031555235,"181":0.029887043606894745,"182":-0.02206928292492393,"183":0.02631397602636901,"184":0.0423155888660397,"185":-0.19940132319599055,"186":-0.00003642749403055595,"187":-0.11531159236660853,"188":0.21902816988227183,"189":0.052126461356459604,"190":0.44686740906230926,"191":-0.26301220532538355,"192":0.18323353737064463,"193":-0.02609708080525129,"194":0.04862250174546992,"195":-0.04772298043214758,"196":0.005899269858224924,"197":-0.13814736321780477,"198":0.30142108612056295,"199":-0.28679785455535267}},{"sx":5,"sy":5,"depth":8,"w":{"0":-0.07938301356939836,"1":-0.10516274682790536,"2":0.0840488279666086,"3":0.04125923047804001,"4":0.06946320145815597,"5":-0.014331337613928368,"6":-0.023034310256688402,"7":-0.04685223678983224,"8":0.06400059650565007,"9":-0.05101870607065627,"10":0.03383779004287838,"11":-0.11923207776240745,"12":0.03817993254527243,"13":0.07954547934802425,"14":-0.0377571974222977,"15":0.07436395348077364,"16":-0.13762087918869467,"17":-0.0603446381553314,"18":-0.018346628252338626,"19":0.008079633918601831,"20":-0.09356618406164052,"21":0.09002225615718827,"22":0.01692212330376261,"23":0.1277530248227375,"24":-0.1168896767542509,"25":-0.024193030190026093,"26":-0.16088631171986145,"27":0.04267212804186042,"28":-0.07097865768968192,"29":0.02873711401652457,"30":0.07910975189097616,"31":-0.09817059200175626,"32":-0.06398609020974463,"33":0.1648844477669716,"34":0.029582419084006523,"35":0.0658206993413197,"36":-0.032792938277158144,"37":0.1311909714059258,"38":0.19356503301943936,"39":-0.14473266787872552,"40":0.08440040609160995,"41":-0.05895861561915597,"42":-0.07320549293236839,"43":0.0636819140339787,"44":-0.008478443630520601,"45":0.04881450895268999,"46":0.009802676718710001,"47":0.01841323148086407,"48":0.07392105950238355,"49":-0.11401426063822205,"50":0.15337857478969102,"51":-0.039321947211071615,"52":-0.05215305873826367,"53":-0.0076964976997881945,"54":0.010386753871889583,"55":-0.11358172412435569,"56":0.025811674334067343,"57":-0.09186497991562514,"58":0.03622053666252972,"59":0.004090319307717495,"60":-0.14298327500525765,"61":-0.04855723403091138,"62":-0.17463264967939263,"63":0.16013888916103217,"64":-0.26818903211347755,"65":-0.03210648994765455,"66":-0.06984131804266445,"67":-0.001855687900726493,"68":0.00156714591993051,"69":0.1394715383628931,"70":-0.2769203470397155,"71":-0.17550376719103683,"72":-0.03304116078598362,"73":0.04831496076542194,"74":0.19547235131789092,"75":0.2252127194853151,"76":0.06548267559407688,"77":0.046399659412478846,"78":0.0005999556942024289,"79":-0.18783762113716254,"80":-0.034470178507575694,"81":0.02689256827141494,"82":0.14260934692864988,"83":0.1109097004655821,"84":0.04352678670404157,"85":0.04813084722774374,"86":0.09112705551475887,"87":0.0038814656210916882,"88":0.06859965901718541,"89":-0.21881596791135388,"90":0.04532154203365398,"91":0.13848575347440126,"92":-0.036855853397350785,"93":-0.040987815348391334,"94":0.10477312223013156,"95":0.1574242061227403,"96":-0.10669535483900215,"97":-0.048142092632553625,"98":-0.18460489255308235,"99":-0.1884252642401605,"100":-0.18843208995727725,"101":-0.169060483599221,"102":-0.2073548105116802,"103":-0.030050544088263173,"104":-0.19202148610546058,"105":-0.010824206559905894,"106":-0.05729843794258334,"107":-0.04270971165343313,"108":0.037444942489948736,"109":0.10485754467352904,"110":-0.14209974638366954,"111":-0.26838432668571155,"112":0.07442063100918199,"113":-0.13857294315596755,"114":0.11882134791836808,"115":0.11985604226044569,"116":0.32023735386487473,"117":0.046184972533773294,"118":0.006549340394317476,"119":-0.3893048375027984,"120":0.01625713998850768,"121":-0.01989846856238683,"122":0.13356499150237897,"123":0.057022405860125386,"124":-0.05060920821976698,"125":-0.012166653067523299,"126":-0.022872300507799224,"127":-0.005068414733203528,"128":-0.044465794977196715,"129":-0.16575913829973823,"130":-0.1189321677133539,"131":0.056815374653593695,"132":-0.1832299715538627,"133":-0.03911867610103564,"134":-0.1591742774783453,"135":-0.007530440980349772,"136":-0.23602638279527394,"137":-0.08783876768044577,"138":-0.25803827093364606,"139":-0.5128293390672493,"140":-0.43852350999756917,"141":-0.1221459140087497,"142":-0.36044352391990736,"143":-0.1567055960787264,"144":-0.08202072360730946,"145":-0.2051216607446548,"146":-0.029713578181868452,"147":0.1291380442106313,"148":0.016356784430320098,"149":0.1156174040388804,"150":-0.19883390700244538,"151":-0.15684815722107423,"152":-0.055546402411124116,"153":-0.4336817261484804,"154":0.020892070463533714,"155":0.13455597345629008,"156":0.33871494915610567,"157":0.2780996155799472,"158":0.1993833677158208,"159":-0.11200601276091977,"160":-0.007034316866896097,"161":-0.03367349378806248,"162":0.1045774043549773,"163":0.24425996023800223,"164":0.016058407006772406,"165":-0.13051600552677395,"166":0.023269766844647655,"167":0.15584760082911864,"168":-0.2677989631268723,"169":0.09852744124426674,"170":-0.28407988210391666,"171":-0.10265642172595851,"172":-0.21232064653978533,"173":-0.22954606522706214,"174":-0.04714278913040615,"175":-0.059166835591359594,"176":-0.09784600981184206,"177":-0.108171416571575,"178":-0.06436182886045277,"179":-0.3954102705724815,"180":0.09562951229674956,"181":-0.020031742082466743,"182":-0.36061319395078517,"183":-0.25589200530139045,"184":0.13046722413452153,"185":-0.38959483982444715,"186":-0.016136730026416288,"187":0.04629286166572708,"188":0.1040308945754052,"189":0.22993071517032032,"190":0.046684513218785764,"191":-0.2188451146705894,"192":0.07943632442269533,"193":-0.3602752407641733,"194":-0.08606901686535905,"195":0.22422512890630988,"196":0.07657383867659417,"197":0.24148759366331563,"198":0.3472421208580175,"199":-0.08625832573339219}},{"sx":5,"sy":5,"depth":8,"w":{"0":0.0554363627501758,"1":0.13328164270222714,"2":0.12252725691877826,"3":-0.2068339144178902,"4":0.030219446102304082,"5":0.01116368457340874,"6":0.26343623571557034,"7":-0.16790496206135022,"8":0.2624477816109745,"9":0.10315002695102347,"10":-0.004030801676064251,"11":-0.16796158960961918,"12":0.08862975612481121,"13":0.09167407881575307,"14":0.05269541686813566,"15":-0.10752770878453181,"16":-0.007552579605198957,"17":0.047320071661288744,"18":0.13252686778548892,"19":0.03861537937339125,"20":0.0221119975080777,"21":0.14585706476777374,"22":-0.03634003951930917,"23":0.007565133378070721,"24":0.10494409359851166,"25":0.08023255338574282,"26":0.15732358835296564,"27":-0.100434357632947,"28":0.17366067362491597,"29":0.0583703220623524,"30":-0.12836318924049833,"31":0.05919915548041841,"32":0.12020314362842478,"33":0.005077397293384664,"34":0.1339398278341645,"35":0.12076705104582933,"36":0.008944190458526652,"37":0.11540903830953174,"38":-0.008440071883714019,"39":0.07640104607498865,"40":0.11133939030064009,"41":-0.11183036392302928,"42":0.025695329127593036,"43":0.0597892035978388,"44":0.050480824406923405,"45":-0.0619861475653547,"46":0.1349402755117561,"47":-0.05246551365271054,"48":-0.0757685469488688,"49":-0.12109642068667409,"50":0.10468119888733186,"51":0.031390688731073535,"52":0.20641271465736166,"53":0.01649523910831347,"54":0.20602961765577482,"55":0.08876690018093547,"56":0.07077337330219927,"57":-0.07162435639989442,"58":0.20089378831167748,"59":0.16224699016701713,"60":0.07090838590350722,"61":0.0715049147142673,"62":0.011693265519750237,"63":-0.0346397265973322,"64":-0.004653417769486039,"65":0.14797454476636884,"66":0.20980243773855334,"67":0.1623743634070126,"68":-0.045895622275276785,"69":-0.12056328618111943,"70":-0.049459704464907876,"71":-0.011849428637737348,"72":0.23890664707155632,"73":0.1646639348658665,"74":0.23080597264407504,"75":0.07392683602752967,"76":0.08817079596008735,"77":-0.0031523538384092458,"78":-0.05713622111442587,"79":0.08193442996656433,"80":0.059054821742113524,"81":-0.01677757479608798,"82":-0.12266629505290105,"83":-0.08464874050261251,"84":-0.07364147659435683,"85":0.06838099223692914,"86":0.10308852088326102,"87":0.4186775511487062,"88":0.15848267971427574,"89":0.06617190987124398,"90":0.029556540868193613,"91":-0.220292766094607,"92":-0.01596914834752672,"93":-0.09749656953729824,"94":-0.14463615514328118,"95":0.2447084798679834,"96":0.10186103280656156,"97":-0.21481907442073037,"98":-0.19437628977379082,"99":-0.12083174431959941,"100":-0.09587532563053228,"101":0.08800369183438346,"102":-0.35088095640630707,"103":0.1296981845986929,"104":0.013495632131150438,"105":-0.03662168133668517,"106":-0.013004931511580964,"107":0.08376371843213569,"108":-0.00929812135666694,"109":-0.06933793351270577,"110":-0.3780629268457335,"111":0.20122451004440275,"112":0.19201265726136027,"113":-0.08457430690890827,"114":0.0688473033733252,"115":-0.018606878363073974,"116":-0.1331149289956196,"117":-0.2229086888482021,"118":-0.3702836048107765,"119":0.23929508422664195,"120":-0.056150125547025455,"121":0.18686301372601416,"122":-0.2736161191874888,"123":-0.3466880974012327,"124":-0.1875886098691334,"125":-0.22020167115807818,"126":0.044654562314811026,"127":-0.2994457370524719,"128":-0.039195782347671015,"129":0.1555837678523759,"130":-0.35046865370590496,"131":-0.16836286835649245,"132":-0.2889334019490697,"133":-0.20450306998540085,"134":0.04060786005009859,"135":-0.10991023309472034,"136":-0.06672512861695229,"137":0.16307026055168014,"138":-0.07270531521319272,"139":-0.31502270468991445,"140":-0.08055828913635184,"141":-0.1982783049750858,"142":0.02826993935804025,"143":-0.09842438403033286,"144":-0.05304993292048847,"145":0.16180074745442155,"146":-0.1174702051277875,"147":-0.12111429507583948,"148":-0.05025929171577529,"149":-0.15355196879935115,"150":0.10853020438250786,"151":-0.192168521689397,"152":-0.4170621076275774,"153":0.1493818378803855,"154":-0.25564174426890757,"155":-0.22337761892809588,"156":-0.06416421875819343,"157":-0.20547277234961828,"158":0.07643961069142903,"159":-0.3523469385761912,"160":-0.14522897007112393,"161":0.029453384075993117,"162":0.0422805282785797,"163":-0.04132977721404582,"164":-0.07200497651862094,"165":0.001183269718957006,"166":-0.02554522223619788,"167":-0.132600868845638,"168":0.006878018925118795,"169":-0.08716418925227438,"170":-0.08916783135210225,"171":-0.040828504646102354,"172":-0.1312937747921324,"173":-0.09710306007067564,"174":0.07102747948788321,"175":-0.13418768624956154,"176":-0.012205544568581542,"177":0.11754257688949736,"178":-0.07616264812046503,"179":0.03209510626065678,"180":0.010541086188902041,"181":-0.0231154244371661,"182":0.04633283853588681,"183":-0.2264470416252,"184":-0.06824823888271445,"185":0.10318557628388687,"186":0.1909456372898625,"187":0.07262304699488065,"188":0.11858100976262982,"189":0.043724227489720296,"190":0.02456144550317198,"191":-0.03901156866775934,"192":-0.042862412265080314,"193":0.020538372109664485,"194":0.054202579593489925,"195":0.03505834492106946,"196":-0.03331538743616285,"197":0.0633452074343987,"198":0.10488231162477078,"199":-0.06857765845920392}},{"sx":5,"sy":5,"depth":8,"w":{"0":-0.04244334723257291,"1":0.03139689801273754,"2":-0.23778141764706318,"3":-0.1548830817962209,"4":-0.09198487049081028,"5":0.012993764463732451,"6":0.10104749058624596,"7":-0.1991253308878977,"8":-0.11553002987270083,"9":0.07403630940952335,"10":-0.15466531652700105,"11":-0.1557700861455238,"12":-0.25776377734589945,"13":-0.13136807894070787,"14":0.14102494843427807,"15":-0.23898791058934163,"16":0.037512486232831974,"17":-0.003434952099329921,"18":-0.17489028329033318,"19":-0.22893501366936597,"20":-0.11911097149660824,"21":-0.0565244386081817,"22":0.08613075252998939,"23":-0.09840484258629557,"24":-0.11355119058143977,"25":0.04504764952193071,"26":-0.015907653772761363,"27":-0.21270739825271953,"28":-0.14364394951910517,"29":-0.0644685233651833,"30":0.1560848679544728,"31":-0.002690782540897262,"32":-0.14581031819844448,"33":0.1958464709434616,"34":-0.09926525922780474,"35":-0.2817502114257132,"36":-0.11569040001215235,"37":-0.06713306253557422,"38":0.10489028273419927,"39":-0.14555913811186386,"40":-0.11072044417028269,"41":0.18628656003056213,"42":-0.023444405476708848,"43":0.06379729594731136,"44":0.027847384505780767,"45":0.153854122551399,"46":0.1631669921293007,"47":0.0747686978694676,"48":0.1254604755050247,"49":0.012596828583935215,"50":-0.032015296409347874,"51":-0.036141636480754344,"52":0.02488802631629101,"53":0.08510511691032795,"54":0.3000904989575773,"55":-0.08695387849201736,"56":0.053080314626639126,"57":0.16689435864018665,"58":0.02339366727747426,"59":-0.10946091496779026,"60":0.027960392285208947,"61":0.035661536928075235,"62":0.2989764446363626,"63":0.028138166774875684,"64":-0.2513142045641768,"65":0.3614299747114633,"66":-0.0218353423700485,"67":-0.07953562212174857,"68":-0.03479115830242932,"69":0.08858437955549703,"70":0.30824497683533664,"71":-0.05982562394509784,"72":-0.12881737700893686,"73":0.239819060999488,"74":0.11279621813811615,"75":-0.09256471564861991,"76":-0.021846838926761866,"77":0.0006881604737252918,"78":0.13684307773603335,"79":-0.14898268099236278,"80":0.14256297663570572,"81":-0.30323163987371254,"82":-0.0037312959259365517,"83":0.1206678398495987,"84":-0.08539970474272282,"85":0.007030133800736097,"86":-0.12522199841115622,"87":0.27617083226736344,"88":0.026267752611433777,"89":-0.04852029311874677,"90":0.05229115621052881,"91":-0.019771958975505217,"92":0.04272923625056341,"93":0.0804787004877148,"94":-0.0006429327901377345,"95":0.13118756516674865,"96":0.06066694085888245,"97":0.062380866621420575,"98":0.0561901889077774,"99":0.1815840660554457,"100":-0.11281813556845058,"101":0.17624979937096966,"102":0.20024815759047182,"103":0.06146903330126503,"104":0.06709549098497163,"105":0.0291307690236956,"106":0.05125847299669996,"107":0.3255941170064698,"108":0.010789201468960417,"109":0.045315082724135564,"110":0.1441707476838288,"111":0.28810841946156907,"112":0.09874926476965323,"113":-0.07505903978725903,"114":0.1757691496248638,"115":0.07230420546577146,"116":0.08509056373119367,"117":0.11665240815565918,"118":-0.11722488303734127,"119":0.21753623421315985,"120":-0.06648367275286508,"121":-0.1789909444965048,"122":-0.06389349238009868,"123":0.08308233141861605,"124":-0.059910251068707426,"125":-0.05259402802111866,"126":-0.05749313899234943,"127":0.11304919862172484,"128":0.12439435561741223,"129":-0.10624508444594197,"130":0.05159633707478252,"131":0.10377030424380311,"132":-0.11940139163446964,"133":0.08872417347528853,"134":-0.04007367779638628,"135":0.10323059616572158,"136":0.06915341426826396,"137":-0.18332738030051235,"138":0.012239241640908753,"139":-0.03569555551471373,"140":-0.14004333192446364,"141":0.11950012243514396,"142":-0.33297162770548283,"143":0.12736769013817534,"144":-0.07392148204409395,"145":-0.006554820738669466,"146":0.0763676176829327,"147":-0.19127702753812195,"148":0.015303780020525418,"149":-0.14800395318673965,"150":-0.3010612069536881,"151":0.11297909601405123,"152":-0.05880406828994791,"153":0.010199589875714786,"154":0.09541657413620903,"155":-0.17009341482978818,"156":0.08568135970489812,"157":0.026857978223766895,"158":-0.5102043631987436,"159":0.06296632774470357,"160":-0.048384242676051674,"161":0.01871487687430693,"162":-0.10322814406057848,"163":-0.14576091234304955,"164":-0.1272136949802436,"165":-0.15650779976729648,"166":0.004928984891662342,"167":-0.026642936792027058,"168":0.07749352107954818,"169":0.12727766680086566,"170":-0.08614859354427956,"171":-0.23498215718962243,"172":-0.06991741619503664,"173":-0.2159568417500813,"174":-0.1346373318128802,"175":0.11110124717417504,"176":-0.032638268124606226,"177":0.13610906110669602,"178":-0.30250069318153017,"179":-0.19055262346207122,"180":0.00937933384548127,"181":-0.12130409886907009,"182":-0.11583821265272508,"183":0.07057480796012779,"184":-0.23264497738945322,"185":0.13466116932384542,"186":-0.008430425085423326,"187":-0.2249619221526231,"188":-0.050672396803696215,"189":-0.11977010298746732,"190":-0.29396223637772845,"191":-0.006362204043325598,"192":-0.22305843579710322,"193":0.006353713660248994,"194":0.022953234199939956,"195":-0.11486661688384099,"196":-0.045081615783301734,"197":-0.11314730410033669,"198":-0.18058601278803776,"199":-0.30348948314817004}}],"biases":{"sx":1,"sy":1,"depth":16,"w":{"0":0.04227879062681251,"1":0.11713748978829472,"2":-0.008392185308745127,"3":0.10181242433153213,"4":-0.03927246325151711,"5":-0.10623843786629882,"6":0.05399716422618665,"7":0.02157583940507829,"8":0.053505979572378334,"9":0.058108925189717844,"10":0.0017303878907397232,"11":0.005404374274731504,"12":-0.11250865058533423,"13":0.06013109966613846,"14":-0.09254803410990217,"15":0.04060724162151786}}},{"out_depth":16,"out_sx":12,"out_sy":12,"layer_type":"relu"},{"sx":3,"sy":3,"stride":3,"in_depth":16,"out_depth":16,"out_sx":4,"out_sy":4,"layer_type":"pool","pad":0},{"out_depth":10,"out_sx":1,"out_sy":1,"layer_type":"fc","num_inputs":256,"l1_decay_mul":0,"l2_decay_mul":1,"filters":[{"sx":1,"sy":1,"depth":256,"w":{"0":-0.09756298480238368,"1":0.031710283731793514,"2":-0.07589254009019622,"3":-0.04157969536101578,"4":0.0043084135521789515,"5":0.028699268362253286,"6":0.06156954622414155,"7":0.03287769174800371,"8":0.05347307496503503,"9":-0.11909138396311791,"10":0.05037377967476443,"11":0.05310275667849994,"12":-0.056412247490025144,"13":-0.09149574101791944,"14":0.16438470500224467,"15":-0.2369558737147279,"16":0.0009840263827318558,"17":-0.03583110737703814,"18":-0.1265789585768854,"19":-0.11227883078055802,"20":-0.0042542915920064156,"21":-0.07546828917574809,"22":0.05934891363362274,"23":-0.08058646520287602,"24":-0.14607942468420837,"25":-0.22249550430988282,"26":-0.013895469302327745,"27":-0.2443145495796091,"28":-0.06859801448490407,"29":0.062228657051441344,"30":-0.10387098581263889,"31":-0.11641301543099465,"32":0.008369466658204443,"33":-0.09562137575587315,"34":-0.13583763879943578,"35":-0.26594258638123763,"36":0.038278964117489774,"37":-0.07041432922684371,"38":-0.10366314873463259,"39":-0.2060208001641521,"40":-0.18754317407263876,"41":-0.07657574851888148,"42":0.03453702946670606,"43":-0.08504471216640451,"44":0.0532947299717909,"45":-0.04456114662842912,"46":-0.11958588225465236,"47":-0.0707392257076944,"48":-0.011553878071715266,"49":-0.11299624517772482,"50":0.051999070383998626,"51":-0.26163032150895277,"52":0.17990084766702902,"53":-0.08082503305962493,"54":0.05693556255275294,"55":-0.11726768404957429,"56":-0.20405839852799623,"57":-0.13519877397435898,"58":0.13875295564823417,"59":-0.10497041239795021,"60":0.07060336661147174,"61":-0.16565720253104316,"62":-0.2182464981457206,"63":-0.10975170378795408,"64":0.022535115192385685,"65":0.1535563640339324,"66":0.05248922051512474,"67":0.03419128630161903,"68":-0.11227994552952632,"69":-0.029169971707644217,"70":-0.11975097419325055,"71":-0.039796227572735286,"72":0.0049557159177936495,"73":-0.06400894779960975,"74":0.03458670635635383,"75":0.043193062901791306,"76":0.035623925329015156,"77":-0.00641644031408457,"78":-0.24621138874131673,"79":-0.0894615788366195,"80":0.0620147256997759,"81":0.1418961012811487,"82":0.0694741237965353,"83":0.12973346082198361,"84":-0.37816519972934004,"85":0.007780485386711183,"86":-0.0218799762788061,"87":-0.16160024824774857,"88":-0.19052129149765346,"89":0.025622241289521733,"90":-0.09983847222756577,"91":0.19254377211146026,"92":-0.09391882505855091,"93":0.017746329031645816,"94":-0.13774408165044452,"95":-0.1840561678576591,"96":-0.0798377066546376,"97":0.0073610159539120035,"98":0.06362908143223829,"99":0.04240460630015074,"100":-0.12005084769358454,"101":-0.11784148755042559,"102":0.16846458312365753,"103":-0.10515404580220472,"104":0.05070284314530289,"105":-0.08560213934735997,"106":0.08935178514075945,"107":-0.18033445079718896,"108":-0.15416691797709403,"109":0.09963390628929998,"110":0.022421011132600786,"111":-0.11966806184554003,"112":-0.1295781433744912,"113":0.10291106369900553,"114":-0.027175236743883297,"115":-0.25833190622606994,"116":-0.11624216018971413,"117":0.0021666853465541224,"118":-0.20848992955853834,"119":-0.1112269864135937,"120":-0.1420318465908148,"121":0.03873854200091846,"122":0.11321867678453879,"123":-0.06268802278086447,"124":-0.03927017336613935,"125":0.12475480378362618,"126":-0.12396095270460247,"127":0.0033718188838948037,"128":-0.01606495993696231,"129":-0.05489727232153451,"130":0.08681188298375063,"131":-0.12094930672941381,"132":-0.21368403767923486,"133":-0.023493886745760945,"134":-0.32345451831664773,"135":0.027602058182276904,"136":0.0038298741406192485,"137":-0.018683735645295022,"138":0.04099408147400098,"139":-0.029903418894497387,"140":-0.12494451819725343,"141":0.012884032345841186,"142":-0.19306553141272875,"143":-0.1346289825480316,"144":-0.05473368502819062,"145":0.008276125604141912,"146":0.057605292601214116,"147":-0.013749793574868526,"148":-0.23516136505240778,"149":0.15609256616000114,"150":-0.029440461343965087,"151":0.06944619724848045,"152":0.028676137516139413,"153":-0.07783688293148497,"154":-0.04027662714726738,"155":0.19420210763916296,"156":0.10236214570279488,"157":-0.005932460425217943,"158":-0.3385235335977413,"159":-0.20341472267479413,"160":-0.18059903654421683,"161":0.06850281109040732,"162":-0.0608567128432786,"163":0.1191457065372009,"164":0.08027214548602438,"165":-0.11680750002524269,"166":0.07873942693250693,"167":-0.02748213067992419,"168":0.0666086880310436,"169":-0.04537221700494245,"170":-0.07189460444790333,"171":-0.04908061336662583,"172":-0.05242779084471233,"173":-0.0007868824674034152,"174":-0.21890311152035008,"175":-0.07537068556876668,"176":-0.03212697970709215,"177":-0.1528875248664325,"178":0.0974783663489253,"179":0.07453060402470038,"180":0.01126503039017461,"181":-0.0805690635301196,"182":-0.09633374659827987,"183":0.2302155359007507,"184":0.01349832468066632,"185":0.11566229801599665,"186":0.21255649583807576,"187":-0.039557975900339784,"188":-0.06603222548334009,"189":-0.04373642854364234,"190":0.13925427873439122,"191":-0.12434462193863445,"192":0.10592383662496392,"193":-0.1219159920173107,"194":-0.040473423581060826,"195":-0.0019758084995180622,"196":-0.07446651804149437,"197":0.0013110257166108284,"198":0.05846482145092913,"199":0.15227701701124702,"200":-0.009484192323260612,"201":0.14254747101493578,"202":0.08544686500221321,"203":-0.09262920101886188,"204":-0.2344665680538686,"205":-0.0923329900792976,"206":-0.031388236845320806,"207":-0.2031472932903532,"208":0.05767585596166707,"209":0.08039482708422738,"210":-0.12425446521340996,"211":-0.23545293235998502,"212":-0.03331131951659098,"213":0.08986213461474274,"214":-0.11855987504116453,"215":-0.01557868496135736,"216":-0.007073534967538305,"217":-0.028974079437054063,"218":-0.026779190783461852,"219":-0.043088196292618675,"220":0.15589376682821912,"221":-0.30090660094096167,"222":-0.03218099855316703,"223":0.09188723243285753,"224":0.17965567016387807,"225":-0.2081733431183359,"226":-0.10541245049274471,"227":-0.11823994683388896,"228":-0.015774664465413517,"229":0.06896446804350762,"230":-0.013939709981009012,"231":-0.09286658256469507,"232":-0.11149938674180686,"233":-0.004305769145980664,"234":-0.2340508661328499,"235":-0.1349637443612779,"236":0.17604830514284425,"237":-0.247381176797359,"238":0.11078988289343038,"239":0.10496840426831866,"240":0.07876802613832523,"241":-0.4883799561636039,"242":-0.010022259317607304,"243":-0.030200081635383805,"244":0.025553847737769017,"245":-0.16977725135585642,"246":0.22131678407088404,"247":-0.08818688835245687,"248":0.12625362429639259,"249":-0.015777688468637637,"250":-0.05082699634733871,"251":-0.12795156375104555,"252":-0.11266081724685854,"253":-0.07288310852991038,"254":0.14727565844175564,"255":-0.1625072404223641}},{"sx":1,"sy":1,"depth":256,"w":{"0":-0.11513018294484834,"1":-0.18688063481101563,"2":-0.05232938018564743,"3":0.052235668887361544,"4":-0.11296169125295683,"5":-0.04028561137212611,"6":-0.09940470528140717,"7":-0.11334189544241692,"8":0.011770034663213828,"9":-0.055212334654512016,"10":-0.12290210505341952,"11":-0.0040287452958866835,"12":-0.06416988476806025,"13":-0.17494207998657968,"14":0.005942960435885839,"15":0.02247863612254191,"16":-0.10431208074928817,"17":0.043095677748125324,"18":-0.05350008775696313,"19":0.0008881529246452904,"20":-0.1386416589592232,"21":-0.006775274557633062,"22":-0.1143222603508683,"23":0.13910886550490378,"24":-0.3070950259811395,"25":-0.14358344186750505,"26":0.01183547266045822,"27":-0.1434813201741649,"28":-0.1486824224957551,"29":0.017325188301587222,"30":-0.14416591027299402,"31":-0.026001663821135192,"32":-0.07958338089858301,"33":0.25843825607105153,"34":0.0032167714036900018,"35":0.09623291502534968,"36":-0.04070260069606054,"37":-0.1283631494248046,"38":0.19177904409220495,"39":0.16679902055068507,"40":-0.03138757250096984,"41":0.046651519842410574,"42":0.00019377337443721987,"43":0.09732879513520379,"44":-0.10236819597261239,"45":0.29827944249853483,"46":-0.13600722306650753,"47":-0.3200617581775984,"48":-0.1627406706189781,"49":-0.01290216807169581,"50":0.07059498984030842,"51":-0.014531644190348919,"52":0.10209011271071229,"53":-0.06553428605202369,"54":-0.11673813427776937,"55":0.04250323099363699,"56":0.01780712144409215,"57":0.12352780958554625,"58":0.03785055069428323,"59":0.032802287622443214,"60":0.0002705054779469842,"61":0.06017501191235064,"62":-0.009914565089192652,"63":-0.0519054949275771,"64":-0.19404753716507747,"65":-0.17900672224685746,"66":-0.05873289382946286,"67":-0.1720068427682141,"68":-0.14054471114345596,"69":0.04052136710984255,"70":-0.1503266717831166,"71":-0.0246147363167661,"72":-0.0713630565276523,"73":-0.08944775467003559,"74":-0.16935003473992277,"75":0.019467260912510255,"76":-0.1728339911637346,"77":-0.2483503630408011,"78":-0.004440951276933166,"79":-0.1225277554608605,"80":-0.1410866808735705,"81":-0.05712194253434492,"82":-0.11943191234687217,"83":-0.19696665170222047,"84":-0.13330944594525368,"85":-0.027751158205307793,"86":-0.06517335027649634,"87":-0.041572940870524794,"88":-0.25055639568592064,"89":-0.2057480287332254,"90":0.013918936314342881,"91":-0.22827977143039627,"92":-0.2573419737691786,"93":0.13634363456513351,"94":-0.25666185293899496,"95":0.04088748112708335,"96":-0.09070656652846247,"97":0.2846370952381182,"98":0.1338455369194065,"99":0.1303854767023511,"100":-0.031992918077034506,"101":0.02126572093089624,