{"layers":[{"out_depth":1,"out_sx":24,"out_sy":24,"layer_type":"input"},{"out_depth":64,"out_sx":1,"out_sy":1,"layer_type":"fc","num_inputs":576,"l1_decay_mul":0,"l2_decay_mul":1,"filters":[{"sx":1,"sy":1,"depth":576,"w":{"0":-0.026679846904609228,"1":0.004634283362922876,"2":0.021836601301299666,"3":0.004642156943705026,"4":0.0036608427465241286,"5":0.029629782848732657,"6":0.003056011360040135,"7":0.013103780173574942,"8":0.026385745488111692,"9":-0.013599672798277828,"10":-0.054462810965751916,"11":-0.06281180822106892,"12":0.05284098275623068,"13":-0.025629002402049943,"14":-0.010857604478062829,"15":-0.029661844264328215,"16":-0.10749967032903011,"17":-0.0027187887172265253,"18":-0.05832818671078837,"19":-0.06963296003109402,"20":0.010782654046922073,"21":-0.03155661686036812,"22":-0.03256453893467798,"23":-0.004514087402945632,"24":0.007244047127918992,"25":0.009859340737478151,"26":0.042506042293115935,"27":0.025075338777595126,"28":0.06589591807576128,"29":0.10566258226081174,"30":0.04301760978766095,"31":0.03193022276531289,"32":0.10446155961765102,"33":0.12842939504890025,"34":0.1159933000421369,"35":0.01023057595073873,"36":-0.0012299172657282361,"37":0.03473167079611165,"38":0.007179759613214136,"39":0.0044560203296872235,"40":-0.06724570734438927,"41":0.005966242852152261,"42":0.09038618070277656,"43":0.08812798462371958,"44":0.08282324249949317,"45":-0.032674328279382533,"46":-0.02793628231041355,"47":0.04170207956586433,"48":0.06841293480068054,"49":0.003462408709365055,"50":0.04056931499895101,"51":0.06396754199157215,"52":0.07082922813177965,"53":0.15420829334870512,"54":0.1732626698048676,"55":0.1201654815693756,"56":0.14484642329797293,"57":0.1206449745996009,"58":0.1274508416921577,"59":0.1092130950023961,"60":0.08701313039915291,"61":0.060090123085768235,"62":0.05228930991303342,"63":-0.02508647333296607,"64":-0.05185346972190466,"65":-0.044435208504887094,"66":-0.021483921444606688,"67":0.027288794341994053,"68":0.042706328900675994,"69":-0.09768036883606973,"70":0.0005164292421461652,"71":0.038335334842073264,"72":0.0264697439690522,"73":0.0663870923537619,"74":0.09377005985738934,"75":0.09911971078318925,"76":0.13478578577181483,"77":0.16816649272865544,"78":0.2471284770691394,"79":0.16913942112904076,"80":0.22330262078280755,"81":0.17871274944092413,"82":0.24310272122405632,"83":0.17165689359581623,"84":0.24858828566797667,"85":0.16282143094289958,"86":0.15587753641727728,"87":0.15845960673662532,"88":0.11094888710749776,"89":0.09728873778106834,"90":0.03106056341781949,"91":0.05510172940334528,"92":-0.01785708615736518,"93":-0.04505197310256391,"94":-0.059743523420718515,"95":0.018612259227532426,"96":-0.12603647381193592,"97":0.028890444567932456,"98":0.09488708603354128,"99":0.12323905066688559,"100":-0.006838556834562474,"101":0.1408127397884261,"102":0.14823719147779613,"103":0.0529359458153755,"104":0.17797546013294985,"105":0.1413756624790518,"106":0.14391700046816305,"107":0.18812660750070698,"108":0.2177805491479976,"109":0.1852378088080983,"110":0.17821596373428739,"111":0.12599042068877225,"112":0.06774710577069765,"113":0.06877393546813594,"114":0.07491350442625073,"115":0.050264328372580075,"116":0.10125686751774642,"117":-0.011098661665859629,"118":-0.0045734448660061724,"119":0.01922103820627068,"120":0.022345520883974086,"121":0.01182560322108873,"122":-0.009071644950165362,"123":0.07925196799293412,"124":0.051417489198653646,"125":0.10340831593248434,"126":0.05472347800549787,"127":0.010958087093270156,"128":-0.03307545976114399,"129":0.012114587602477876,"130":0.08159629842378685,"131":0.08020072687221752,"132":0.08258855961937257,"133":0.18767878099596955,"134":0.08945807983477277,"135":0.07223450506082282,"136":0.09757152095820548,"137":0.06468947640992244,"138":0.08077940149025996,"139":0.07408985013274406,"140":0.08432686913471898,"141":0.031368909846954895,"142":0.037482509315730154,"143":0.11520055234063126,"144":0.007696805958649598,"145":0.028456584944951416,"146":0.033370608327971125,"147":-0.09570629398067602,"148":-0.10145477973541536,"149":0.010212624380091562,"150":0.05885378765426813,"151":-0.03631838645889493,"152":-0.10785725433054855,"153":0.03725494765821184,"154":0.01532159921651092,"155":0.02653265620841591,"156":-0.016087645675023146,"157":-0.008487329662607054,"158":0.03485015852332534,"159":0.19708997329847086,"160":0.1374065481762744,"161":0.037602166985615804,"162":0.04710670587627866,"163":0.06731197544876025,"164":0.06062165924411889,"165":0.0815985984462198,"166":0.08315696433188287,"167":0.050632290595176974,"168":0.02488218178425436,"169":0.03424051527195204,"170":-0.012750677091031793,"171":-0.0087093337701705,"172":-0.09728348105372836,"173":-0.11854358350262592,"174":-0.06688159149112595,"175":-0.17189291921655436,"176":-0.11156075318981283,"177":-0.08566918834222267,"178":-0.08646057792431387,"179":-0.020450820346154717,"180":0.004845200207466553,"181":0.024174735930196086,"182":0.057255895812479016,"183":0.13768399803276166,"184":0.09732531504802154,"185":0.0970584677973753,"186":0.03740626813093457,"187":0.05576179850361811,"188":0.03736380371910098,"189":0.06918763859580303,"190":0.01718685884312404,"191":0.04864323384166815,"192":0.029612475698892953,"193":0.013989870677984862,"194":-0.0065187653130119585,"195":-0.09278070686713255,"196":-0.07043718786063298,"197":-0.08056782168694604,"198":-0.06033054318509173,"199":-0.14906901503818548,"200":-0.09627076352549173,"201":0.003993383236630988,"202":-0.0008794201331150677,"203":0.0465264812519438,"204":0.06312450109324606,"205":0.06467300755534175,"206":0.03647237308365732,"207":-0.04033383319903081,"208":0.05722849259708127,"209":0.04733015498899114,"210":0.019852578921059648,"211":0.09821994914326324,"212":0.03814999634009542,"213":0.049724498951535155,"214":0.05960814462688037,"215":0.017488996150646596,"216":0.064027115117127,"217":-0.010020143901339424,"218":-0.004453941953089607,"219":-0.06727966868768193,"220":-0.08063376850753644,"221":-0.009908412306958228,"222":-0.027306711094536654,"223":-0.040049720203022006,"224":-0.06071640772315037,"225":0.05656234173606488,"226":0.061690630436644245,"227":0.03225192998251552,"228":-0.000828615406691783,"229":0.08211633222762867,"230":-0.04198396503956697,"231":-0.009300954570664585,"232":0.0673387225766027,"233":-0.07892140364836185,"234":0.02068881146067529,"235":0.002977160820465691,"236":-0.09688351736848987,"237":0.05219181921071691,"238":0.004485098595710552,"239":-0.008790311357194254,"240":-0.0017629115071218719,"241":0.035543522146273765,"242":0.021032163551215496,"243":0.06049751375325199,"244":0.02778198717863667,"245":0.08429657007519055,"246":0.13025307860029867,"247":0.08341063850911513,"248":0.1223717544259996,"249":0.12785520079482102,"250":0.06212920786110353,"251":-0.042265219611053825,"252":-0.024025030725554845,"253":-0.03492129189690694,"254":-0.17310120863627124,"255":-0.06986398754801,"256":-0.08717981940692071,"257":-0.005662636848531784,"258":-0.09926177193784398,"259":-0.06002999904993112,"260":-0.060824328907948436,"261":-0.049308907845981874,"262":-0.05891178143230264,"263":-0.13164664994967754,"264":0.07616870049521296,"265":0.06779747770879918,"266":0.12528038259574212,"267":-7.968217794488081e-7,"268":0.07267806839852461,"269":0.04315519815083901,"270":0.179180831502021,"271":0.2411995059537416,"272":0.24491626054295476,"273":0.21519226126109123,"274":0.09606106048353083,"275":0.08971087605250669,"276":0.015715029859512803,"277":-0.05712154578483913,"278":-0.14757568058909976,"279":-0.13150661709794312,"280":-0.052077380151879585,"281":-0.01346551635763387,"282":-0.09374048800015385,"283":-0.060576036123586294,"284":-0.09106008480701994,"285":-0.0018513207164006533,"286":-0.002179268408895411,"287":-0.09666815123344108,"288":0.009260304420232053,"289":0.09420192264511,"290":0.058143672633170516,"291":0.026186549251921137,"292":-0.017045779828408228,"293":0.03322629876429203,"294":0.016566388114599925,"295":0.07925082668227493,"296":0.12436573381085868,"297":0.0865904116606197,"298":-0.018792774459248235,"299":0.007289708315395309,"300":0.06397825580505338,"301":-0.050004524822650706,"302":-0.04715886361527544,"303":-0.12455108660959013,"304":-0.05482710071752437,"305":-0.045888556510862,"306":-0.042647021196235736,"307":0.01219145281676562,"308":0.09856046078424585,"309":-0.04577607466815143,"310":-0.05223344644049184,"311":-0.06508515346606035,"312":-0.022132782588897983,"313":-0.08217462833653191,"314":0.10454324262670227,"315":-0.003151133488511231,"316":-0.12068100769665155,"317":-0.1527705208939991,"318":-0.14943261801355884,"319":-0.15388789914599119,"320":-0.1166921348006383,"321":-0.1613377550080475,"322":-0.089327789402471,"323":-0.12086914342994276,"324":-0.14900776192820675,"325":-0.10528726106965604,"326":-0.12020443226107289,"327":-0.10107733805802556,"328":-0.0005313260878339984,"329":0.021555278535665263,"330":-0.04517845212062794,"331":0.028647024524211785,"332":0.13332925768464646,"333":0.1263573153020263,"334":0.03903330122973685,"335":-0.021209777623219437,"336":0.03568033633257956,"337":-0.035683389256599224,"338":0.044424693721631235,"339":0.02779257283733794,"340":-0.19776865115509018,"341":-0.3427539450278086,"342":-0.41291086287615186,"343":-0.5060568684323957,"344":-0.3668858395270204,"345":-0.23288654026257852,"346":-0.2064639072039791,"347":-0.1650123688946864,"348":-0.06331433693312459,"349":-0.040275238921141855,"350":-0.09090231541345871,"351":-0.09239049853831699,"352":-0.06574435354176786,"353":-0.022756470705839315,"354":0.0300277712894552,"355":0.014669336910718376,"356":0.14213427326447156,"357":0.16791921408719612,"358":0.04642882836749441,"359":0.006689926355792403,"360":0.01312221954585736,"361":0.09609050656864625,"362":-0.055013984408426544,"363":0.005559478550120832,"364":-0.15970269790406355,"365":-0.29339880443028077,"366":-0.42453493285193683,"367":-0.48924417424184463,"368":-0.5014130969834695,"369":-0.3496735691821605,"370":-0.3022631359805204,"371":-0.2015800798751905,"372":-0.13944309468960545,"373":-0.13885586725901528,"374":-0.10622743183600183,"375":-0.03396995982639664,"376":0.03248039054075851,"377":0.045420900832377764,"378":0.02181043724908009,"379":0.022994054324861013,"380":0.062210518455916186,"381":0.05575568451596838,"382":0.02263688734121945,"383":0.01360362421580504,"384":0.06323871922734854,"385":0.0004419334697747127,"386":0.04281042370025074,"387":0.04269117795940727,"388":-0.07397158291270951,"389":-0.16317717654378205,"390":-0.17699953143748845,"391":-0.17199407287511256,"392":-0.16562082586566906,"393":-0.2091620762814886,"394":-0.2538947691832611,"395":-0.2467411204608519,"396":-0.1592924456733334,"397":-0.15316702476680394,"398":-0.04385720710171225,"399":0.06263056954907135,"400":-0.05409303756212387,"401":-0.05544058105836032,"402":0.05534508198659638,"403":0.010329414039455203,"404":0.02486135155507346,"405":0.02395868028834083,"406":0.011611927881157278,"407":-0.055346558471675474,"408":0.050817914344725684,"409":0.07639843602307562,"410":0.09446582926509602,"411":0.06567534760441923,"412":0.14047242873839227,"413":-0.016502069567680976,"414":-0.037080478674954044,"415":-0.022074772226593063,"416":-0.10108979170452567,"417":-0.0873405181041112,"418":0.02598039061224191,"419":-0.07493456755150239,"420":-0.0693850083490085,"421":-0.0609128351751346,"422":-0.07673724176933153,"423":-0.09497073714173106,"424":-0.050643213366723824,"425":0.027323694251180815,"426":-0.05635899193735263,"427":0.01952566102925259,"428":-0.028706001391043748,"429":0.05196269860632673,"430":-0.011389217664485321,"431":-0.04404575026672805,"432":0.03195159656210412,"433":0.034291312134013416,"434":0.0350807152058837,"435":0.09764149410793027,"436":0.010860313509352668,"437":0.09929149796025018,"438":0.10647048239858954,"439":0.14525402137686472,"440":0.1800599598540271,"441":0.19074013441742016,"442":0.13549967147095404,"443":0.09894135948053732,"444":-0.01720094260912387,"445":0.00648479491358213,"446":-0.07852587755023567,"447":-0.040107488820215545,"448":-0.057764438818393084,"449":0.002937140584261673,"450":0.04883641965178066,"451":-0.09577269029570173,"452":0.02100229857998578,"453":0.009185901461153608,"454":-0.10448260167764557,"455":-0.06942683737243843,"456":0.0016880206603953928,"457":0.006002106412357576,"458":0.040875413880699096,"459":0.065863794924831,"460":0.12834106226286882,"461":0.09631650673606179,"462":0.15715616379991906,"463":0.13528914858427737,"464":0.11221871718198881,"465":0.10498724928599552,"466":0.10644133210334426,"467":0.08687777248915644,"468":0.10072685726958487,"469":0.03694049297977681,"470":0.05247758436397668,"471":-0.08575416088296556,"472":-0.10313784716766236,"473":-0.15831996174881569,"474":-0.1413828033071211,"475":-0.0557139319125286,"476":-0.04944991750762138,"477":-0.03462553413107384,"478":-0.01726829412048091,"479":-0.05578695532584599,"480":-0.012520537891717826,"481":0.017342629825418374,"482":0.05131038545497454,"483":0.00429792930114982,"484":0.04688012188750728,"485":0.1425269008951934,"486":0.15817339725242355,"487":0.08503972121675961,"488":-0.014593328496274238,"489":0.06738820443173074,"490":0.04407953042518598,"491":0.12755428035448044,"492":-0.028150134050159224,"493":0.02692790508238848,"494":-0.04867266904838309,"495":-0.0789086619549748,"496":-0.1186690920887745,"497":-0.07819298073039416,"498":-0.05766924054724927,"499":-0.1003418360827972,"500":-0.15278908522742235,"501":-0.1009982303388224,"502":-0.12056487237297155,"503":0.0070587544205806835,"504":0.014249922545519161,"505":0.020231734273977894,"506":0.014620666018295425,"507":-0.015032174877115053,"508":0.0011156904732134206,"509":0.05067854848284743,"510":0.02890486233108679,"511":0.0867897023339435,"512":0.05147690088024953,"513":0.06612552038582997,"514":0.07065711169609933,"515":0.04037889294933156,"516":-0.011589218346710754,"517":0.009936774043891575,"518":-0.06852342852057651,"519":-0.10921290003901722,"520":-0.07275305124038348,"521":-0.23934806556634552,"522":-0.17424906956890301,"523":-0.10372377206627445,"524":-0.18478879006185406,"525":-0.17058564768633788,"526":-0.10258678809344442,"527":-0.07139695092583029,"528":-0.04745882803514508,"529":-0.05772108375715444,"530":0.06932446440832288,"531":0.010904522303853869,"532":0.05982568273963309,"533":0.03538930350329986,"534":0.1833171355095882,"535":0.12152879170707587,"536":0.11748570431166425,"537":0.04901610955480801,"538":-0.013832850992627798,"539":0.0068927795360382745,"540":-0.006663332552283962,"541":0.046441972562003865,"542":-0.05246006439182123,"543":-0.07195488977989803,"544":-0.2062623029676964,"545":-0.13663403768477317,"546":-0.18793825248937632,"547":-0.06957025252634502,"548":-0.05880277402756542,"549":-0.09464980613439923,"550":-0.12336137335200589,"551":-0.026388981435896457,"552":0.023809679878118006,"553":0.010058000549266673,"554":0.021226910663968066,"555":-0.006107213095092695,"556":0.003593762937410666,"557":-0.08999841719342652,"558":0.04412180293306002,"559":0.020616677923215455,"560":0.0987972822147546,"561":-0.008686460121029195,"562":-0.036147223962739825,"563":0.008249383890909755,"564":-0.018808263111381115,"565":0.0012167148406109435,"566":0.039426526828639744,"567":0.004348354791702828,"568":-0.06134675784838945,"569":-0.0813203172457315,"570":-0.09487424878322714,"571":-0.06668550606458228,"572":-0.11261554036252643,"573":0.009806414161003679,"574":-0.07299268576081552,"575":-0.014870967090279155}},{"sx":1,"sy":1,"depth":576,"w":{"0":-0.025504382472078944,"1":-0.0663515077339768,"2":0.009164869582572273,"3":-0.004080970476232933,"4":-0.02726575595337309,"5":-0.021155677148408946,"6":0.019815899573313707,"7":-0.04585694237158047,"8":-0.0018448490761465849,"9":0.020851737186850083,"10":0.011891668330992805,"11":0.021130451427915222,"12":0.001071664900173035,"13":0.03986885042662306,"14":0.017173732531559585,"15":-0.03581024143739117,"16":0.0018329082362729505,"17":-0.015849607692023582,"18":-0.012294743369514534,"19":0.007718560253098803,"20":0.016510039043393182,"21":0.017742118780047316,"22":0.01362283296549244,"23":0.034987090627067265,"24":-0.04433539546593547,"25":-0.017724878496146595,"26":-0.03695155881698297,"27":-0.0351998920524142,"28":-0.05341656383481453,"29":-0.046105280187435156,"30":0.021805052660317834,"31":-0.03467377545337716,"32":-0.052633549412877324,"33":0.06189448999816829,"34":0.006543347969640247,"35":-0.019020975545890138,"36":-0.1058560827561254,"37":0.026220950076891267,"38":0.011768339498841618,"39":-0.01749300371320676,"40":-0.017382893310769778,"41":0.028917587870759733,"42":-0.027650897712126865,"43":-0.05702737930475474,"44":0.05049407289533708,"45":-0.022952365225072918,"46":-0.013529077725757094,"47":-0.01578139919820826,"48":-0.001687163012621166,"49":0.06760523615206464,"50":0.08150045690991405,"51":0.0025851004479394892,"52":-0.055689909787898055,"53":-0.002491883211092508,"54":-0.06333850311745995,"55":-0.017693996323108134,"56":-0.05539939429338463,"57":-0.09860011414408543,"58":-0.043917097386253566,"59":-0.09654240166912635,"60":-0.07559165918359405,"61":-0.016670680314454445,"62":-0.004646473268435659,"63":-0.0575012596505744,"64":-0.057548298902013885,"65":-0.06802233387641074,"66":-0.05625654467281344,"67":-0.07920111200538926,"68":-0.08454846932745508,"69":0.002637917986582333,"70":-0.017601013716521438,"71":-0.0023663154902563484,"72":0.03534195352779769,"73":0.0171892081291532,"74":0.008792863744599675,"75":-0.012193240848408303,"76":-0.08557595677275276,"77":-0.18280465179465705,"78":-0.1825502096079613,"79":-0.1581391378706039,"80":-0.131891691248632,"81":-0.16747493621928172,"82":-0.12451596653634522,"83":-0.10682765974802788,"84":-0.166986653019526,"85":-0.12782686996681092,"86":-0.1534263764623421,"87":-0.08352851500318051,"88":-0.1485814824864751,"89":-0.11929414436099066,"90":-0.10830909420575655,"91":-0.06197963152069788,"92":-0.1030472323407371,"93":-0.03595838242064027,"94":-0.016961750943867402,"95":-0.024798420462498253,"96":0.019220557456824567,"97":0.02638231970072213,"98":-0.031095355718456914,"99":-0.02466001754708863,"100":-0.07246093470027747,"101":-0.10023467155207519,"102":-0.19766990221764036,"103":-0.24949282355260816,"104":-0.2974631967139293,"105":-0.16759510201098457,"106":-0.14631112610023106,"107":-0.24825561802674762,"108":-0.21771197264809877,"109":-0.1940553402777454,"110":-0.213118552291089,"111":-0.14321744167025974,"112":-0.15533204650896895,"113":-0.19227018020657213,"114":-0.18340856260087585,"115":-0.1197464373091541,"116":-0.16271978778458587,"117":-0.07583570358263647,"118":-0.08298306502983417,"119":-0.022965741368261378,"120":0.010960922307509105,"121":-0.02593035562720746,"122":-0.027362282391909267,"123":-0.01992378802415086,"124":-0.09123480143686553,"125":-0.19843056108146298,"126":-0.14793839761040586,"127":-0.1655637231094141,"128":-0.3032066120007699,"129":-0.26981828890428877,"130":-0.2983012147147173,"131":-0.3119197407691469,"132":-0.3735110468421098,"133":-0.23479772308193278,"134":-0.2806972941258655,"135":-0.22872823777807177,"136":-0.24831205602857712,"137":-0.3107441537947989,"138":-0.239435501850107,"139":-0.19914654199129228,"140":-0.20797148625729703,"141":-0.15021726942310054,"142":-0.09731372198779789,"143":-0.09251374980077244,"144":0.04439466181420104,"145":0.10976297083798602,"146":0.018112917964499528,"147":-0.01499667746970263,"148":-0.08022483113282608,"149":-0.08609520232865882,"150":-0.1239598408355045,"151":-0.1217798591462725,"152":-0.2349896768971697,"153":-0.27547404153482336,"154":-0.21730835242824129,"155":-0.21601331929476789,"156":-0.3370680546912954,"157":-0.35774936395141,"158":-0.1895173983307953,"159":-0.03955180961069151,"160":-0.11088088142620607,"161":-0.17925328679879304,"162":-0.1858027288526269,"163":-0.2253212904866115,"164":-0.17980720756226543,"165":-0.18490769222580603,"166":-0.136868130530258,"167":-0.10884295792221936,"168":0.036818480658112,"169":0.056619405721684585,"170":0.09666190954724994,"171":-0.021684430076925405,"172":-0.017707380747077724,"173":-0.04565562616376798,"174":-0.037232164992387004,"175":-0.0004393384250538258,"176":0.025829640658986297,"177":0.03893628216920038,"178":-0.017970503315126885,"179":-0.11970431534757883,"180":-0.026537594743524167,"181":-0.02775052453685403,"182":0.06454789410775559,"183":0.04429803853444784,"184":-0.052958573206195556,"185":-0.014599934429512304,"186":-0.07887287109701743,"187":-0.13289221779001642,"188":-0.12012293877249165,"189":-0.12387925815200658,"190":-0.21801126834671114,"191":-0.1439188268278831,"192":0.015846862398379114,"193":0.1363458539688931,"194":0.08773336209604311,"195":0.1187568953454566,"196":0.13330782305992056,"197":0.12298378350272093,"198":0.017528726916269905,"199":0.1062328018330456,"200":0.07944507901732589,"201":0.1967710802915741,"202":0.2114377910793833,"203":0.27011705045299655,"204":0.16820335038297873,"205":0.10060486572953543,"206":0.07614929328270136,"207":-0.009506050210071122,"208":0.00909234823566773,"209":-0.013444734076301998,"210":-0.04312666421921676,"211":-0.006962422094220972,"212":-0.04143822796110761,"213":-0.09826049382123281,"214":-0.11993107678882406,"215":-0.17843971966864436,"216":0.08277878657942629,"217":0.07682876231689657,"218":0.13251684583285442,"219":0.06633646615503244,"220":0.09827037646485105,"221":0.07344685787579382,"222":0.1173364458324096,"223":0.2076274093069081,"224":0.15735867140508,"225":0.18171187059031355,"226":0.2568474790407889,"227":0.265953517858906,"228":0.22961600696190756,"229":0.10491358340680668,"230":0.09322720895488582,"231":0.02481159914582455,"232":0.06224376696424047,"233":0.024200226420128017,"234":-0.06370013368460098,"235":0.0077066974096387745,"236":-0.0031548458890346873,"237":-0.02043787828282469,"238":-0.04816726392552127,"239":-0.07071543662923585,"240":0.004835279192803685,"241":0.008708441818337556,"242":0.04614613279134347,"243":0.03195767081258013,"244":0.09859543979726215,"245":0.03652243814875522,"246":0.04310132334568969,"247":0.09555004387454379,"248":0.09381019647853688,"249":0.0397227544275396,"250":0.13446201032013919,"251":0.10167605280111235,"252":0.25175138468837405,"253":0.06814526311124909,"254":0.12100814808499881,"255":0.049104558892096396,"256":0.003953869462395961,"257":0.03785187277321585,"258":0.0771476381325948,"259":-0.049255315101105694,"260":-0.027030851287001813,"261":-0.04372974736023019,"262":-0.02159400166335238,"263":0.029564113500640338,"264":0.07700086482929804,"265":0.07676809976900284,"266":0.12207240546186339,"267":0.0644016176596536,"268":0.036427032558088296,"269":-0.028685196282212885,"270":0.04954296822634402,"271":0.03934911539710673,"272":0.005917867082123135,"273":0.07135774795635258,"274":-0.029494089065826925,"275":-0.021551045333428543,"276":0.0077132939156698,"277":0.04416608750726577,"278":0.11594587034547028,"279":0.052725111458994486,"280":0.13602837288530956,"281":0.05928256003400785,"282":0.034345176397592526,"283":-0.042839399973239344,"284":-0.009417772923470262,"285":-0.005758508289326727,"286":0.034623526943768294,"287":0.03379317111507499,"288":0.014133877025540316,"289":0.0593618368083449,"290":0.03897394267285642,"291":-0.08631063202955408,"292":-0.007416366978403526,"293":0.031852938732242854,"294":-0.08307797966520757,"295":-0.14792028004235522,"296":-0.0895525171928422,"297":-0.0696641941374305,"298":-0.12754766632910486,"299":-0.09555705887507439,"300":-0.028926346003647033,"301":0.06432410253350004,"302":-0.010758345884509829,"303":-0.007768939082089978,"304":0.01806111349820963,"305":0.024913228106108763,"306":-0.02004380529672504,"307":-0.027230651887088102,"308":0.01949823611416659,"309":0.06865498907202573,"310":0.016600973615622856,"311":-0.01723925477179421,"312":-0.016535841373307904,"313":-0.03360737245528111,"314":-0.06280869391731031,"315":-0.046959191605653684,"316":-0.056809156433407525,"317":-0.011461729851212127,"318":-0.06866301506650978,"319":-0.042229630735813616,"320":-0.0904632865648717,"321":-0.10035634537435185,"322":-0.1497685669563418,"323":-0.19399774831569302,"324":-0.04674752970552673,"325":0.04691259454423568,"326":0.03107248046759111,"327":0.03568927524487799,"328":0.02273772201062715,"329":0.08219941738970135,"330":0.04316838452316274,"331":0.05201834054488582,"332":0.02627858993591272,"333":0.09323354094522038,"334":0.028474150152988043,"335":0.06126359669387489,"336":-0.0057631333875077986,"337":0.07672801360242298,"338":-0.08235289376293488,"339":-0.03306720131645496,"340":-0.02051237651308725,"341":-0.11329034976876558,"342":0.0034683537546845175,"343":-0.1058760489616855,"344":-0.07147692391700301,"345":-0.14847158511102845,"346":-0.0741225435257488,"347":-0.04241650565551118,"348":0.06677935456568079,"349":-0.06451066777889009,"350":0.13615721347978404,"351":-0.0009589512856840907,"352":0.06261257276628841,"353":0.013013307562395156,"354":0.06447201828877,"355":0.10315687228838291,"356":0.07659640436938471,"357":0.014836652701155431,"358":0.01628027997793201,"359":0.044187298739152746,"360":-0.00832762002669867,"361":-0.03007412854932663,"362":-0.044679998349445575,"363":-0.13369808119599344,"364":-0.028570197354659134,"365":-0.05222115243115033,"366":0.034898764553159316,"367":-0.049280858802040646,"368":-0.09060849426846714,"369":-0.10592989608827548,"370":-0.15107056177516728,"371":0.030174101404549968,"372":0.0034968715295839335,"373":0.0020439674052448974,"374":0.072175142681701,"375":-0.040188415966863476,"376":0.033485067748469564,"377":-0.020682954053121,"378":0.05607610357812217,"379":0.04614619155056951,"380":0.02241427257101414,"381":0.05672761848923436,"382":-0.00013290207465373687,"383":-0.045956540381617464,"384":-0.02910780046868389,"385":0.01417550491545764,"386":-0.08525743901032923,"387":-0.11882892640890383,"388":-0.016190605290393206,"389":-0.08254318253528656,"390":0.01455950299098768,"391":0.0019524023796854697,"392":-0.0502760754427463,"393":-0.01365581688288971,"394":0.000936765231631769,"395":-0.02875762020688134,"396":-0.07037447477318887,"397":-0.06599022437045464,"398":0.0025493262915884697,"399":-0.0008921978114211835,"400":0.02213749662688023,"401":0.04339133586711982,"402":0.11875758267635841,"403":0.0473616027974285,"404":0.14789371915527105,"405":0.09556515018009361,"406":0.10513175824412216,"407":0.03459511971185361,"408":-0.0013578840960271651,"409":-0.05601747660113295,"410":0.0027937301385972508,"411":0.028770759590041294,"412":0.0676707551831747,"413":0.04472710388855976,"414":-0.011422356295975506,"415":0.015443701320079472,"416":-0.01614394710087438,"417":0.031167204621264363,"418":-0.07952180903332781,"419":-0.010856045340727222,"420":-0.13308892205737324,"421":-0.13262646302216496,"422":-0.007806923618637462,"423":-0.05858208232344116,"424":0.026244935538305782,"425":0.06636296710882077,"426":0.09117063082542579,"427":0.11707614446699378,"428":0.11418216701316031,"429":0.14960676909359555,"430":0.08615305393480657,"431":0.0540525887185043,"432":-0.01483940616150625,"433":0.02711686224275583,"434":-0.08773115506552526,"435":-0.0561298003852399,"436":0.08616337736514632,"437":-0.000056340823768756936,"438":-0.004304293153947198,"439":-0.02729149078697789,"440":0.0016493482326453634,"441":-0.05493008811877342,"442":-0.031954664252849985,"443":-0.08461941475047666,"444":-0.019697165404342663,"445":-0.010038759085319869,"446":-0.0007568185433518725,"447":0.06393402510160821,"448":0.0757218917730049,"449":0.029689563082826647,"450":0.11906754731208515,"451":0.09632638704670833,"452":0.08779223132144931,"453":0.06958543843271568,"454":0.0542648669384933,"455":-0.006352078613366014,"456":-0.008821959072085748,"457":0.029948695619476162,"458":-0.07493601243561387,"459":-0.08048945051779625,"460":-0.0485924348037492,"461":-0.046412599898231016,"462":-0.010881320053667319,"463":0.06117593474930315,"464":0.1475895100599674,"465":0.006743100633075496,"466":-0.02982175924529908,"467":0.04404414651888706,"468":-0.018883380159262598,"469":-0.04757082774832537,"470":-0.07034478327009705,"471":-0.09797157406925233,"472":-0.06601968440991487,"473":-0.05060000194146273,"474":-0.013002261918641012,"475":-0.057024886387633096,"476":-0.018803249193313037,"477":0.029788585638790704,"478":-0.04907421443484108,"479":-0.05617779798405907,"480":-0.0040599726800239905,"481":0.023072882164779027,"482":0.009933817378835683,"483":-0.0551055827377049,"484":-0.09455080023441446,"485":-0.12557941875630513,"486":0.012305267676732816,"487":-0.050312472762683705,"488":0.05945686650805101,"489":0.001721828258606818,"490":-0.0047268660383861984,"491":0.013864069533897705,"492":-0.04363971649810069,"493":-0.05255255138314975,"494":0.006716578943214083,"495":0.01571333914287993,"496":-0.16018123766759015,"497":-0.050779695169382806,"498":-0.019076416772730934,"499":-0.06541411196230151,"500":-0.03466125843622899,"501":-0.01223694624911144,"502":-0.04589667510504366,"503":0.002808726107185857,"504":0.04589005902222121,"505":-0.06378131876469,"506":0.02005181248847293,"507":-0.009281358619766466,"508":-0.02522252826388224,"509":-0.060189769324343466,"510":-0.011549276409577971,"511":-0.05897222735599712,"512":-0.040809693003637675,"513":0.034330715491663354,"514":-0.018019794965792084,"515":0.0383018318594431,"516":0.09181968327253406,"517":0.009875007236973944,"518":0.008558692086888321,"519":0.06516447385305571,"520":-0.051590803900044946,"521":-0.05351291780193919,"522":-0.07675797738424563,"523":-0.13618274556872598,"524":-0.060007537075585225,"525":-0.058325184567024214,"526":-0.048613877518680876,"527":-0.006153632057289306,"528":-0.03570917831460626,"529":-0.024481927998827844,"530":0.000533059107437262,"531":0.031123189313139055,"532":-0.031922034372653174,"533":0.0011977487096859816,"534":-0.029689402608092386,"535":-0.01873826648840016,"536":0.06750997953622503,"537":-0.03256626798438458,"538":-0.035904492960102376,"539":-0.05088229959612408,"540":-0.022766175255986787,"541":-0.025171760726274018,"542":-0.03098130281413816,"543":0.01202342962356889,"544":0.02716515370908349,"545":-0.027567945572253602,"546":-0.013611753340344286,"547":-0.03936558201487943,"548":-0.06836596363824989,"549":-0.06668200067753122,"550":-0.004329683002689859,"551":0.07097460926448355,"552":-0.0024088447341009183,"553":0.008312600380336136,"554":0.053965220379409845,"555":-0.0696944681103915,"556":0.1092764270399064,"557":0.07412619728173774,"558":0.14020783922152505,"559":0.09077462931312281,"560":0.073345644920838,"561":0.04802640902292909,"562":0.05102368099906004,"563":-0.02632430215264375,"564":0.057571927420153705,"565":0.08818788896924423,"566":0.11838755388634402,"567":0.07428912865628876,"568":0.07016840572256564,"569":0.11347475383959937,"570":-0.019566205534598747,"571":-0.0928248329301017,"572":-0.04369632969722903,"573":-0.024403926595009458,"574":-0.020987475391429866,"575":-0.01672172714176708}},{"sx":1,"sy":1,"depth":576,"w":{"0":0.013650695947785556,"1":0.027047692997338505,"2":0.008241407995039706,"3":0.002716759134318412,"4":0.019980882770830072,"5":-0.06778634671209896,"6":-0.0387964485005018,"7":0.0326160780271246,"8":-0.02254158431971013,"9":-0.008040595579190924,"10":-0.0864968564303105,"11":-0.05778458411170315,"12":-0.09453069469702936,"13":-0.04107243261615261,"14":-0.02872009450339192,"15":-0.01866909669732377,"16":-0.0095517646293505,"17":0.005807449729540144,"18":0.007699681738279482,"19":0.011994687244121564,"20":0.045411419215026165,"21":0.004544191038815455,"22":0.02550267805738429,"23":0.01647066202732243,"24":0.03893825266029855,"25":0.022440542951526986,"26":0.022466941830586114,"27":-0.024407399746430223,"28":0.00766666945489204,"29":-0.028604526631959372,"30":-0.058786722043811385,"31":-0.03775627734605487,"32":-0.038188951735255806,"33":-0.09181598402731593,"34":-0.08296301608033416,"35":-0.12971766513913388,"36":-0.14491836572342104,"37":-0.1100154576400406,"38":-0.04059667675685605,"39":-0.03657098880635756,"40":-0.022256442048581414,"41":-0.0059091667653016445,"42":0.005995301956332661,"43":-0.06114974395933987,"44":0.026803054335074405,"45":0.017086548571632394,"46":0.03030356074129098,"47":-0.004181990772410543,"48":0.0267084232057889,"49":-0.06621536610193646,"50":-0.030823098911913302,"51":0.056098537853286376,"52":0.044386493643335925,"53":-0.021263995360772107,"54":-0.06473711358505926,"55":-0.055664116580616825,"56":-0.048108367633714684,"57":-0.08364897494793637,"58":-0.1803270267580378,"59":-0.15451795284128167,"60":-0.01967223076179331,"61":-0.05714084644651147,"62":-0.0038547902673388037,"63":-0.040027089915076475,"64":-0.054718157334459616,"65":-0.08640876043653041,"66":-0.09268719477746727,"67":-0.02632576143379067,"68":0.028449198261512078,"69":0.0698240473468971,"70":-0.010859569506750495,"71":0.005485508850540693,"72":0.0021257997780293777,"73":0.005695233138931013,"74":0.025282944830586542,"75":0.037114325033353844,"76":0.0065571255005770065,"77":-0.046624205389691455,"78":-0.11224177860597388,"79":-0.09640126225601289,"80":-0.15907623782722188,"81":-0.24920162197380746,"82":-0.19425436667321436,"83":-0.0930699816242716,"84":-0.07701545665275937,"85":-0.07014846245096243,"86":-0.13952349115558374,"87":-0.1334946492046632,"88":-0.053585314110913766,"89":0.0076432298673522435,"90":-0.0559692559253067,"91":0.02507915313083923,"92":0.047845389017789494,"93":0.13153173363639262,"94":0.08111282763273057,"95":0.07308536765663787,"96":0.018374379606080123,"97":-0.06449273855181481,"98":-0.08647509857571885,"99":-0.07022071922896361,"100":-0.04654565276662211,"101":-0.14076754305087905,"102":-0.07838708245734556,"103":-0.1334256139690364,"104":-0.07082621153267481,"105":-0.12238195814965742,"106":-0.10923110427493216,"107":-0.10250588199335639,"108":-0.08705740637882517,"109":-0.02934643652002653,"110":-0.09334483628734691,"111":-0.08046438651411066,"112":-0.004767152514645706,"113":0.016316638800738477,"114":0.11900730884908328,"115":0.06797589104153137,"116":0.11454107020219921,"117":0.1623100067751797,"118":0.16724700335693743,"119":0.19607559802805793,"120":0.023579646630561557,"121":0.007158198193584943,"122":-0.036659759554972825,"123":0.019016755037690583,"124":-0.07417564567060644,"125":-0.09134803845834874,"126":-0.08154057546568425,"127":-0.17030397456870183,"128":-0.09163776136358334,"129":-0.06237837156083225,"130":-0.12024175480147617,"131":-0.11898471875556793,"132":-0.033747785261776304,"133":-0.05240351853725116,"134":-0.0202418105549081,"135":-0.03831877836887758,"136":0.12992326519691036,"137":0.10877446072557201,"138":0.17848214656574532,"139":0.08832179998937485,"140":0.22170653744384095,"141":0.20716540946555748,"142":0.13365842340744077,"143":0.23782611765783887,"144":0.01954468834829713,"145":-0.057328489357264326,"146":-0.1087462155678763,"147":-0.03095856561215721,"148":-0.04039449519225427,"149":-0.1359820158008699,"150":-0.13047991765698366,"151":-0.14487206158100285,"152":-0.13856372125252253,"153":-0.1094698375183481,"154":-0.06594693742691653,"155":-0.03634469368478813,"156":-0.03763605509802263,"157":0.005677393773181779,"158":0.07912637881732203,"159":0.09047694423941599,"160":0.19069264131389438,"161":0.2896051866288746,"162":0.24288365935543918,"163":0.247024175803771,"164":0.17880433790243938,"165":0.20781066731243433,"166":0.18377267067662156,"167":0.2198164368373285,"168":-0.09293451368351696,"169":-0.030450530448132444,"170":-0.029214463595771324,"171":-0.06085702033431186,"172":-0.09063552956951933,"173":-0.1314510863944417,"174":-0.056387853996426755,"175":-0.07679880284568727,"176":-0.19879854120253732,"177":-0.06809405874565634,"178":0.08790483554170211,"179":0.07912603172566339,"180":-0.05968035237170626,"181":0.13833892794616873,"182":0.0709808618555862,"183":0.012463346511363452,"184":0.10857641592087973,"185":0.2078962790887074,"186":0.263446842314598,"187":0.1848719545990324,"188":0.09316512173715365,"189":0.15420052147837154,"190":0.13863405616194402,"191":0.12243570886243392,"192":-0.008600915192470358,"193":-0.03755575746038428,"194":-0.11526700975420119,"195":-0.006176820139771999,"196":-0.05757938794719867,"197":-0.056385919849599654,"198":-0.037701319632804604,"199":-0.08839022300173284,"200":-0.12401028416827657,"201":-0.032044135172518536,"202":-0.00862511001470503,"203":-0.05194176495481447,"204":0.03846487766941735,"205":-0.05582909642585348,"206":-0.07610394051449483,"207":-0.15770572001172892,"208":-0.0668404781102885,"209":-0.06370134092240118,"210":-0.08134973920222369,"211":-0.09944710556738796,"212":-0.10593587730005663,"213":-0.1958564103438875,"214":-0.16798645623191752,"215":-0.10468672693107835,"216":-0.0203630639532572,"217":0.03606938753100062,"218":-0.043221853309832615,"219":-0.03612412650417565,"220":-0.047851255258834206,"221":-0.004202123535760335,"222":-0.006289533376342925,"223":-0.07190878471613085,"224":0.03179516294564244,"225":-0.0075072297912650255,"226":-0.016189037101865568,"227":-0.03862892403191267,"228":-0.14777527488663772,"229":-0.18967449599853387,"230":-0.2621994595076483,"231":-0.3432808434158155,"232":-0.38279845281049385,"233":-0.40879353366369053,"234":-0.4875775633460831,"235":-0.42165095947140235,"236":-0.33494269676409366,"237":-0.32008896539427384,"238":-0.3098732302184846,"239":-0.21097775061725194,"240":-0.04716158782873132,"241":0.010427702107262713,"242":-0.022953913092014607,"243":0.04433118951938253,"244":0.03146046378643156,"245":0.06624078184069526,"246":-0.05095803297777145,"247":-0.017799670158694478,"248":-0.037466381851098574,"249":-0.04158570890462642,"250":0.04468867803490646,"251":-0.04804809809929418,"252":-0.005251638100448122,"253":-0.16106630068159172,"254":-0.2026241051749577,"255":-0.22264395212920923,"256":-0.44222275957064616,"257":-0.5449541169566187,"258":-0.5916944779628434,"259":-0.4604145029643998,"260":-0.44701902096496765,"261":-0.37111183484064875,"262":-0.3220264959851994,"263":-0.2742645706394156,"264":-0.02515552780528453,"265":0.012257740400478657,"266":0.015156067286823184,"267":-0.000265429887455505,"268":-0.026331473592170175,"269":-0.022938497880095974,"270":0.02306363763636974,"271":-0.07645609462780749,"272":0.024467364177231343,"273":0.008352356205000711,"274":0.04815779438840482,"275":-0.03895402406880765,"276":0.03490267500351195,"277":0.027444975563269174,"278":-0.03363162977081433,"279":-0.16097299721113775,"280":-0.15857225387647,"281":-0.21225701062205993,"282":-0.2590875347242848,"283":-0.3016068184622179,"284":-0.35876219973412493,"285":-0.3185257429447311,"286":-0.20758204459013035,"287":-0.16958083473405472,"288":-0.05847427697247237,"289":0.03183653967834103,"290":0.0021472636465342887,"291":0.046130320627911774,"292":0.020386978680269497,"293":-0.04401631796681204,"294":-0.08961213473381047,"295":-0.01908307383601148,"296":0.016069665150829224,"297":0.041803734726780555,"298":0.039510645704929036,"299":0.021931528872501983,"300":0.05308431386111193,"301":0.04393728835786401,"302":-0.015617859061940591,"303":0.03051629373558055,"304":-0.10130154267373433,"305":-0.002918220460151326,"306":-0.05407757902803382,"307":-0.13827231764249653,"308":-0.2600613211354211,"309":-0.1985573246387881,"310":-0.2231762770150362,"311":-0.10817993512564222,"312":-0.038114383139256074,"313":-0.006085751987497901,"314":0.022671676914955877,"315":0.08387105986043397,"316":0.0631899065688216,"317":0.006940837553018326,"318":0.006912304230661933,"319":-0.03876884786354873,"320":0.016896619877155,"321":0.07958349543708149,"322":0.019838270884321597,"323":-0.03668223158017669,"324":0.011724931537580807,"325":0.031036900637709385,"326":-0.13507687493646656,"327":-0.004650836401006768,"328":0.017558107651575488,"329":-0.02511807510336119,"330":0.07791319732823485,"331":0.06422170939248703,"332":-0.21459970326984346,"333":-0.13304156353552352,"334":-0.16556000330420867,"335":-0.09570463523550093,"336":0.028911762912596495,"337":0.057985843658088475,"338":-0.023761015356644773,"339":0.04479735123702022,"340":0.035634891371355684,"341":0.037632335436638464,"342":-0.05504547675397549,"343":0.10034434094278284,"344":0.06294092090264775,"345":-0.000563487809673479,"346":-0.07671298827776667,"347":-0.03667794004494234,"348":0.013856272242326799,"349":-0.022773052253881255,"350":-0.01003337100543916,"351":0.04319618444512457,"352":-0.00024006870750039336,"353":0.10779965864921753,"354":0.09459647421633774,"355":0.018664819221165117,"356":-0.05252971996912948,"357":-0.06006634889841832,"358":-0.10113879721860938,"359":-0.07835603903484757,"360":-0.01593772483814326,"361":-0.023237613864586195,"362":-0.0039757058490774684,"363":0.03181605813539623,"364":-0.054623247205369645,"365":-0.018067200177985514,"366":-0.03318292675239301,"367":-0.06991427776594318,"368":-0.03972746580396854,"369":-0.01209090103387952,"370":0.006032070331898175,"371":0.03165328505992748,"372":0.061505149233006554,"373":0.045161143178704684,"374":0.005915405361951368,"375":0.06841946079194117,"376":0.05165128149060463,"377":0.005534684677334859,"378":0.04640607289238561,"379":0.059008174581654,"380":0.056456139039413177,"381":-0.035225590320799534,"382":-0.07156325993614769,"383":-0.07567554687123591,"384":-0.022988487655117993,"385":-0.027271959420597507,"386":-0.012347782030039677,"387":-0.04094112458547576,"388":0.019167363855506086,"389":0.014002259345908308,"390":0.027724754842155867,"391":0.0780282384452526,"392":-0.034228691459734784,"393":0.08087220661077128,"394":-0.007162820216848726,"395":0.07336492022746073,"396":0.08891626054503525,"397":0.047529336916929094,"398":0.13437074709275898,"399":0.08395327630104125,"400":0.06960176821085313,"401":0.1464446758382067,"402":0.05961207414617577,"403":0.0741848655832685,"404":0.06288450145087747,"405":-0.05329171977904653,"406":-0.03417384906714116,"407":-0.016405645613900288,"408":-0.07098228385842938,"409":-0.08785447583359406,"410":-0.0433987178315658,"411":0.025008943570023097,"412":0.03770400727821418,"413":0.13902436832677978,"414":-0.03494948847505138,"415":-0.017472967845796956,"416":0.038894616945325755,"417":-0.03387252316629008,"418":0.11324008544315899,"419":0.07474317696783424,"420":0.035556250750155144,"421":-0.02285306138502588,"422":-0.024126707600979937,"423":0.10360002118926015,"424":0.09721676713176204,"425":0.15414540054980153,"426":0.05760164981148574,"427":0.018021022162108533,"428":0.048929988995220476,"429":0.06545264998002805,"430":-0.04268244489596309,"431":-0.07049856380995363,"432":-0.03396855419348929,"433":0.035202805417174694,"434":-0.0076211962804227885,"435":0.03061727448385065,"436":0.0032090163032411074,"437":0.07336536085679057,"438":0.05219901411710385,"439":-0.018472220790833417,"440":0.006291137178046845,"441":0.07080863631842566,"442":0.10210405159756866,"443":0.026203345599604622,"444":-0.01769806202289561,"445":0.032979817126102824,"446":0.05910745863304637,"447":-0.055464489325752556,"448":0.025670683899374658,"449":0.03963330201846349,"450":0.08219728105262293,"451":0.05286962092051608,"452":0.04466531146234577,"453":-0.03296145607459352,"454":-0.07033485064812507,"455":-0.005348410365245236,"456":-0.006326583315772619,"457":-0.0527547577054174,"458":0.032576356585237096,"459":-0.037881764406363753,"460":0.023470164697256636,"461":-0.0002516143930036643,"462":-0.06023462693380901,"463":0.051692426429527996,"464":-0.018689447196458354,"465":0.02427685222476071,"466":0.04069267442189783,"467":0.06998027638314717,"468":0.04874277746666233,"469":0.020575874740057676,"470":0.047080064242316845,"471":0.06536427319388634,"472":0.07503938167606553,"473":0.006243925183158047,"474":-0.016237004740083463,"475":0.07451480424459991,"476":0.0022844407535643884,"477":0.00041168353428535043,"478":0.019321107161222227,"479":0.030536987570342327,"480":-0.04098511746756217,"481":-0.022148109665146493,"482":-0.05841486372135896,"483":-0.022595407609159398,"484":0.0377012814822131,"485":0.014708757627795159,"486":-0.04885147006310472,"487":0.011707204521007052,"488":0.00031381059852980794,"489":0.05447532745937818,"490":0.06157704711807193,"491":0.09034072241863811,"492":0.08500102184312881,"493":-0.008237981519171994,"494":0.039410442607133764,"495":0.033325193685985265,"496":0.054755831021318896,"497":0.07931916868093422,"498":0.10183635188157776,"499":-0.0024788223766799957,"500":0.034780344827976,"501":0.015381066049650078,"502":-0.014503839658335212,"503":-0.0076870580895156805,"504":-0.005142261393440331,"505":-0.05367133033417615,"506":0.005360440815067757,"507":-0.009907804208607013,"508":0.1386668466547662,"509":0.04787134455353252,"510":0.013529191231698566,"511":0.047642033944548766,"512":0.03880647585311612,"513":0.07043515727125273,"514":0.09458373321430356,"515":-0.03535047233739044,"516":-0.014928416857207282,"517":0.010363482601940472,"518":0.08899849407581016,"519":0.058424477175022534,"520":0.009743075178528408,"521":-0.012273498065983839,"522":0.018761576337043492,"523":0.05847161510411746,"524":0.019597128012508663,"525":0.023004889991938355,"526":-0.03063421735586856,"527":-0.07499094846166741,"528":-0.00804290048689084,"529":-0.0362102249259381,"530":0.051155542953812534,"531":-0.007783657693100074,"532":-0.01121681945123405,"533":-0.029403409047185455,"534":-0.05809973432922865,"535":0.05755053521940421,"536":0.03175816942138796,"537":0.01585929690316499,"538":-0.004493463220127728,"539":0.03694154114905171,"540":0.08745906982256012,"541":0.0591179143691793,"542":-0.08914332199220155,"543":0.034901089771235086,"544":0.059408637165452395,"545":0.033794178015367625,"546":0.10556963070661118,"547":0.07121792993903052,"548":0.004239305320838276,"549":0.029640070522061208,"550":-0.04553816695679787,"551":0.0038660115007244406,"552":-0.027194780582816384,"553":-0.15120052979579215,"554":-0.007652743211930068,"555":-0.06233274326595801,"556":-0.001049867693561754,"557":0.034715047073020505,"558":-0.012725678174160178,"559":-0.07820132231774785,"560":-0.172901235111887,"561":-0.002574936087489648,"562":-0.0005036013573492661,"563":-0.09673717482072343,"564":0.002161225167810823,"565":-0.06747403439097538,"566":0.03631796579035514,"567":0.09555734223414941,"568":0.05612692933932051,"569":-0.008693310464533767,"570":0.0832389161723999,"571":-0.01930125006724805,"572":0.022109621448557822,"573":0.09119293661641009,"574":-0.02012762181831389,"575":0.01951621901952628}},{"sx":1,"sy":1,"depth":576,"w":{"0":-0.06623461956511935,"1":-0.062400289227855794,"2":0.03784016893564291,"3":-0.011732587471162972,"4":-0.027251626089919073,"5":-0.08315417437481687,"6":-0.028028991371012592,"7":-0.09694630540466767,"8":-0.03118161987251038,"9":-0.14081207005977128,"10":-0.1161829108561994,"11":-0.1659515424249973,"12":-0.05954021010132927,"13":-0.11929869894395326,"14":-0.10143207749390397,"15":-0.03031132117633071,"16":-0.13622502602946143,"17":-0.03503870106956889,"18":-0.156373080603682,"19":-0.09010621716842021,"20":-0.08384693809539996,"21":-0.07027393979811462,"22":-0.03358709826304714,"23":-0.025600815375584826,"24":-0.0450612134651999,"25":-0.0328903959125212,"26":-0.02729382584773078,"27":0.009162598568455964,"28":-0.13273182511677303,"29":-0.04833052576778686,"30":-0.0788933221771995,"31":-0.1504794723158806,"32":-0.04478210638913661,"33":-0.1521677919025756,"34":-0.17910718251116242,"35":-0.19079525190039956,"36":-0.17053606118464895,"37":-0.13086198123737786,"38":-0.16737942240715778,"39":-0.14595490823299723,"40":-0.1783302192750045,"41":-0.13318189423691837,"42":-0.14668448351059685,"43":-0.17933415348994114,"44":-0.06525831180914853,"45":-0.04985001161769177,"46":-0.017438783535750027,"47":-0.06028702279493847,"48":0.0405471238683221,"49":0.014332261000238168,"50":-0.005911800563851483,"51":0.008070052729785341,"52":-0.09559661835697353,"53":-0.10027039155948814,"54":-0.10974073058899628,"55":-0.16856366890509886,"56":-0.23073013291866232,"57":-0.24642504892187553,"58":-0.23515191193443574,"59":-0.21459412761054597,"60":-0.2220938834212044,"61":-0.2653920522697591,"62":-0.2899837686954747,"63":-0.2911187776268433,"64":-0.22209494100191496,"65":-0.23694609815829723,"66":-0.14406530280056912,"67":-0.09899635350004449,"68":-0.13434436297787838,"69":-0.06984298223245448,"70":-0.048951596478077584,"71":-0.045826278891705985,"72":0.023014165190825792,"73":-0.02289529303442189,"74":-0.0634394100865972,"75":-0.03671145807940342,"76":-0.08190709556734994,"77":-0.18898503551042758,"78":-0.17237438573707695,"79":-0.2288382252683471,"80":-0.17524770239721074,"81":-0.3008127718729742,"82":-0.24975412756965065,"83":-0.2461110761795905,"84":-0.20328548501202132,"85":-0.2574651734764431,"86":-0.3112775062610386,"87":-0.2658774694448654,"88":-0.26502131576371907,"89":-0.2925982929763637,"90":-0.16750706480293667,"91":-0.19617732761430556,"92":-0.20461711684167713,"93":-0.09948950402104946,"94":-0.11147511356585668,"95":-0.07111255613585135,"96":-0.04068944393466363,"97":0.026821667427189933,"98":0.01245828719602198,"99":-0.03565023600420065,"100":-0.13912951084439498,"101":-0.19921288219502972,"102":-0.21877124179609328,"103":-0.23942762832226175,"104":-0.24692116137966508,"105":-0.31785757665259146,"106":-0.2753972098290284,"107":-0.21954578577646106,"108":-0.2263743168162914,"109":-0.23511734510196683,"110":-0.20978323836141988,"111":-0.25210172946720427,"112":-0.33876009695550446,"113":-0.3130835078130029,"114":-0.19171348476455569,"115":-0.24508630142243093,"116":-0.15779771594052522,"117":-0.08453958188127694,"118":-0.02961865138605133,"119":0.0007155553379662743,"120":-0.003932017195846411,"121":0.01575726596681128,"122":-0.08130308570120813,"123":-0.08210068567922953,"124":-0.12023189046696367,"125":-0.2145714788412633,"126":-0.2551711669595964,"127":-0.15435253948140917,"128":-0.2671483660401652,"129":-0.3212070340068851,"130":-0.24441498064012807,"131":-0.23305300073517146,"132":-0.14922971895775214,"133":-0.1999860265561963,"134":-0.2659591751933068,"135":-0.13090363361643623,"136":-0.19046897297654147,"137":-0.17411187537001424,"138":-0.205636908737883,"139":-0.11828490783510574,"140":-0.047856903247069885,"141":0.00020069679708185328,"142":-0.11363448055407721,"143":-0.020064401634366492,"144":-0.08330936980238268,"145":-0.09577615188730852,"146":-0.12434334796233153,"147":-0.0406448855595402,"148":-0.14208718158720268,"149":-0.3174557400065072,"150":-0.2207218343954408,"151":-0.2114696952737885,"152":-0.1941608676780987,"153":-0.16848347988167917,"154":-0.0535131037265335,"155":-0.06927878572343384,"156":-0.14336764151511341,"157":-0.13639547527509296,"158":-0.11850371930247344,"159":-0.01967828493949268,"160":-0.020215192820936156,"161":0.01831418213157416,"162":-0.03169811590266813,"163":-0.05343922384789137,"164":-0.06520088964736052,"165":-0.08345170874947751,"166":-0.012069324361934211,"167":0.004435050236328794,"168":0.039805756861893964,"169":0.017900090179457213,"170":-0.011447792013195252,"171":-0.03915834427650447,"172":-0.2098989671551839,"173":-0.14518036678908236,"174":-0.11370397112137039,"175":-0.04077505010714299,"176":-0.10879052702011328,"177":0.12238647143683921,"178":0.13728884973488412,"179":0.1393989459494048,"180":-0.058748387985836356,"181":-0.044727612538745395,"182":-0.036049065074751696,"183":0.041555912309189126,"184":0.06165454952635707,"185":0.08027262365078873,"186":0.03890987511673508,"187":-0.04891296975921067,"188":-0.06623084664210897,"189":-0.1250379928051317,"190":0.0024952053722405265,"191":0.049048645993153304,"192":0.04583982155447222,"193":0.07023133386241433,"194":-0.07518248578797322,"195":-0.038893663209375276,"196":-0.14125039684347723,"197":-0.20112295817777157,"198":-0.09312007829680427,"199":-0.05499506561498815,"200":0.08469398892468576,"201":0.20801008435797064,"202":0.21547408004210214,"203":0.1880745438736522,"204":0.12519200422467597,"205":0.09415343235459675,"206":0.13161618933442537,"207":-0.0062600001440968125,"208":0.24557079436075055,"209":0.21618350597399114,"210":0.12492774062554028,"211":-0.0101456559536118,"212":-0.039395467899499985,"213":-0.05781285998967742,"214":-0.023738072514612456,"215":0.051093730077832064,"216":0.02868421792774026,"217":0.01540681531247315,"218":-0.08407369318087302,"219":0.013859930274558676,"220":-0.09692126087362743,"221":-0.016354308212448557,"222":-0.04953576685756408,"223":0.03225889181240869,"224":0.153196912624747,"225":0.13999893499593427,"226":0.13973723293936147,"227":0.15046840411663506,"228":0.10722122226773698,"229":0.11203287026474837,"230":0.055498019550277854,"231":0.1170685969444533,"232":0.17713194299569704,"233":0.12258448723638009,"234":0.01993382568519257,"235":0.06736560666219572,"236":-0.01382798580666098,"237":0.005765525498426031,"238":-0.04492338044008104,"239":0.011905009251232298,"240":0.13470998253758365,"241":-0.04086342277241369,"242":0.002243967515347685,"243":-0.073410621727625,"244":-0.02802218877802825,"245":-0.047802435522831935,"246":0.013272028090201822,"247":0.04766426765429933,"248":0.12498071526827656,"249":-0.005237087774530386,"250":0.1368125935726965,"251":0.12346222862617576,"252":0.05196024622201211,"253":0.06174241220953644,"254":0.042927265104396366,"255":0.07473111501117594,"256":0.049394905033591466,"257":-0.02390236455473278,"258":0.026166520873039154,"259":-0.020708467147740904,"260":-0.02745591137130121,"261":-0.032455180925587586,"262":0.006084211459849007,"263":0.02087494057215762,"264":0.04700297237027418,"265":0.001103710926005054,"266":-0.021860736521252616,"267":-0.05844750668903869,"268":0.043846676259998114,"269":-0.040495345006610936,"270":-0.014081192834410375,"271":-0.02146894347766892,"272":0.1003179237363824,"273":0.12382943714105764,"274":0.19591262651603847,"275":0.0719424622735354,"276":0.028068149012045036,"277":0.005690918109199721,"278":-0.014937782130301608,"279":0.09157294973409166,"280":0.032096391643561796,"281":0.014980443805707884,"282":-0.12364629335482641,"283":-0.06791098729652247,"284":-0.07759278733625355,"285":0.010991934046617467,"286":-0.06407926775354064,"287":-0.09314442574129103,"288":0.04275469310098428,"289":0.006894479453612969,"290":-0.02062177512633313,"291":-0.0428307172371134,"292":0.06864321837882832,"293":0.01080007613905914,"294":0.05465813770196032,"295":0.07690578609986211,"296":0.03955755819005655,"297":0.12627475982760566,"298":0.090807452680046,"299":-0.03477733310290601,"300":-0.04665773344564499,"301":0.05313456076844103,"302":0.04776780507668811,"303":0.0451596061349546,"304":-0.048832094952526335,"305":-0.01837098724237671,"306":-0.03796735477302288,"307":-0.05578407708173328,"308":-0.06127488461711097,"309":0.0009266798582816117,"310":-0.0369765229703582,"311":-0.020615197414966608,"312":-0.04105930204237183,"313":-0.02689327196026155,"314":-0.03974518414095137,"315":-0.0036475906307326766,"316":0.06927046771045427,"317":0.0837014615285285,"318":0.04291716125435504,"319":0.0614703600676016,"320":0.04370326687427886,"321":0.04333169896725716,"322":-0.01072724780736646,"323":-0.13804261708168375,"324":-0.14233883151892632,"325":0.044574562014173404,"326":0.020089056103276017,"327":-0.00520695032903027,"328":0.056651524607282386,"329":0.09831221047700073,"330":0.01330082000709053,"331":-0.020811208299003122,"332":-0.025049885547537728,"333":-0.0745189627677804,"334":0.033661858811423064,"335":-0.02804470951558877,"336":-0.07634195859524032,"337":-0.0330723141929731,"338":-0.0370492976682263,"339":-0.08517286789498583,"340":-0.051711914714950194,"341":0.025142497014893135,"342":0.02390999278617398,"343":-0.01713407650136516,"344":0.03813967455256042,"345":-0.08169906156066138,"346":-0.04709206623230653,"347":-0.07205136663039727,"348":-0.13307525167406017,"349":0.0067100723625229605,"350":0.07618793237164524,"351":0.051096927704999934,"352":0.11660080760404624,"353":-0.015453537388772087,"354":0.01940841391248565,"355":-0.03240545159106574,"356":-0.11470497218701711,"357":-0.05753602480321231,"358":-0.004738502871161482,"359":-0.09119030480755888,"360":-0.0626705236346696,"361":-0.005110885717985356,"362":-0.10698872642608234,"363":0.07965298237007411,"364":0.02856616413372021,"365":0.008847754267877945,"366":0.14804207593450833,"367":0.0491293566723061,"368":0.05800787722957404,"369":-0.00995609182386332,"370":0.037922443503838735,"371":-0.07742438669068706,"372":-0.04661595153542347,"373":0.024641849339619586,"374":0.022824957955478693,"375":0.08687698727689407,"376":0.11173899694017561,"377":0.051365860473012656,"378":0.1218084437094585,"379":-0.08025211320980243,"380":-0.007571512820095614,"381":-0.0070029862144032,"382":-0.03878238703344401,"383":-0.0740605213391113,"384":-0.05918532403069868,"385":-0.06525254418140075,"386":0.027178135071812944,"387":-0.0016043464783563298,"388":0.10419470885813109,"389":0.12518305528432644,"390":0.07537582384687733,"391":0.0590887482405807,"392":0.11287197903964759,"393":0.10188588870538022,"394":0.06562844625963181,"395":0.10871031021272949,"396":0.12160451314959846,"397":0.05122402761133177,"398":0.016658924654102073,"399":-0.01248202881727218,"400":-0.007494882433618636,"401":0.09694181027578033,"402":0.15481255778165667,"403":0.07852481171729166,"404":0.06923640151995344,"405":-0.032819390496474185,"406":-0.08539887131220818,"407":-0.09324040292721983,"408":-0.05204497824583716,"409":0.007928396938093612,"410":-0.01811259520177996,"411":0.07291598675483202,"412":0.028165119253518545,"413":0.11164357912830161,"414":0.09551088756324254,"415":0.08671120126195901,"416":0.09908181530335802,"417":0.029153199541067563,"418":-0.001119854168048873,"419":-0.10619761496233196,"420":-0.013398834579346297,"421":0.013466618296081973,"422":0.0439479087358125,"423":0.02924702364071062,"424":-0.04040236280629451,"425":0.15096994274187814,"426":0.12790349641916832,"427":0.13641622153160393,"428":0.07653011979534995,"429":0.029426140777176875,"430":0.044502564510425835,"431":-0.032660121070055975,"432":-0.0012036469070216653,"433":-0.004629198146467894,"434":-0.008656255820108961,"435":0.020820304342853542,"436":0.021093413460122706,"437":0.0049965220564279315,"438":-0.030585312690273026,"439":-0.03601771063897348,"440":0.04382453179133837,"441":0.0720835244802012,"442":0.06906223621530372,"443":-0.005854750490251444,"444":-0.019003641674811562,"445":0.016746231054147534,"446":-0.048748502678228084,"447":0.034547400555983564,"448":-0.02152960253780479,"449":0.025142598221665903,"450":0.1309958576823801,"451":0.10817957794288877,"452":0.03492875757394899,"453":-0.028673368481711047,"454":-0.052719467813646705,"455":-0.05272414155677092,"456":-0.014676710506314932,"457":-0.04999418711375666,"458":0.014029738222719924,"459":-0.04908611846625228,"460":0.05240722738338713,"461":-0.02210161320130126,"462":0.009361784004202765,"463":-0.009210228672344166,"464":-0.06351396949982968,"465":-0.06867269753760036,"466":-0.07149562574387304,"467":0.012322144759628593,"468":-0.0028988942408445842,"469":0.016096255406016367,"470":-0.00920009851504177,"471":-0.08974027131647033,"472":-0.052051131418678946,"473":-0.10304908473891546,"474":0.10616469255019921,"475":0.00008730242464764247,"476":0.004691419802404614,"477":0.04556156052476487,"478":-0.06547649053862431,"479":-0.07257621671450402,"480":0.013063751363046036,"481":-0.00338357642281045,"482":-0.029349732239457967,"483":-0.07153974144444804,"484":-0.003967833665607537,"485":-0.047092629279739416,"486":-0.16313339470485866,"487":0.0871415881278525,"488":-0.005859023242932826,"489":0.020800835904505485,"490":0.055095385644152936,"491":0.05074558629417128,"492":0.012432781399615313,"493":-0.044019398835389204,"494":-0.03440128665794538,"495":0.02342238988575811,"496":0.04827047060027769,"497":-0.001910644479948683,"498":0.015665895775554262,"499":-0.06184008296088324,"500":0.04219999139563381,"501":-0.01392912341478048,"502":0.023270727403322353,"503":0.027356015249763516,"504":-0.04380915086919235,"505":-0.008609342170979157,"506":-0.09364521599215875,"507":0.057557368003152636,"508":-0.04606631273567767,"509":0.023510287588035667,"510":-0.014369687067027367,"511":0.059342738578152254,"512":0.020490480180841816,"513":-0.0031489100491901827,"514":-0.007745322120298434,"515":-0.01172001852930469,"516":-0.08031418063445203,"517":-0.05072768123685247,"518":-0.10850918030280607,"519":-0.02909838986331492,"520":-0.04793991298796145,"521":-0.10032875893834008,"522":0.036672201606123056,"523":0.04152935678353395,"524":0.06041526410958853,"525":-0.0224480540709914,"526":-0.010189655166566875,"527":-0.012286208856845178,"528":-0.06271221507569202,"529":-0.08887016627986948,"530":-0.10536002748455353,"531":-0.04735528646352021,"532":-0.036027652879717535,"533":0.010949440934147178,"534":-0.13462902569862625,"535":0.003082853015750375,"536":-0.027507242574765733,"537":-0.03931560501099228,"538":-0.04136021178369413,"539":-0.06095940790314817,"540":-0.07373710198104477,"541":-0.10242326078859146,"542":-0.1888350129031674,"543":-0.14607889026409843,"544":-0.09398370789784476,"545":-0.04291390068088404,"546":0.014867318593237961,"547":0.127210074506706,"548":0.03251625676057416,"549":0.05261793656393398,"550":0.07528804404166015,"551":0.06762084393969177,"552":-0.04299095300966737,"553":0.027197709734337383,"554":-0.08411800443425836,"555":-0.02376012525909316,"556":0.049554290783156436,"557":-0.02944962454419836,"558":0.04278959341716141,"559":0.028421869026021177,"560":-0.014085520020234719,"561":-0.03832777586236859,"562":-0.0550586180909815,"563":-0.10276966477737626,"564":-0.05805051260808193,"565":-0.09814019070431917,"566":-0.10177934388614683,"567":-0.0642136517279345,"568":-0.05852527003682627,"569":0.06081621916770204,"570":0.0721949369926806,"571":0.08067173454657552,"572":0.10973875467087718,"573":-0.0013356240462242793,"574":-0.0004688170271765909,"575":0.016718951861075117}},{"sx":1,"sy":1,"depth":576,"w":{"0":-0.008703110744052084,"1":-0.03210501593583488,"2":-0.009413739060279418,"3":0.04414049506829339,"4":-0.06139695308709821,"5":0.01328748200579505,"6":0.16123640235588785,"7":0.12953222532244446,"8":0.15018135009353245,"9":0.1573665366290431,"10":0.17339633394843856,"11":0.24746231891083978,"12":0.19659242359256365,"13":0.15647646832286355,"14":0.08890028485602573,"15":0.18695131215703725,"16":0.1939442696303026,"17":0.15939384215376942,"18":0.15703356366895496,"19":0.07621563821862379,"20":0.05866711639908691,"21":0.04135591081654486,"22":0.010800354678003308,"23":0.02576532110308473,"24":-0.05457901666682064,"25":0.004072512794867681,"26":-0.028988974947245782,"27":0.03898946604029197,"28":-0.054441379717656405,"29":0.06356017103768807,"30":0.08007011503140114,"31":0.08551215051802709,"32":0.13436099696621265,"33":0.18276876623048435,"34":0.15918416240420755,"35":0.10762752796137222,"36":0.1875832052082085,"37":0.1766532725029625,"38":0.1420134585051512,"39":0.15648068644780888,"40":0.058939336037943026,"41":0.07443856347608825,"42":0.041713500473972105,"43":0.0011000507525726286,"44":0.028737920292381133,"45":0.036029798741652484,"46":0.045394216533721506,"47":-0.04360931632751907,"48":0.03472070985506807,"49":-0.03744712580306835,"50":0.025591581485315294,"51":-0.016499134043819343,"52":0.007415990835861622,"53":0.1569876715880569,"54":0.15588171558967578,"55":0.12991268591310234,"56":0.06754637491001861,"57":0.14041498547469403,"58":0.2696609540248788,"59":0.2111777603377287,"60":-0.01364499146227458,"61":0.0016431994965625822,"62":0.056032342797192394,"63":0.10928268248848762,"64":0.08321451359258443,"65":0.0942146074657527,"66":-0.022931765245945805,"67":-0.015034220290724019,"68":0.027246246710172714,"69":-0.011539957955451104,"70":-0.021122306292945616,"71":0.035528699783030374,"72":0.04264947003443555,"73":0.014592404769746001,"74":-0.05488934897906809,"75":-0.0017126198702118313,"76":0.05862857505342017,"77":0.11425263913200033,"78":0.0390392626090257,"79":0.01026872211913585,"80":0.03848007809071799,"81":0.07577313160343382,"82":0.029026768933677827,"83":0.009944362530076007,"84":-0.13566566967636018,"85":-0.04534386113606959,"86":0.0014716193990039173,"87":-0.007649500803012257,"88":0.072505907720509,"89":0.08318015430482681,"90":-0.006911811387160298,"91":-0.12506927255322206,"92":-0.08340149268619593,"93":-0.028318605691359595,"94":0.009597696993769219,"95":-0.0001604469698321045,"96":0.06342412309243069,"97":-0.03028769473308773,"98":0.045791192639567706,"99":0.0128662662622076,"100":0.09045386225304312,"101":0.09038806798519149,"102":-0.041081190171443245,"103":0.013972462031482178,"104":-0.10035327514124773,"105":-0.033086346965059556,"106":-0.04540932049603033,"107":-0.18353615269430645,"108":-0.1618793081517128,"109":0.04953593618432169,"110":0.06404567059084054,"111":0.04821232486198191,"112":-0.009403029906604528,"113":-0.060805812104254904,"114":-0.1340380282330456,"115":-0.12385398344692106,"116":-0.1613865414144354,"117":-0.07798725991074076,"118":-0.049482645730070426,"119":-0.01700852354994409,"120":-0.02340275371953054,"121":0.02567329714943765,"122":-0.024573290248833774,"123":-0.01463425543677244,"124":-0.021420703431246205,"125":0.08626538286520784,"126":-0.0033228495602092394,"127":-0.06560804788786805,"128":0.042308115609416316,"129":-0.09763247855168075,"130":-0.12581643269597312,"131":-0.054092927660354,"132":-0.03785320188798182,"133":0.08945394395681755,"134":0.0835915635049507,"135":0.08897944356542531,"136":-0.1156473836997748,"137":-0.11751175006039072,"138":-0.18921616857963888,"139":-0.16658819130550162,"140":-0.15217265911309025,"141":-0.13675533042614718,"142":-0.03871381253798378,"143":-0.06512439784693398,"144":0.024379869394131715,"145":0.04060023943622259,"146":-0.014437801275750364,"147":-0.038391425264982265,"148":0.04900146494292371,"149":0.12141717195061821,"150":0.003680832366436191,"151":-0.07908593833641167,"152":0.029404116878168605,"153":-0.0032504411891918373,"154":-0.023469498528408683,"155":-0.044550995668541926,"156":0.07705698372866512,"157":0.1411738403362044,"158":0.006917030941438406,"159":0.03774181321977544,"160":-0.1113553152699509,"161":-0.06314762596329417,"162":-0.21761679714386617,"163":-0.16995703194417702,"164":-0.066297087092906,"165":-0.10073973147320019,"166":0.01922997516042092,"167":0.009871968529523866,"168":0.020965169875590658,"169":0.03730581131222149,"170":-0.023343975503775493,"171":-0.013662498885788398,"172":0.00597227301954892,"173":0.051935169939644914,"174":-0.03587209183328517,"175":-0.08570642667959033,"176":-0.01286995134216437,"177":-0.0023776382284010134,"178":-0.025493981348479116,"179":0.03186360170525713,"180":0.008748755996441652,"181":0.1475791980490515,"182":0.012685064357920795,"183":-0.07304388414014697,"184":-0.15543031170177066,"185":-0.1246891070200821,"186":-0.11102263496476233,"187":-0.07771002998669294,"188":-0.0005797549281451055,"189":0.048293868257975284,"190":0.021578397309438245,"191":-0.044754554798628915,"192":0.0042248060500533965,"193":-0.08887375356380346,"194":-0.033471258445585114,"195":-0.06814809550471461,"196":-0.03774868724691196,"197":0.019069968121161653,"198":0.025848610612553072,"199":0.010451266456905438,"200":-0.03174071869346427,"201":-0.06606405077064036,"202":-0.09932365973611099,"203":0.012811492324308258,"204":0.06323309011855648,"205":0.019325801043718022,"206":-0.21890002037931292,"207":-0.08305672389437961,"208":-0.0227577467655496,"209":-0.13982545916946615,"210":-0.09047595605083628,"211":-0.027039153217987267,"212":0.043827033989742734,"213":0.054544412087527146,"214":-0.08112120372264116,"215":0.007058194659114435,"216":-0.06492679144135793,"217":0.04857191898451241,"218":-0.052734092048192155,"219":-0.055903208912273086,"220":-0.011823209256332411,"221":-0.002792711943099213,"222":0.01195617524843702,"223":-0.008384601728996244,"224":-0.0286517408071766,"225":-0.07010949845739754,"226":-0.09867570702460601,"227":0.013068276622410693,"228":0.027377692472467862,"229":-0.062332044187912154,"230":-0.032074826888890844,"231":-0.047799720408607256,"232":-0.08829850381408796,"233":-0.07437387134984727,"234":0.06583109553072522,"235":0.07119394059569552,"236":-0.003578747746470872,"237":-0.048927750902583445,"238":-0.029913993727239355,"239":-0.0023108483923310343,"240":0.04047129019896966,"241":-0.009190941833938943,"242":-0.10222388097571675,"243":-0.10536527575104229,"244":-0.03406601666293112,"245":-0.018589656214530636,"246":0.016007200377033196,"247":0.024291425839914817,"248":0.10935224328233192,"249":0.007888862901023232,"250":0.01286190932172003,"251":0.16104490382318007,"252":0.05420529732144005,"253":0.03499040452645519,"254":0.001644550070427915,"255":0.014331015525131066,"256":0.01457177928134524,"257":-0.015659156599498316,"258":0.08865112024301096,"259":0.0822628234302257,"260":0.06808821425174276,"261":0.07138694296146478,"262":-0.04126686146318025,"263":-0.012243980186827246,"264":-0.07651644532812163,"265":-0.04326476309572754,"266":-0.1093785730228486,"267":-0.08413979346787753,"268":0.048139339336037895,"269":0.03486902662518523,"270":0.013844050537262849,"271":0.0560530940176552,"272":0.07200318832907447,"273":0.09261366315277011,"274":0.18214679770155728,"275":0.18396500482565173,"276":0.1128090484689161,"277":0.08064239876027401,"278":0.04057562620529089,"279":0.06148150721699428,"280":0.11809739446874762,"281":0.021012148441374567,"282":0.08954842999243513,"283":0.08493295649278317,"284":0.11717596466036485,"285":0.1279684177643599,"286":-0.021223477391681917,"287":0.07213664247976495,"288":0.023310726662306436,"289":-0.00645614671751073,"290":0.07983512193979478,"291":-0.06805272049353961,"292":0.05956182432333079,"293":0.04443379875231124,"294":0.05798649265919627,"295":0.07981913494939923,"296":0.11940644327064438,"297":0.11911177334839154,"298":0.1647140285663449,"299":0.1495633751430235,"300":0.11803404601415261,"301":0.11890290361444307,"302":0.09573297790006487,"303":0.03675440258599134,"304":0.10733327496006015,"305":0.05021534935943646,"306":0.024683555737046094,"307":0.0757656754667467,"308":0.092222129175237,"309":0.13798093578081325,"310":0.168083795362961,"311":0.11753857960049194,"312":0.0013645130181324705,"313":-0.00747190180481229,"314":-0.0736343991293461,"315":0.008726175020718036,"316":0.05168636527236146,"317":0.03616413558445778,"318":0.08221581068502909,"319":0.06808182530123805,"320":0.09091601614116777,"321":0.10173449874745426,"322":0.02821123576807481,"323":0.11901917254509527,"324":0.15765501276200847,"325":0.15779373630478,"326":0.15069887412827612,"327":0.08626734649194856,"328":0.07254082254057853,"329":0.0642872762347399,"330":0.0793054990084178,"331":0.08928512797611697,"332":0.017551026931903652,"333":0.14341727511388122,"334":0.1340041394730225,"335":0.1635977023576001,"336":0.028961941618111546,"337":0.07390377670983793,"338":0.051860611983432246,"339":0.08991791777115551,"340":0.046466831197733,"341":0.11608026786100403,"342":0.029898180392277943,"343":0.019573353680003767,"344":0.129503983118107,"345":0.04854848578049146,"346":0.033851137244785,"347":0.1473323403725538,"348":0.10027787398079542,"349":0.0755913217439659,"350":0.08965934054081985,"351":0.033237862488635375,"352":0.05579065920835947,"353":-0.0006362379885134484,"354":0.013207139053801466,"355":0.08579693542827412,"356":0.14404727055664474,"357":0.2402304005893715,"358":0.20581799087942285,"359":0.18920611952851407,"360":0.022966471458433786,"361":0.08083225239921095,"362":-0.0019490756422571788,"363":-0.008363829978958936,"364":0.04118763395864623,"365":0.0996675656920401,"366":0.021982060397843808,"367":0.09859159115634505,"368":-0.031258073225654895,"369":-0.019239187130301986,"370":-0.02524651895909357,"371":0.03267496208645592,"372":0.06652564250623491,"373":0.05593295915887036,"374":0.04498282908179893,"375":0.0983214733244209,"376":0.03523255023208602,"377":-0.0345465020114299,"378":0.0695578550296355,"379":0.08324524152003962,"380":0.20264657865653832,"381":0.2605214687829946,"382":0.24551790097435547,"383":0.20292616535949207,"384":-0.01633228680674579,"385":-0.0010363831892135822,"386":-0.03665860615641548,"387":-0.017143505257413177,"388":0.007629577782698753,"389":0.04879727427439598,"390":0.05183919253462474,"391":0.12495012483799472,"392":0.048251822717179996,"393":-0.03532291598264843,"394":-0.0646968976181092,"395":-0.014140340520997434,"396":-0.02466044845493524,"397":0.011583660260557408,"398":0.06294111659765364,"399":0.09759138743691238,"400":0.03690357503589338,"401":0.06457983928890011,"402":0.06791057029463286,"403":0.08881928093514124,"404":0.15342287892743295,"405":0.1600015429505962,"406":0.1681878827388089,"407":0.16669373815786917,"408":0.009800599116355594,"409":0.0127738008090055,"410":0.018247892523248203,"411":-0.025269281653062164,"412":-0.025182400051950608,"413":0.026863112055815975,"414":0.09858266039282323,"415":0.03657203936709038,"416":0.012712452712550771,"417":-0.14594500782020353,"418":-0.10481348896424256,"419":-0.02891709264198054,"420":-0.057399218623844395,"421":0.007372055246799798,"422":0.08644863283898367,"423":0.09706473535775342,"424":0.03158763338290557,"425":0.06856177262344271,"426":0.07502691577581284,"427":0.0193284056932672,"428":0.021370441233287473,"429":0.040738304106099014,"430":0.17340812921891313,"431":0.12234231065762605,"432":0.020872669416478484,"433":0.0383909955420429,"434":0.04323854586806346,"435":0.006763049948954371,"436":0.05009044683210837,"437":0.05071533443296162,"438":-0.038836435764390526,"439":0.008443865728845716,"440":-0.059713532513394424,"441":-0.15839325228412435,"442":-0.10554282279181343,"443":-0.11447099641135125,"444":-0.08101582529419014,"445":-0.05443875731780017,"446":-0.046656369943200444,"447":-0.0026040210642622468,"448":-0.11494224955268986,"449":0.0554081110596983,"450":0.028721593444946403,"451":0.017527450296494794,"452":-0.07568951134640477,"453":-0.030538791585206643,"454":0.017709107876015078,"455":0.033620427378425015,"456":-0.016280642143115674,"457":0.040465611586199435,"458":-0.01433604310398069,"459":0.000009463291568768162,"460":0.0521398265136351,"461":-0.011299528523250448,"462":-0.032695698309143935,"463":-0.031251623309842894,"464":-0.025690358730084132,"465":-0.07488709898658054,"466":-0.15320621569118464,"467":-0.16333860223878743,"468":-0.17926759189426875,"469":-0.1661158595013256,"470":-0.08883749125842078,"471":-0.11327433720280068,"472":-0.18319027373972543,"473":-0.11076437555065764,"474":-0.10753856965390131,"475":-0.09645272315177457,"476":-0.05752893425351611,"477":-0.012803977499483055,"478":-0.03925853318912945,"479":0.016461651785565905,"480":0.015249796628062261,"481":-0.02530244156941161,"482":-0.014997052498298559,"483":-0.053654453679080415,"484":0.0036768469665119396,"485":-0.06473980381846846,"486":-0.08733854964477306,"487":-0.13629572986466162,"488":-0.1302537615522172,"489":-0.16415246442771023,"490":-0.14426220666930178,"491":-0.1070445702071996,"492":-0.1670306460337065,"493":-0.22795178347168377,"494":-0.20189641028008645,"495":-0.18784633764944003,"496":-0.20001323769769988,"497":-0.1188964680071435,"498":-0.2128189197051171,"499":-0.1108948217420797,"500":-0.08990285745851394,"501":-0.09766384101270721,"502":0.014444455958220338,"503":0.02838475090200299,"504":-0.016134666404365165,"505":-0.08850470724864284,"506":-0.011792991744677765,"507":-0.03321244949843461,"508":-0.10284512423480352,"509":-0.11501355534162284,"510":-0.1456595174889993,"511":-0.09412063225114593,"512":-0.19607664289956456,"513":-0.11951457121232514,"514":-0.27523281017314133,"515":-0.20190311347509654,"516":-0.2098604723101524,"517":-0.18506620540255983,"518":-0.21594788277070542,"519":-0.23076593614454197,"520":-0.1390699493195406,"521":-0.2806104803699394,"522":-0.21076493558152845,"523":-0.1819234301955023,"524":-0.19392439593598684,"525":-0.12923908456489133,"526":-0.09196485727563053,"527":-0.038199480172336604,"528":-0.03552042364491371,"529":0.0286075742163651,"530":-0.012711939539381389,"531":-0.03039841838230686,"532":-0.0956326884796276,"533":-0.0758840215703722,"534":-0.1437974127353329,"535":-0.15854359892386585,"536":-0.12540964017951228,"537":-0.19486227733642061,"538":-0.2984430880407575,"539":-0.30138718125240577,"540":-0.2616716251546831,"541":-0.31517849485798966,"542":-0.3444984347221808,"543":-0.22484991943635435,"544":-0.24070152168256118,"545":-0.3220644976305439,"546":-0.2752183779779188,"547":-0.2732381843338392,"548":-0.21926069893029032,"549":-0.0553166606906016,"550":-0.04513071028640189,"551":-0.05733535502285523,"552":-0.016421398301693837,"553":-0.0008207283207451884,"554":-0.03546768160030676,"555":0.04833648102702393,"556":-0.1154992509990782,"557":-0.12078968229856152,"558":-0.07599904818005433,"559":-0.10978320961732976,"560":-0.19806944071961805,"561":-0.2647218491791725,"562":-0.22197400588390123,"563":-0.35953300961063095,"564":-0.4055417731325068,"565":-0.37347105207468223,"566":-0.3038404793498604,"567":-0.31185001198864665,"568":-0.31317823834516784,"569":-0.17862615132177653,"570":-0.169646928862566,"571":-0.198145269886626,"572":-0.20099032654324642,"573":-0.0655590885673384,"574":-0.040613665415222586,"575":-0.007228467380025987}},{"sx":1,"sy":1,"depth":576,"w":{"0":0.0660215208260362,"1":-0.028422652865648487,"2":-0.025013725241712078,"3":-0.0032591875422124314,"4":-0.039117448727518905,"5":0.013648882644300872,"6":0.0019289626315013187,"7":-0.06752228332125437,"8":0.016983554608912845,"9":-0.045843870946778394,"10":0.012978361307508231,"11":0.06207286963801457,"12":0.1160402943923826,"13":0.16620126332181784,"14":0.19830629307314207,"15":0.15512525492127138,"16":0.18341794947231363,"17":0.17017635788233124,"18":0.10588214728741453,"19":0.056902574090772894,"20":0.0627471197694832,"21":-0.004401369702056403,"22":-0.027833441174580618,"23":-0.06170095436878823,"24":-0.07239910073842594,"25":0.0030011741626109457,"26":-0.0349829869304024,"27":0.0006266872234539422,"28":-0.0182155576768545,"29":-0.0634940129631776,"30":-0.11202243627056709,"31":-0.1270524184022738,"32":-0.11374160450397677,"33":-0.021609126130956873,"34":0.0051492697774659785,"35":0.04375508151036357,"36":0.027970538324618825,"37":0.11648807660349023,"38":0.16292428109031823,"39":0.21933004871423248,"40":0.18241765472460938,"41":0.20359523391843531,"42":0.1172443181447078,"43":0.014757563778063677,"44":-0.02416632410004308,"45":-0.08223887104997488,"46":-0.028935140978800088,"47":-0.03703545288953175,"48":0.027274468364438618,"49":-0.02473977567154285,"50":-0.02810037608053039,"51":-0.10362908389365225,"52":-0.02555294047379917,"53":-0.11478176048400336,"54":-0.21087998307219424,"55":-0.08743314262241755,"56":-0.21061884790826188,"57":-0.16580321744176515,"58":-0.02969543779413429,"59":0.12132334687377953,"60":0.18184919772924185,"61":0.1515502445699959,"62":0.18600591278152687,"63":0.12418433900001968,"64":0.10555894972751287,"65":0.12533278314201649,"66":0.040949812386107745,"67":-0.055738526424737124,"68":-0.011334033611473213,"69":-0.029410238393632084,"70":-0.04064573523109783,"71":0.009205505813137886,"72":0.023019507419522724,"73":-0.0393207571868547,"74":-0.0472922754225643,"75":-0.07631636095731763,"76":-0.08469491316865671,"77":-0.09084394540906107,"78":-0.1471466121180787,"79":-0.1701913503327215,"80":-0.16821010244114823,"81":-0.12166947665940242,"82":-0.03205650236074169,"83":0.10746172900751622,"84":0.06303801627366565,"85":0.20950526763244734,"86":0.14435952648255576,"87":-0.03361038444192183,"88":0.0244904489157667,"89":-0.0825272122381755,"90":-0.10172638951064915,"91":-0.22432987518392739,"92":-0.21567941353930148,"93":-0.1286892102249355,"94":-0.07266785099731767,"95":-0.11795145541937835,"96":-0.006324158882916928,"97":-0.02950419973822377,"98":-0.04211163691787858,"99":0.04712059936002794,"100":-0.12843125157783666,"101":-0.16417874418610326,"102":-0.22171833364605412,"103":-0.21631568813362145,"104":-0.21135089329195678,"105":-0.04188952055357886,"106":0.06493803641667283,"107":0.03664575023218723,"108":0.09753365263423892,"109":0.13601590173447667,"110":0.03860924906565784,"111":-0.12905773293893597,"112":-0.14222631332514993,"113":-0.2165150880422184,"114":-0.1810051594481744,"115":-0.18083429719750543,"116":-0.13943377083984806,"117":-0.05521071718580739,"118":-0.10634041492595704,"119":-0.012298990868573362,"120":-0.018181271598792376,"121":-0.02877743492438487,"122":0.030325639407085315,"123":-0.07832615859687168,"124":-0.12587603255623903,"125":-0.12386886266762313,"126":-0.21762785317401176,"127":-0.23078409821828783,"128":-0.06824926019122729,"129":0.00005260929024541503,"130":0.04418200527948638,"131":0.10740389836161691,"132":0.15073009219459937,"133":0.06012879025381413,"134":-0.08498658116311206,"135":-0.17991042285999925,"136":-0.13317150101366862,"137":-0.24948571544237413,"138":-0.3024167839726473,"139":-0.11300562355756963,"140":-0.12020084444119196,"141":-0.12892833008616902,"142":-0.05190979673716115,"143":0.04394873823431713,"144":-0.057794618186624215,"145":-0.019385158465306102,"146":-0.03329120377772776,"147":-0.04030354469379426,"148":-0.05039117272943461,"149":-0.08254068764178575,"150":-0.19284083972652424,"151":-0.16173642852406755,"152":-0.07031686757396619,"153":-0.05067085546658921,"154":0.14496495192178363,"155":0.1987490244776213,"156":0.0718902673766664,"157":0.013753035615938502,"158":-0.12422659127224785,"159":-0.2705405438076647,"160":-0.2197678815030606,"161":-0.21517202409448788,"162":-0.15374978555889637,"163":-0.157890302084649,"164":-0.11546780133551837,"165":-0.09758957325643902,"166":-0.046579599770402165,"167":0.06151516216174855,"168":-0.047461779305112736,"169":0.003753808955311987,"170":0.0608755440036968,"171":-0.10357094346117869,"172":-0.07484453785100367,"173":-0.10826453093629318,"174":-0.06004900267321061,"175":-0.1775738530642119,"176":-0.04748616586819866,"177":0.0041682707255045835,"178":0.18049712322937117,"179":0.17011085875642998,"180":0.14571153518932964,"181":-0.08224069350660573,"182":-0.2046261813596319,"183":-0.29031426399598176,"184":-0.272871189425362,"185":-0.253752084864376,"186":-0.09954521146562874,"187":-0.02091703477166122,"188":-0.009652884303222588,"189":0.07110435584517004,"190":0.03794919662279204,"191":-0.012218704412223658,"192":0.008692578053140691,"193":0.06859420908611258,"194":0.009159654784675366,"195":-0.035519737794356965,"196":-0.046814653103102635,"197":-0.17479520572762242,"198":-0.21046752255590162,"199":-0.13090465544639393,"200":-0.10217476904049248,"201":0.0071884959051054095,"202":0.13265303883999857,"203":0.255384254936772,"204":0.11779465653211962,"205":0.01002547957146053,"206":-0.2998122621443155,"207":-0.2227892488072376,"208":-0.20380231181914132,"209":-0.1493020615680799,"210":-0.08704100647477109,"211":0.016733698457303468,"212":0.023564638016164163,"213":0.11180157616513199,"214":0.04104908095040218,"215":-0.08464355596039008,"216":0.023723220092549287,"217":0.022687239451014782,"218":0.03177054808419316,"219":-0.021481535437869265,"220":-0.06055148748761507,"221":-0.07461240876558273,"222":-0.1550553632879659,"223":-0.058138546058117475,"224":-0.10888426866841117,"225":-0.0310191379644963,"226":0.1800412982410474,"227":0.16563212949211564,"228":0.1270778093637895,"229":-0.08542517098685151,"230":-0.2730823669573559,"231":-0.15398593200485983,"232":-0.025679229163440467,"233":-0.03890028297146826,"234":0.02714680609390084,"235":0.09119441443706293,"236":0.011201973086314368,"237":0.12430619246163419,"238":0.04542906680126171,"239":-0.05359211045403029,"240":0.049703453887968436,"241":-0.01621405647770786,"242":0.03531106775347902,"243":-0.025757317312384117,"244":-0.05340177257619636,"245":-0.11105693282324093,"246":-0.14960577888386858,"247":-0.09521803683026842,"248":-0.020892984783769143,"249":0.02047637959859569,"250":0.05422358138377595,"251":0.1579050451548744,"252":0.0389570589500267,"253":-0.08242517677701906,"254":-0.15349936370611753,"255":-0.1198869840650666,"256":-0.05480921306889739,"257":0.025638376927711877,"258":0.012092166707005934,"259":0.16340483904907382,"260":0.13724764348202415,"261":0.02617528947051102,"262":-0.0021513903144173936,"263":0.02216266111896189,"264":0.07494146322036793,"265":0.0074068265584796966,"266":-0.07396391380586989,"267":-0.06554160565771819,"268":-0.04860244485350823,"269":0.03056882891504862,"270":-0.03457279959295379,"271":-0.14406985820058038,"272":0.03496055161815155,"273":0.006308338729780053,"274":0.06228718979568204,"275":0.030163606666659286,"276":-0.03646320146944532,"277":-0.08451338052064625,"278":-0.10187175316904162,"279":-0.06895405849325673,"280":-0.0037604949927721276,"281":0.10519465642662156,"282":0.05174139107849643,"283":0.028620044079107978,"284":0.04397904551082078,"285":0.07004371936835106,"286":0.02184931874081629,"287":-0.02439448533456828,"288":0.022932574421341098,"289":0.05328797989264596,"290":0.0035164024240966546,"291":-0.050383364719784586,"292":-0.0555506669508765,"293":0.0005169063937439989,"294":0.00850697677226665,"295":0.0480081498040234,"296":0.04748139475669848,"297":0.037705438186308976,"298":0.12036303049122277,"299":0.02136346602361015,"300":-0.04281892849925513,"301":-0.10510194476668235,"302":-0.07922939876049225,"303":0.0683681358804098,"304":0.08215882467427305,"305":0.028653731172574866,"306":0.057710865946578184,"307":0.041215458864236595,"308":0.01817425154738763,"309":0.0012144223794953663,"310":-0.025955845987012702,"311":-0.10679799650794833,"312":-0.03787426223886501,"313":0.05207118456343363,"314":-0.0648052116169392,"315":-0.06616642701248793,"316":0.012432463237770594,"317":0.10781096586572401,"318":0.01017839405395837,"319":0.08707280242742177,"320":0.014434098428609295,"321":0.012160379320784422,"322":0.004208944787979193,"323":0.10873743780513874,"324":0.10656348893320489,"325":-0.08400114198679749,"326":-0.04190770313507394,"327":0.052503967424353926,"328":0.03873184208738294,"329":0.08445794963502279,"330":-0.0002608331053516201,"331":-0.04118526863736571,"332":0.0059083377111495495,"333":0.021014316729866766,"334":0.036528174590222146,"335":-0.0746262785094868,"336":-0.035574511608343524,"337":0.06087221862087489,"338":-0.026646841484509794,"339":0.005577380816160495,"340":0.01887459264641717,"341":-0.002446241079950925,"342":0.05932041669129155,"343":0.13125789452504544,"344":0.07240941901080433,"345":0.07396576620622551,"346":0.08837750467186603,"347":0.06203582490668496,"348":0.12153327554364604,"349":-0.04327917365911258,"350":-0.09713410114978571,"351":0.08006015613925607,"352":0.006042204512744749,"353":-0.02047418678922251,"354":0.010063810316118488,"355":-0.008234411648791995,"356":0.03464501673279582,"357":0.052330299390781675,"358":-0.06695787473671458,"359":-0.03925938133541179,"360":0.01804210701270713,"361":-0.027825413331527105,"362":0.024285204576020344,"363":-0.010616565337148292,"364":0.038665991549194784,"365":0.0487015836126807,"366":0.1085830444257615,"367":0.006316344354359605,"368":0.12331068444071538,"369":0.03921555965882895,"370":0.04087610781773537,"371":0.09584381468788594,"372":0.0643281014795482,"373":-0.04214826933255781,"374":0.01219771535119506,"375":0.07019927108962479,"376":0.025592769044933048,"377":0.02128409557574755,"378":-0.0567407963839376,"379":-0.0032300774999900203,"380":-0.1262465989143774,"381":-0.0026225600385203353,"382":-0.010481100371990314,"383":0.0397276336531594,"384":-0.038272680332359144,"385":0.018984820837496866,"386":-0.07046505629977336,"387":-0.024289039532673338,"388":0.021488205287417038,"389":-0.013821028515130366,"390":0.022899211761845294,"391":0.04916865681496387,"392":0.042576485535715115,"393":0.08547252303952373,"394":-0.05566941600685508,"395":0.06450502271894569,"396":0.09447068758220577,"397":-0.01371229622905207,"398":-0.09941094699517183,"399":0.01016986137808128,"400":0.0870170650757479,"401":0.131850086627574,"402":0.03301821676290527,"403":-0.01936019248064935,"404":0.04447488178678899,"405":0.03365260561302939,"406":-0.029163997613387543,"407":0.008292938885971149,"408":0.06742081430332646,"409":-0.06341016869577801,"410":0.023994279558457926,"411":-0.04711259955988433,"412":0.003985162233323507,"413":-0.031139908009619688,"414":-0.03326476617401515,"415":-0.018135043292715647,"416":0.0634539557904138,"417":-0.10649888026410567,"418":0.062477229016005754,"419":0.016432763320916054,"420":0.04373950711146268,"421":0.09895336918416558,"422":0.0003202863320796778,"423":-0.023907999215406702,"424":0.10340309299584946,"425":-0.005739470460351959,"426":-0.03085068199613962,"427":-0.054782140453021815,"428":-0.03427444035759777,"429":-0.015427479819495089,"430":-0.04751739196277201,"431":-0.01990923434817874,"432":0.0014012274312538062,"433":0.03694793055051868,"434":-0.00982739358533419,"435":-0.05860847164157998,"436":-0.09518370651922077,"437":0.006082817457681703,"438":-0.0177575700058011,"439":-0.008743914086386272,"440":-0.05566432068174093,"441":0.0005574373892941503,"442":0.027382393491748116,"443":0.0828761374046625,"444":0.05896209015751109,"445":0.06812663582265208,"446":-0.03229837595521836,"447":0.025044493320032238,"448":0.0825575462641239,"449":-0.04309118142168551,"450":-0.022942934750018563,"451":-0.056853496369654234,"452":-0.05271869590775648,"453":-0.026389469555446642,"454":0.023815476708292288,"455":0.009409419025490749,"456":0.010411686525165872,"457":0.03999216476000096,"458":-0.04536257946511935,"459":-0.0367616227921787,"460":-0.013013547227013044,"461":-0.055288574746599956,"462":-0.057077272385381246,"463":0.058512912342042,"464":-0.07952255361896303,"465":-0.00405924186151307,"466":-0.052103203928504316,"467":0.028806209672724042,"468":0.03729857533700767,"469":0.003641461010384262,"470":0.004813733484100243,"471":-0.09524324335670872,"472":-0.07967643858680688,"473":-0.04483087377668914,"474":-0.023427893705791552,"475":-0.0909446366452374,"476":-0.010762625846034993,"477":0.005815113351065799,"478":-0.019813774748347706,"479":-0.06014839631829846,"480":0.020814458399917874,"481":-0.0349665868857563,"482":0.02817779465407671,"483":-0.08388267375955294,"484":-0.07905034422986486,"485":-0.0847251527151251,"486":0.0033796409353640576,"487":-0.019345045228097196,"488":0.06596604781395038,"489":0.10193645686219939,"490":0.07994539066571583,"491":0.055129700652571514,"492":0.03710312189343849,"493":0.10081135009493854,"494":-0.008824763985157148,"495":0.01609625222997805,"496":0.08117366757421181,"497":0.016423303383503715,"498":-0.03298665527635526,"499":0.03430667784353655,"500":-0.027704642232991204,"501":-0.08971900565867656,"502":-0.01571310146346718,"503":-0.017250812770728534,"504":0.012542332447983563,"505":-0.02168866987576986,"506":-0.00584546964299187,"507":0.019592503567174912,"508":-0.03154865683709037,"509":0.007723362115027985,"510":-0.028044520810221473,"511":0.006310471082846889,"512":0.017217479962170365,"513":-0.06201302366116293,"514":0.019962937280360835,"515":0.0913308355312106,"516":0.03093223030901121,"517":0.024456196256313074,"518":0.05025076171668402,"519":0.000880018586013894,"520":0.06309437600037496,"521":0.022634499011617588,"522":-0.05736987030656328,"523":-0.030114494639051134,"524":-0.009994697049208448,"525":-0.023156923853889164,"526":-0.06569544455309735,"527":-0.03700241020572812,"528":-0.002053577863319781,"529":0.035650868117889215,"530":0.004681402692007906,"531":-0.024946145488514405,"532":-0.043410868345859055,"533":-0.021220066323177404,"534":-0.025450329772177146,"535":0.0449677813749976,"536":-0.02568958304873528,"537":-0.08233015051563376,"538":0.01972491138429975,"539":-0.03702233764748756,"540":0.0033248390495618503,"541":-0.03392200103324798,"542":-0.027702084098767798,"543":0.04438054147712718,"544":-0.020159570641739264,"545":-0.04742667445675185,"546":-0.055218257555074444,"547":-0.09096019704027834,"548":-0.10387918701828283,"549":-0.0597319375538381,"550":-0.06120215688325152,"551":-0.004768381802929016,"552":-0.0899838067456556,"553":0.035196912424656536,"554":0.006085209218277223,"555":-0.0007972722025339576,"556":0.0023915414329477094,"557":0.019053876408786512,"558":-0.04855495965424708,"559":-0.014038150360044441,"560":-0.03689739432887386,"561":-0.07639571512423457,"562":-0.06676521320441584,"563":-0.04790903087266961,"564":0.01017767755980164,"565":-0.01258643751992096,"566":-0.001888321460583871,"567":-0.11834795085004432,"568":-0.026053601697884093,"569":-0.0728039156485693,"570":-0.11759997038065395,"571":-0.05935387033397379,"572":-0.04376566165468698,"573":0.009616289796420032,"574":-0.036097062077396415,"575":-0.03078301335727629}},{"sx":1,"sy":1,"depth":576,"w":{"0":0.06747246620594509,"1":0.00957530971585342,"2":0.004881841108536028,"3":-0.016479097393222952,"4":0.0701564805993834,"5":0.019724382754838312,"6":0.04545502782262558,"7":0.062399796697752995,"8":0.07082980287794584,"9":0.10905493411812683,"10":0.14544031964576343,"11":0.05307992685010653,"12":0.08063112951989017,"13":0.11272529101488112,"14":0.10552414311664403,"15":0.073523636949889,"16":0.002491489356963348,"17":0.02633861542501409,"18":0.07014151659761687,"19":0.059427404650345496,"20":0.07289134691975488,"21":0.035972065556968004,"22":0.007366714473416591,"23":0.026346727380191844,"24":0.050799613206426966,"25":-0.02523665392990913,"26":-0.0484870654659078,"27":0.006071863990856139,"28":-0.026338889906788822,"29":0.013997615173568463,"30":0.11707276920053143,"31":0.10531739918213681,"32":0.07988449651158679,"33":0.061454044713974,"34":0.09569489122055574,"35":0.07762190372796461,"36":0.08134775081610983,"37":0.07028125664546024,"38":0.03940249837037884,"39":-0.0025883771854471114,"40":0.04632924032519386,"41":-0.053310477341603504,"42":-0.0021746998521441734,"43":0.065887216921714,"44":0.0025387194092160803,"45":-0.0042607219483674,"46":0.01557570263207227,"47":0.02923287699145621,"48":-0.02106422331684784,"49":0.022552270838442523,"50":-0.013958399025580612,"51":0.0003814355739665069,"52":-0.044729294088515774,"53":0.06859759492902773,"54":0.06652943154632579,"55":0.12766291841193214,"56":0.02578919438890597,"57":0.05624228453260905,"58":-0.008712109560671175,"59":-0.03941765940323184,"60":0.018657337277722966,"61":0.03211284164186946,"62":0.03457882799884574,"63":0.07638148948352617,"64":0.07480589565891242,"65":-0.03508421028788379,"66":0.10286771338302311,"67":0.07356762430316892,"68":0.012005914100987303,"69":0.006822941092010296,"70":0.042292869718986104,"71":0.010975221336973493,"72":-0.021827105860577307,"73":-0.025232348344963917,"74":-0.01641725725871244,"75":0.00226627478174448,"76":0.05783532829827153,"77":0.06144718406915741,"78":0.12781012649403123,"79":0.11756783981460327,"80":0.06642764360341322,"81":0.029783284601768774,"82":-0.12837247836956206,"83":-0.13608033815171663,"84":-0.13177125347349447,"85":-0.07226262529297127,"86":-0.061876074557557975,"87":-0.08861847955392309,"88":0.020205717535270572,"89":0.08036241232562816,"90":0.005632864715398098,"91":0.040475458101481655,"92":0.009727576468424091,"93":0.026463824872852405,"94":-0.003999834680794714,"95":0.09173558203472017,"96":0.02089756382884079,"97":0.003058811637795911,"98":-0.05070027289299303,"99":0.030655951650855197,"100":0.013094222156793569,"101":0.11023128137307217,"102":0.03473006141145693,"103":0.07281818346781672,"104":-0.05750516825615785,"105":-0.027019717764315717,"106":-0.1319179697370716,"107":-0.18041851159317998,"108":-0.2438372757899175,"109":-0.23233122473916587,"110":-0.13506790425579718,"111":0.025529815408073107,"112":-0.008758463691188729,"113":-0.09648415576620663,"114":-0.02086918519129765,"115":-0.04833262674250798,"116":-0.01607574093017497,"117":-0.05191500384830722,"118":0.0037041537053791626,"119":0.08542204845113213,"120":-0.027933174915905124,"121":-0.017767082001308693,"122":0.003323944652712188,"123":-0.02815025366969958,"124":0.045825397789187074,"125":0.08180816870626341,"126":0.05856906510625611,"127":0.047728883109417426,"128":-0.05327120181110946,"129":-0.026545005392638387,"130":-0.05192006890507473,"131":-0.15890663281540848,"132":-0.2893199596996077,"133":-0.17967918337892094,"134":-0.07997686867359269,"135":-0.07400186569133932,"136":0.0043520084242557044,"137":-0.06422490817820596,"138":-0.07816382307491228,"139":-0.11990176615677023,"140":-0.08712520382403398,"141":-0.14977389067401628,"142":-0.05624344870579528,"143":-0.028098673126586145,"144":0.004877821176646537,"145":-0.02165067594373076,"146":-0.04163189215798825,"147":0.014372816196028697,"148":0.05797850335715121,"149":0.02823167958647762,"150":0.12066572127867391,"151":0.05490450558701028,"152":0.03499059627558226,"153":-0.07666678025696219,"154":-0.168424754303949,"155":-0.1991631201307543,"156":-0.24072486082046918,"157":-0.172399564412026,"158":-0.11529095561742042,"159":-0.1333167027235856,"160":-0.09247791908120506,"161":-0.08642349609312222,"162":-0.15346437424046572,"163":-0.07743676743666725,"164":-0.04869763784007093,"165":-0.009883268191142219,"166":-0.07830430575619347,"167":0.04420847122812885,"168":-0.022390333249184005,"169":0.014693230437658506,"170":-0.09975323867188368,"171":-0.03892971880870195,"172":-0.05636745537167332,"173":0.04721188141914,"174":-0.005386047196964821,"175":0.058929070236389915,"176":0.0785711219355402,"177":-0.09040554835496804,"178":-0.18672734913955946,"179":-0.24244826723487595,"180":-0.3719486190700101,"181":-0.14107358204370632,"182":-0.13751788380704397,"183":-0.02911071653724354,"184":-0.047644085835876857,"185":-0.05407784263490546,"186":-0.11712834934350436,"187":-0.11029346236157,"188":-0.09781883648607051,"189":-0.11212842082470814,"190":-0.08452970038596497,"191":-0.013132391752615196,"192":-0.010560974109284312,"193":0.03331184706445951,"194":-0.04172758912437597,"195":0.0341076930785662,"196":-0.014076679678887509,"197":-0.016070938732330817,"198":-0.0018241556624438305,"199":0.026109642422974654,"200":0.07508532441575175,"201":0.05457753927018509,"202":-0.12626290027684073,"203":-0.13983602632435277,"204":-0.28288474011445314,"205":-0.09386273004586879,"206":-0.11513288179259207,"207":-0.08431723028892732,"208":-0.07251460227104368,"209":-0.07654631273448545,"210":-0.14698872005394717,"211":-0.040105759908713144,"212":0.02196226521356972,"213":-0.13855225481529168,"214":-0.09541228636474464,"215":-0.04972636854410331,"216":-0.03774036335435562,"217":-0.041014656073297545,"218":0.0096230037436897,"219":-0.08792013238049519,"220":-0.04538482808683701,"221":-0.01964124022110175,"222":0.06400777710686772,"223":0.08993839065738611,"224":0.07896462887394011,"225":0.007563426214596448,"226":-0.14034392016802893,"227":-0.21534508643357497,"228":-0.15635947389380653,"229":-0.07494699661645048,"230":-0.2012865945630808,"231":-0.06451331725176151,"232":-0.05277400818663173,"233":-0.03870898951957313,"234":0.0730296497821392,"235":0.09718635353767734,"236":0.00849812708255731,"237":-0.0468887970842598,"238":0.009803247306056759,"239":0.034794522999253494,"240":-0.012352707712324943,"241":-0.04788345105850576,"242":-0.13677505905240858,"243":-0.020799968253357184,"244":-0.018329636048278388,"245":0.125874301884783,"246":0.12726482606916667,"247":0.12375073892779728,"248":0.028896361599912337,"249":0.01146021711728545,"250":-0.1762470803125928,"251":-0.2879238532848245,"252":-0.13532769537259398,"253":-0.11274918806557603,"254":-0.023614703283809536,"255":-0.08657544755500526,"256":-0.15840600752900222,"257":-0.053059488862222594,"258":0.047424998710110064,"259":0.12558811941944853,"260":0.031299590454301036,"261":-0.03628904734809061,"262":0.05810443247429031,"263":0.04279873070929839,"264":0.0036622390333722232,"265":-0.036700177278515884,"266":-0.09605957951678458,"267":-0.0583957609029111,"268":0.0636919246773753,"269":0.027019605319543817,"270":0.08235902950712744,"271":0.08623672771535641,"272":0.039066341903042937,"273":-0.03767113048189857,"274":-0.14771945497675612,"275":0.010924729594268531,"276":-0.07716614392878342,"277":0.0059226456199265734,"278":-0.04461975392474235,"279":-0.04137507659656556,"280":-0.12415007297814654,"281":-0.04841721280467903,"282":-0.0342908038795629,"283":-0.024896477514155975,"284":0.006145156098977863,"285":0.05452911863279578,"286":0.02252142762526209,"287":0.042435843349044225,"288":-0.029456940684674783,"289":0.010400630680783519,"290":-0.025683574227760384,"291":0.03821330669743633,"292":0.10755128946885281,"293":0.14432710244198213,"294":0.03401192579532474,