{"layers":[{"out_depth":1,"out_sx":24,"out_sy":24,"layer_type":"input"},{"sx":5,"sy":5,"stride":1,"in_depth":1,"out_depth":8,"out_sx":24,"out_sy":24,"layer_type":"conv","l1_decay_mul":0,"l2_decay_mul":1,"pad":2,"filters":[{"sx":5,"sy":5,"depth":1,"w":{"0":0.5363609101394862,"1":0.024771752994269147,"2":0.09789556905430007,"3":-0.6649353197989173,"4":-0.426671758887491,"5":-0.20808883147858442,"6":0.20748317078346626,"7":0.22964025939562993,"8":0.040985138517394284,"9":-0.2688222386417797,"10":0.07566344680124176,"11":0.08135829807129606,"12":0.2723472447281246,"13":0.2904846164419128,"14":0.13247084278157178,"15":-0.0008330053324260947,"16":0.15921188472908615,"17":0.2882958782094753,"18":0.3601616821402814,"19":0.22901338764428603,"20":0.07250641314697433,"21":0.07966127164504525,"22":-0.1584811302149949,"23":0.09162545263653947,"24":0.14982382553516624}},{"sx":5,"sy":5,"depth":1,"w":{"0":-0.2940405993962831,"1":0.04127397811678228,"2":-0.025270808890158834,"3":0.11270496327894457,"4":-0.23868141073999372,"5":0.1774063152959907,"6":0.1517230173564037,"7":0.17561348449328826,"8":-0.13756286600468734,"9":0.00460121019521835,"10":-0.020685938041199406,"11":-0.1726592354164833,"12":-0.003343545816539558,"13":-0.0781792018948999,"14":0.18472231665175382,"15":-0.19457623193692802,"16":0.10746983048534246,"17":0.0017052186219903807,"18":0.043462899739720166,"19":0.28696855055870446,"20":-0.3586868657965869,"21":-0.05699942784478361,"22":0.10595069775559635,"23":0.5840999066978109,"24":0.2712690149328153}},{"sx":5,"sy":5,"depth":1,"w":{"0":-0.10181069293427797,"1":0.16572234376350908,"2":0.46371722937904497,"3":0.13358012590646903,"4":0.05078124462421839,"5":0.003986495377123084,"6":0.5063323827381261,"7":-0.04375910898663472,"8":-0.5008904091447948,"9":-0.1758485583581697,"10":-0.016525688740029763,"11":0.19939337383727102,"12":-0.06344653945871875,"13":-0.7489414311696317,"14":0.36005255168197725,"15":0.01110327767073858,"16":-0.33721808476473986,"17":-0.3618092280619008,"18":0.17568576088982846,"19":0.13610386379330985,"20":-0.30077497312493356,"21":-0.1213683052145142,"22":-0.2557891962388368,"23":-0.2609443252225044,"24":0.2819428062574222}},{"sx":5,"sy":5,"depth":1,"w":{"0":-0.18436054258556334,"1":-0.045371161880606775,"2":0.0886921141794789,"3":0.3468455890241986,"4":-0.5525594759531444,"5":0.263616035723815,"6":0.04485203559414276,"7":0.0643492296901207,"8":-0.2238053840723077,"9":-0.18017222234642186,"10":0.2843932021981359,"11":0.2807068437156409,"12":0.14233952417570314,"13":-0.24337642679706695,"14":-0.2829469891182056,"15":0.465268230973466,"16":0.667212372993196,"17":-0.05522096606119904,"18":0.5252918609642035,"19":0.003610728023430526,"20":0.5887354747677478,"21":0.27533542607268907,"22":0.16266087186402978,"23":0.35142297966527214,"24":0.17833377759811778}},{"sx":5,"sy":5,"depth":1,"w":{"0":-0.05250712123453738,"1":0.06652435576623443,"2":0.5221725544601674,"3":-0.0449952876586726,"4":-0.3553979166940249,"5":0.10211353226680399,"6":0.021910904923044577,"7":0.12945751811141043,"8":0.30685429122134816,"9":-0.3407091822713674,"10":0.08922156822010291,"11":0.09300176865065049,"12":0.037816045462347424,"13":0.016600071737386986,"14":-0.1165445660587058,"15":0.08382964369272046,"16":-0.06738978276593503,"17":0.25561784338173427,"18":-0.22812278427716542,"19":-0.587495931701297,"20":0.057204575703570584,"21":0.04458672163259796,"22":0.23420648026533183,"23":0.10839380312382325,"24":-0.14796859240341204}},{"sx":5,"sy":5,"depth":1,"w":{"0":0.22120335646856423,"1":0.2767761147153523,"2":-0.2553957541349111,"3":0.350855483198989,"4":0.26729368036210843,"5":-0.20882825607968114,"6":-0.34735399270826134,"7":-0.045199704214371916,"8":0.11035898938195468,"9":-0.19256151647400643,"10":0.005143468619261352,"11":-0.08197347796395185,"12":-0.29948562842560644,"13":-0.057239590608167794,"14":-0.41582708409584956,"15":0.11262232642650523,"16":0.03431349905291544,"17":-0.21664118603504126,"18":-0.22390279612405906,"19":-0.1874956693779626,"20":-0.10447376322303785,"21":0.31854485210183675,"22":-0.06004700790669995,"23":-0.3118209947344956,"24":-0.1475194261584781}},{"sx":5,"sy":5,"depth":1,"w":{"0":-0.15407707254622235,"1":-0.04592547547257512,"2":-0.20694330760934718,"3":-0.34037920569158375,"4":-0.43145316616204626,"5":-0.015038200749051813,"6":-0.5610849059412625,"7":-0.5049522007731109,"8":-0.03497156574970949,"9":-0.22573163080446634,"10":-0.008258276310230206,"11":-0.3371717351829914,"12":-0.10603340063128174,"13":-0.2252499363179034,"14":-0.23102455891642046,"15":0.30385346852406747,"16":0.045831801775912936,"17":0.3495520534268393,"18":-0.048800448362586596,"19":0.10992373008589394,"20":0.586577955494341,"21":0.4880569982088146,"22":0.5152226873767757,"23":0.5453014153855745,"24":0.33252388213538975}},{"sx":5,"sy":5,"depth":1,"w":{"0":-0.44442002645660794,"1":-0.02014410697153082,"2":-0.25915395737822966,"3":0.10172360626953364,"4":-0.13183984644110244,"5":-0.3806543154622312,"6":-0.31476527180334835,"7":0.0990893689729535,"8":0.35896291363614646,"9":0.30285987335935094,"10":-0.14528551889237604,"11":0.02095782630197008,"12":0.32471443167673186,"13":0.18329918697727726,"14":0.10808664699176818,"15":0.3958512315931382,"16":0.3799149434348118,"17":0.02029352923519907,"18":0.5212050148116778,"19":0.11869039025064677,"20":-0.12870452614377614,"21":0.14124173975430887,"22":-0.19722843253407316,"23":-0.019883488182748814,"24":0.3439872253504581}}],"biases":{"sx":1,"sy":1,"depth":8,"w":{"0":-0.11834863417197601,"1":0.08152250729088101,"2":0.16495045361413793,"3":-0.06105458879481748,"4":0.03312310991836312,"5":0.2237190287373595,"6":0.1764121725071452,"7":-0.009432526353875769}}},{"out_depth":8,"out_sx":24,"out_sy":24,"layer_type":"relu"},{"sx":2,"sy":2,"stride":2,"in_depth":8,"out_depth":8,"out_sx":12,"out_sy":12,"layer_type":"pool","pad":0},{"sx":5,"sy":5,"stride":1,"in_depth":8,"out_depth":16,"out_sx":12,"out_sy":12,"layer_type":"conv","l1_decay_mul":0,"l2_decay_mul":1,"pad":2,"filters":[{"sx":5,"sy":5,"depth":8,"w":{"0":0.14663889259484336,"1":0.032711154045610244,"2":-0.14935959099516086,"3":0.2243734930361595,"4":0.047180722918397804,"5":0.0014169242231720388,"6":0.16410393901247283,"7":-0.047530729619514565,"8":0.030362648357507054,"9":0.16840641891787161,"10":-0.10566761218379081,"11":0.11659005611210453,"12":-0.2579952848524438,"13":-0.08931885765172919,"14":0.09901991017688311,"15":0.05626208242837922,"16":-0.00559063897136262,"17":-0.07493394380524691,"18":-0.07862268852653286,"19":0.050872886621041204,"20":-0.10769765045795049,"21":0.06406706659667613,"22":-0.10415635956976482,"23":0.013243312865506797,"24":-0.058270796155689045,"25":0.039042649442491605,"26":0.08263268635720611,"27":0.07959061804580572,"28":0.10504297771359725,"29":-0.2397025381399404,"30":0.09275721124297581,"31":0.08194262376809541,"32":0.00031607273175611396,"33":0.07166069432572675,"34":-0.11161129365075886,"35":-0.08331503816970573,"36":-0.041567899019033315,"37":-0.04373176773183971,"38":-0.10640168628994132,"39":-0.009192718675275506,"40":0.14601901094636655,"41":0.059156769554245585,"42":-0.08807646635827371,"43":0.10299711507708657,"44":-0.007126856937005546,"45":-0.13608225835290935,"46":-0.02664108336349228,"47":0.13097599503956706,"48":0.11433070514314984,"49":0.056374408137924686,"50":-0.07929639821861482,"51":0.04602175265126998,"52":-0.14133569907374496,"53":-0.2107107480874597,"54":0.08482126738735898,"55":0.11664376942035386,"56":0.14183461750081358,"57":0.058529832932740694,"58":0.14720686438768135,"59":0.10242353351652282,"60":0.05171381018929924,"61":-0.040965181014964734,"62":0.1647133750195675,"63":0.07440138570809506,"64":0.028884382021218707,"65":0.07504460749415767,"66":-0.034679265455641255,"67":0.07424306166399494,"68":0.10576503082051299,"69":-0.19320778010330758,"70":0.1698497776452295,"71":0.09123604841421819,"72":0.16498300547509204,"73":0.1042888935389023,"74":-0.20085071911565242,"75":0.003537866919902857,"76":0.06067569931566504,"77":-0.016018511834072942,"78":0.1304441262949948,"79":-0.015566178418030038,"80":0.13726610482834542,"81":-0.04495582413994751,"82":-0.013607467452093692,"83":-0.21388329150500202,"84":0.1316489065661123,"85":0.053909763377840425,"86":-0.27631169406453576,"87":-0.04910732872045125,"88":0.06388880426842021,"89":0.04514703276440457,"90":0.094063708746284,"91":-0.2157079921411028,"92":0.09120703103478711,"93":-0.10425424676409284,"94":-0.18773541180437028,"95":-0.09227489119192886,"96":0.03443895054786635,"97":-0.06773990494349201,"98":-0.056559686601556323,"99":0.06481421205732465,"100":-0.04523211381079818,"101":-0.12105849491834446,"102":-0.24718529959342364,"103":0.010567628754376276,"104":0.1659479413261372,"105":-0.0553756293620592,"106":-0.011673641214876788,"107":0.05261781289491237,"108":-0.16545588113080428,"109":0.1125821579232565,"110":-0.16737724617599767,"111":0.18053106025941845,"112":-0.05422781347783486,"113":-0.03129951136446263,"114":-0.01683599106467268,"115":0.045037616870686345,"116":0.045448809734087964,"117":-0.046930808328541275,"118":-0.24022612258435605,"119":0.12024952238086795,"120":-0.2944717222653818,"121":-0.13635344513831274,"122":0.002556510954996432,"123":-0.20474384459225448,"124":-0.06196040142714468,"125":0.053310487411094974,"126":-0.10885587212117549,"127":-0.1864075687106499,"128":-0.22678318978446863,"129":-0.025749267650559203,"130":-0.024734738192527812,"131":-0.26221405864134223,"132":-0.12086502144799312,"133":-0.007060475448021977,"134":-0.10453604211067269,"135":-0.2916960186743672,"136":-0.1891092935044472,"137":-0.15298849732200515,"138":0.005426082668150789,"139":-0.2766599610110575,"140":0.025299338116138277,"141":-0.1674767386000542,"142":-0.26071985927323005,"143":-0.1862229309130792,"144":0.034004553746545436,"145":-0.03178410108610515,"146":0.018026737366223584,"147":0.007898264591467129,"148":-0.15704216135487553,"149":-0.08484665518125524,"150":-0.043871454790662984,"151":-0.10412255233277744,"152":-0.11087189791739252,"153":-0.09712100152506029,"154":-0.14169021194913645,"155":-0.1429167917123688,"156":-0.0038530646400875288,"157":-0.29908915368080585,"158":-0.13357883763513384,"159":-0.06098103376989554,"160":-0.06227209773016543,"161":0.12460046966058969,"162":-0.1583723735229758,"163":0.058704952810337,"164":0.04712150046779698,"165":-0.08304316694929666,"166":0.2482710447673746,"167":-0.10706516082383893,"168":0.012365697134467404,"169":0.13013827465643715,"170":-0.12249558397414945,"171":0.10549954829653015,"172":-0.061814160809541926,"173":-0.2817103605666579,"174":0.22719082308420427,"175":0.03391582025969846,"176":-0.08145349764860212,"177":-0.01460510050724604,"178":0.035113454950872876,"179":0.10295861318045363,"180":-0.13623069660498188,"181":-0.1575816070506527,"182":0.13402889022989908,"183":0.019194470090029878,"184":0.03265163824682502,"185":-0.03173253929380548,"186":-0.03386396395403539,"187":0.18553016290028806,"188":-0.21572017000903068,"189":-0.13281640377144857,"190":0.08025467946865092,"191":0.021219047216952457,"192":0.03379764361446049,"193":-0.07991991052774533,"194":-0.05297895132004889,"195":-0.03761407501674619,"196":-0.16828340722697951,"197":-0.02195304244195392,"198":0.2033791853025608,"199":0.011958370639946755}},{"sx":5,"sy":5,"depth":8,"w":{"0":0.057280557069001356,"1":0.06979125870275732,"2":0.07767222723765356,"3":-0.04456909421183071,"4":-0.14850276739165946,"5":-0.06548047613464876,"6":-0.1139286893086881,"7":-0.12065583352416859,"8":-0.0919645611927878,"9":0.11336090199702838,"10":-0.04675481516742684,"11":-0.027369984542935523,"12":-0.09948997294903826,"13":-0.11180322428799311,"14":-0.18263632205040803,"15":0.15504623826115846,"16":-0.07530569658956458,"17":0.10742805372448434,"18":0.018746609379778206,"19":0.09664935377805728,"20":-0.04141393407491461,"21":-0.2210714184520407,"22":-0.28393309740122885,"23":0.03221035577422626,"24":0.09175675132031,"25":-0.060478519233335346,"26":-0.18742272703552992,"27":0.29957619871800145,"28":-0.04447410945922452,"29":-0.07115146877356107,"30":-0.3210258554266926,"31":-0.04608959181747031,"32":0.12253399768033729,"33":0.056683346917866265,"34":-0.037271807536094756,"35":0.03449146714034739,"36":-0.05714052615737035,"37":-0.2707091110445182,"38":-0.08917299787450465,"39":-0.06340019991340357,"40":-0.013920996010282023,"41":-0.09537923518772008,"42":-0.059049931096488484,"43":0.03057532663925386,"44":-0.06184753532482959,"45":-0.09749562919796627,"46":-0.0954028155079176,"47":0.013255987856168923,"48":0.001478715728695938,"49":0.039723568886727366,"50":0.12557025924058485,"51":0.004824100328676567,"52":-0.0834634266724793,"53":-0.21736730895400266,"54":-0.15395450922721488,"55":0.08899825803858523,"56":0.14576254947677247,"57":0.03221196860593554,"58":0.05462161603900506,"59":0.0765983762643539,"60":-0.009258752253520722,"61":-0.22693403798870881,"62":-0.2864096216773014,"63":0.01385448753003328,"64":0.1027506995654895,"65":0.07334868065172244,"66":-0.06607876592428713,"67":0.228192160491123,"68":0.07651772355348715,"69":0.06025112579485011,"70":-0.051731648823337174,"71":-0.035028406424248974,"72":0.04223366668128579,"73":-0.09581912445564494,"74":-0.1737956804632201,"75":0.12024174495451921,"76":0.03358868136663363,"77":-0.11075594488002714,"78":0.010021161144550084,"79":-0.054398169855421605,"80":-0.15334598487925158,"81":-0.20729830517263967,"82":-0.08115607357686098,"83":-0.08975475448080718,"84":0.11159406232252464,"85":-0.16419903105585665,"86":-0.003662657449175432,"87":0.014622413028089937,"88":0.04965288627881229,"89":-0.08178683578487721,"90":0.06790798016978157,"91":-0.14251149131712754,"92":-0.15610799836432573,"93":-0.1163298663691034,"94":-0.2572135321584508,"95":-0.0067551735753102644,"96":0.17443500890294453,"97":0.05190029163745359,"98":-0.1628773026852085,"99":0.12705819824758316,"100":0.154066164973282,"101":-0.29979794042309044,"102":-0.4120344766043524,"103":0.1462239718129297,"104":0.21793883789003773,"105":0.030347612363161688,"106":-0.0936144158424619,"107":0.06351868823848777,"108":0.020448640800518593,"109":-0.13406427200755278,"110":-0.016387693798260633,"111":-0.061736782468031576,"112":-0.08422885940222799,"113":-0.044909776191928756,"114":-0.18526759765274464,"115":0.12864927917285926,"116":0.12479623422433696,"117":0.15550583429504955,"118":0.04227322652281092,"119":-0.1168593264505429,"120":-0.18768035217600457,"121":-0.15697057082320445,"122":-0.09083099025423619,"123":-0.10039863372000819,"124":0.09806876058109751,"125":0.021340038996515293,"126":-0.15029846955980616,"127":-0.26597854126936576,"128":-0.20656743508599779,"129":0.015829526548258994,"130":-0.015759676499465775,"131":-0.16628087836009173,"132":-0.020509155187563376,"133":-0.11762898169673294,"134":0.018609744831481537,"135":-0.20986315379444717,"136":-0.010315094306054332,"137":-0.005181516888585345,"138":-0.16927079572490933,"139":0.09397294927299925,"140":-0.04231428149569876,"141":-0.06079219235906044,"142":-0.15017378208003254,"143":0.008709854075486235,"144":0.2638979094327825,"145":0.1534747841666537,"146":0.03526943546461184,"147":0.16916141262834927,"148":-0.04774358269023016,"149":0.027629233156695517,"150":-0.21195561888551903,"151":0.11344153096447483,"152":0.31174431159059557,"153":0.11850479594120011,"154":-0.1739942210697616,"155":0.23562295548856715,"156":0.016741022000896368,"157":-0.07723681647742138,"158":0.08191526467752892,"159":0.11267547389426819,"160":0.005832672532027476,"161":0.0588654142364603,"162":-0.03354611808350321,"163":-0.01884675269027489,"164":-0.09391026118349872,"165":-0.04659035513590003,"166":0.058366030807532866,"167":-0.00757919269048534,"168":0.0158820593060845,"169":-0.0765485927171437,"170":-0.06766654126612483,"171":0.10585532017183576,"172":-0.02586620906916299,"173":0.021521474647276214,"174":0.10590154931366406,"175":0.012534591749718767,"176":-0.17586587116137498,"177":-0.3140488320976673,"178":-0.2659424122524954,"179":-0.21235658308195038,"180":-0.12574435135769857,"181":-0.037397106635030826,"182":-0.03539983993232359,"183":-0.06960067116804906,"184":0.0796595190617694,"185":-0.10145962991247229,"186":-0.04555364225464608,"187":-0.2493056495636219,"188":-0.055468586576672835,"189":-0.08502127035259084,"190":-0.2513130173950854,"191":-0.17411488817989815,"192":0.12347643417365894,"193":-0.06318431457977121,"194":-0.12876165791767696,"195":-0.002907089258136986,"196":0.015292774554209724,"197":-0.07380273617444273,"198":-0.2461441702544707,"199":-0.03314996645914837}},{"sx":5,"sy":5,"depth":8,"w":{"0":-0.058898883423675906,"1":0.03576926320958208,"2":0.019844602563403042,"3":0.057646991256360906,"4":0.022149216540623063,"5":0.0527770537676649,"6":0.021095613335277073,"7":-0.04593135932202959,"8":0.04150433361930006,"9":-0.11755018224332264,"10":0.0903470174240642,"11":0.057627029004193316,"12":0.00886622318464068,"13":0.0651431111071602,"14":-0.09530897232480122,"15":0.013949238168493047,"16":-0.1175334601629097,"17":-0.07105537189004922,"18":0.1314996967223311,"19":0.021279943192672263,"20":0.009878299973280161,"21":0.01135464418555341,"22":-0.0684774098501435,"23":-0.05827125834236092,"24":0.0706546792105862,"25":0.13396740093099407,"26":0.20077740365238123,"27":-0.00042780006284496956,"28":-0.09218119674632526,"29":-0.12468757985018088,"30":0.024720792807303618,"31":0.16533116589866725,"32":0.0030177486506919003,"33":0.1457204810043161,"34":0.06003085328574436,"35":0.08335473584683514,"36":-0.18119620831010513,"37":-0.10655479621734171,"38":0.05122064120610603,"39":0.19504751003636994,"40":-0.08449082909878429,"41":-0.2006172766938034,"42":0.059529074419983175,"43":-0.12383295204784361,"44":0.15938701208827338,"45":-0.026827833564784912,"46":-0.30747417332367116,"47":-0.00671031390674645,"48":-0.09590801554802122,"49":-0.10176882104672966,"50":-0.06383611326445177,"51":-0.03836078749969987,"52":0.16533388520928435,"53":0.03747854237079069,"54":-0.18077810113255516,"55":-0.07702964866609308,"56":-0.033100384776047806,"57":0.03465081856052746,"58":0.12900567782242822,"59":-0.08445359779588894,"60":-0.003951652492254344,"61":-0.004866206426106634,"62":0.014467767640034435,"63":-0.015978116890671586,"64":-0.10137197516350087,"65":0.2441544668495553,"66":-0.08874923793206847,"67":0.09162430686328367,"68":0.0342417862869828,"69":-0.11922093974075265,"70":-0.04277701885795245,"71":0.088943873177514,"72":0.06970931870272751,"73":0.04995983763971735,"74":-0.039744663828175805,"75":0.09153263372941861,"76":-0.02009152497310039,"77":-0.004274441444398952,"78":0.10440839123688557,"79":0.29862310312360213,"80":-0.12981327596709916,"81":-0.19391042928751853,"82":0.025207457435611383,"83":-0.035972227304059044,"84":0.12761376823799073,"85":-0.06780713486469563,"86":-0.00748853626896736,"87":-0.1692383108869467,"88":-0.14389489285010046,"89":-0.20988043874438841,"90":-0.15890188326470503,"91":-0.14167750033637844,"92":0.020197311450689807,"93":0.10157975640383327,"94":0.03757930411037791,"95":-0.21535341761181606,"96":-0.12164384810588201,"97":-0.14573175714310765,"98":-0.12420228186292606,"99":-0.14301952103307303,"100":-0.01785246475967439,"101":0.0013318800757616128,"102":-0.26621346701275883,"103":-0.16099186134520946,"104":0.0451710987086742,"105":-0.02247422653549223,"106":-0.056123496372841454,"107":-0.3376572223796757,"108":0.0946104013320187,"109":-0.16984014753003726,"110":-0.0975408550719625,"111":-0.026851044335674253,"112":0.015015799395513955,"113":0.0027679452911807617,"114":0.05876044746120552,"115":-0.019271382613203908,"116":0.08707473742723609,"117":-0.023419734828629402,"118":-0.10226894825271148,"119":-0.19825142994088757,"120":-0.023348471664021906,"121":-0.1006966320036872,"122":-0.1795824397846678,"123":0.005785474817595954,"124":0.007208679647887078,"125":0.12027553163586997,"126":0.16223977606072562,"127":0.01003839801063897,"128":-0.06087376472144338,"129":-0.0004863461851620842,"130":-0.12279665966668744,"131":0.07154118204043251,"132":0.0046810703677457235,"133":0.010380092508080469,"134":0.10882060982550178,"135":-0.02469154116033503,"136":-0.09201058790873094,"137":-0.15860664031847668,"138":-0.12902245996879463,"139":-0.10366750469458287,"140":-0.04775203706031956,"141":0.031436599368021526,"142":0.12207141895613888,"143":-0.1554518903726202,"144":-0.1774364557300839,"145":-0.1734653942773175,"146":-0.023903226712889584,"147":-0.16915718253061127,"148":-0.0645202039215522,"149":0.08237449285629103,"150":0.007621168704758229,"151":-0.16535929971665322,"152":0.0444406974837217,"153":-0.013183133629461,"154":0.06433253611256434,"155":-0.12246043514563631,"156":-0.06055780846466407,"157":0.050590617824387715,"158":-0.16459273762977067,"159":-0.11296514960888993,"160":0.11921462319363987,"161":0.038203222107177345,"162":-0.02314502058150776,"163":0.16691920569151047,"164":0.03903427158138922,"165":-0.09120507091833849,"166":-0.02722757767225139,"167":0.07913895928072326,"168":-0.040190045349517985,"169":0.09694694796968607,"170":-0.015381048604169755,"171":0.01984066601166825,"172":-0.07216883532754394,"173":-0.027840879815446834,"174":0.03988194420024488,"175":-0.06903937596360607,"176":0.018658926515893792,"177":0.0882906640828808,"178":0.07515926488642194,"179":0.08301300159073317,"180":-0.09305724967477438,"181":0.14082907580986934,"182":0.16628437189386894,"183":-0.05281781486410277,"184":0.08464169915022285,"185":0.13525129570355174,"186":-0.13135509944793444,"187":0.06333400952528623,"188":-0.12432940462744363,"189":-0.028299407530512816,"190":0.2996831453923945,"191":0.05540400325083156,"192":-0.1418282232257042,"193":0.05277205318807651,"194":-0.16918070244101285,"195":-0.050178197187070485,"196":-0.1887371837759068,"197":0.017033502540146815,"198":0.26317622670171104,"199":0.04669287737447358}},{"sx":5,"sy":5,"depth":8,"w":{"0":-0.10208193121838738,"1":-0.004031620326057179,"2":0.12770183613147634,"3":0.0045647609674724565,"4":-0.09105427730892474,"5":0.0056245799204350695,"6":-0.00833287207487675,"7":-0.047902312207193584,"8":0.05901756875593447,"9":0.03316036205501406,"10":-0.06156655819075468,"11":-0.1444384626733985,"12":0.04066270485326517,"13":-0.035154849000819346,"14":0.03189461075170159,"15":-0.007485331064385059,"16":-0.271184931170291,"17":-0.12627176400939524,"18":0.02659262753292922,"19":0.015316367177456769,"20":-0.06319391393162559,"21":0.08695620267844291,"22":-0.05808314577812737,"23":-0.17942838187296858,"24":-0.11748498985266029,"25":0.02429200705989132,"26":0.03944758285710317,"27":-0.05866519939434794,"28":-0.011032095311592107,"29":0.027983564524320846,"30":-0.1648242158921245,"31":0.023933800254579245,"32":-0.01920330727584972,"33":0.10873138662405471,"34":0.15677781672954105,"35":-0.1579487052790471,"36":0.04041553185474214,"37":-0.09159807736312431,"38":-0.06031713923714995,"39":0.1084298833731279,"40":-0.07952166274876407,"41":0.10371263201694764,"42":-0.06017302925480302,"43":-0.06124821802407247,"44":0.04232566606810893,"45":0.018833553673865973,"46":0.016496381629488504,"47":0.01883536231766717,"48":0.05297184123396311,"49":-0.14405699448873308,"50":-0.051059576714583485,"51":0.18983244097593704,"52":0.11164863613226415,"53":0.013263542464440704,"54":0.023507147121080967,"55":-0.059351294441068424,"56":-0.2084687414778496,"57":-0.22725423735089387,"58":-0.01444376592190392,"59":-0.04672786081167827,"60":0.05441462559731426,"61":0.055721653617696,"62":-0.0970258861618199,"63":-0.16725382174596154,"64":-0.16742896457206283,"65":0.09733013015232755,"66":0.11477019581943365,"67":-0.16683578799294227,"68":-0.07909892129335283,"69":-0.13285717723325827,"70":-0.03900726168599474,"71":0.028222232229061055,"72":0.035461096309494164,"73":0.10842972058543666,"74":-0.006103505763304002,"75":0.07610942530120383,"76":0.07047160050803086,"77":-0.14355831575344696,"78":-0.1559030554831059,"79":0.21936772374180924,"80":-0.026116169327283077,"81":0.03479114105906322,"82":-0.030229711100716698,"83":0.09359838382190032,"84":-0.009708715236552357,"85":-0.0759212951228628,"86":0.11575799120954446,"87":0.1622684141699331,"88":0.05533094394584928,"89":-0.051725852704589,"90":-0.07136316196342374,"91":0.0006517804626304125,"92":0.037000428115204875,"93":-0.07333181210454712,"94":0.024231841213929718,"95":-0.02436048678546196,"96":-0.08803922619433278,"97":-0.12215111164769062,"98":0.04200020586309141,"99":0.028237374946757408,"100":-0.01744430195059853,"101":0.09553944219509805,"102":-0.011924045376055703,"103":-0.0609069370834813,"104":0.030194367715356184,"105":0.08375077661400215,"106":0.18325770822607368,"107":-0.10805275045224812,"108":-0.17171726818025587,"109":-0.16832648695527347,"110":-0.09774935906908089,"111":-0.004652270921119098,"112":0.10402425946231028,"113":0.17180473991608744,"114":0.12369662675054025,"115":0.011437776690783028,"116":-0.020545110945250872,"117":-0.2695107896410741,"118":-0.15692025779557364,"119":0.12508937769010234,"120":0.03972825654273481,"121":-0.060699945543840776,"122":-0.042194385808476315,"123":0.10249721988919801,"124":0.24354049783658613,"125":-0.02006354946121553,"126":0.02373701669515761,"127":0.14330649956512753,"128":0.006795164990571629,"129":-0.21728462793912331,"130":-0.15638365460199094,"131":-0.010133994064991927,"132":0.17724072376506625,"133":0.009577242943244857,"134":-0.04361506613493228,"135":0.12166505242426046,"136":-0.0167181525343409,"137":-0.1331072317744838,"138":0.11111280216146856,"139":0.10307918936207291,"140":-0.038975727122804366,"141":0.018560010240508636,"142":0.12208059150045862,"143":0.0404144092198445,"144":-0.1085409936873264,"145":0.16735134782189381,"146":0.1419803632107835,"147":-0.060644574913307256,"148":-0.08744347488534836,"149":-0.1306117755046546,"150":-0.17372627573395497,"151":0.14442040741557652,"152":0.08463550837301805,"153":-0.016050273399658168,"154":-0.2641407211476997,"155":0.10299817037224743,"156":0.16492088726595444,"157":-0.09791076423538854,"158":-0.15742375103248984,"159":0.1547951082223451,"160":-0.018383315411869536,"161":-0.08969031794001374,"162":-0.05302622354429105,"163":-0.01579735405396829,"164":0.16744641573551267,"165":0.0031836156871714394,"166":-0.0027218355358082057,"167":-0.0034829991296316098,"168":-0.04310485441926384,"169":-0.1223809017368486,"170":-0.1046569755567214,"171":-0.09687471515211164,"172":0.005743427296616539,"173":-0.006109896070922223,"174":-0.007746159272614937,"175":-0.05888954227366242,"176":0.007987552533818823,"177":0.1912507343925196,"178":0.04866288286152238,"179":-0.13409495879574085,"180":-0.0722151375250949,"181":-0.09977384878772697,"182":-0.05298413572546109,"183":0.05047183195564621,"184":-0.1416482000911647,"185":0.2866178955448542,"186":-0.14813657634763058,"187":0.0882343117473926,"188":-0.0766939528568218,"189":-0.2136719105345614,"190":-0.21313283338703673,"191":0.09085058087508786,"192":0.03043487058810662,"193":0.15020078223028555,"194":-0.10348965833576329,"195":0.16729996721473286,"196":0.3116631233859508,"197":-0.20158661596534,"198":-0.44380666445274797,"199":0.22500179647408075}},{"sx":5,"sy":5,"depth":8,"w":{"0":-0.23136381696480468,"1":0.08666035624296253,"2":-0.1164326644780158,"3":-0.18534770796440164,"4":-0.1289041562091168,"5":-0.041145604423569404,"6":-0.06628827788543712,"7":-0.13108420541387422,"8":-0.12608972494258747,"9":-0.03491544474174303,"10":-0.08528140645473635,"11":0.025431222191311283,"12":-0.11114448073410431,"13":0.005436083800404269,"14":-0.06039358052607594,"15":0.03120328925889161,"16":-0.09015930958524553,"17":0.0637453120467021,"18":-0.14827331156981677,"19":-0.0984180332856688,"20":0.09233146624175227,"21":-0.19247074345991133,"22":-0.0046537858117184075,"23":0.0806445170310122,"24":-0.11226745680312238,"25":-0.008093580829702485,"26":-0.2911903378098263,"27":-0.08286635747425794,"28":-0.10344938548730144,"29":-0.1178783914505796,"30":0.0722019442580484,"31":0.07522385783350176,"32":0.09207219958957284,"33":-0.013576556634721485,"34":-0.15963166807154175,"35":0.013860253905131648,"36":-0.032301222805835125,"37":-0.18451633424283762,"38":0.03628352982293316,"39":0.09860635522232127,"40":-0.06378722940393058,"41":0.031807190218660165,"42":-0.021153863631648836,"43":-0.10054313544809008,"44":-0.08740645673233058,"45":-0.058833066354110695,"46":-0.14438682735126376,"47":-0.03378887328441461,"48":-0.12429538294459896,"49":0.052652333426953475,"50":-0.09247757233243707,"51":0.05517826351979261,"52":-0.05534291558657502,"53":-0.22085008275407247,"54":-0.10770131776178071,"55":-0.08175096030355583,"56":0.008245083959418796,"57":0.058547188285736955,"58":-0.14266394985150427,"59":-0.014381309286995773,"60":0.008767661298245116,"61":-0.15899919452780115,"62":0.0033867971431333715,"63":0.06844507301190336,"64":0.05019873699354247,"65":-0.06816365920583164,"66":0.05343356062665187,"67":0.07472506839484558,"68":0.09499284408340712,"69":-0.19720901138248928,"70":0.12800381250412934,"71":0.0073013458913673175,"72":0.07870928327234132,"73":-0.02721871476807669,"74":0.04568620875346564,"75":0.049864569948805615,"76":-0.03239452341548258,"77":-0.12143489880794225,"78":-0.08417520106141144,"79":-0.0916204714358306,"80":0.03753440906346585,"81":0.10752554798970222,"82":-0.15140587293817337,"83":0.1983231197572548,"84":-0.18145475271833209,"85":-0.2329500595368719,"86":-0.023018143907291042,"87":0.07493100291383269,"88":-0.06616222740468802,"89":0.13967627473895855,"90":-0.05186434851894027,"91":0.08500532215010198,"92":0.022631219821315135,"93":-0.1288389450853999,"94":-0.06294364295960217,"95":0.08026976266669836,"96":0.057323365211343034,"97":0.014023443776059196,"98":-0.06630073106286988,"99":-0.027046725521949637,"100":0.04725942521011096,"101":-0.014695848347595764,"102":-0.08543227465256735,"103":0.0877396967055803,"104":-0.043255349536148964,"105":-0.039658103453605556,"106":0.07741775314718508,"107":-0.08395094481681178,"108":0.1541261642961033,"109":-0.20346299113706667,"110":-0.14226614030904744,"111":-0.10944925831838298,"112":-0.1757507725535847,"113":-0.12830674278921836,"114":0.027070473489834736,"115":-0.03826428207635773,"116":-0.10396744214948497,"117":-0.16971166312400876,"118":-0.12416398194134341,"119":0.020360000001340854,"120":0.08272864993771283,"121":0.11388861260249346,"122":-0.07324482898037817,"123":0.02069166782473642,"124":0.013142910904372541,"125":-0.13804114321140884,"126":-0.03745647772590535,"127":0.19343309126172445,"128":-0.03413794564767156,"129":0.0006901380922560408,"130":-0.22591082640529853,"131":0.08651931834367983,"132":-0.15043503295003038,"133":-0.12007074459025434,"134":-0.27486281298609727,"135":0.16808226580632063,"136":0.06802068320529374,"137":-0.06493578342723036,"138":-0.16611533186547736,"139":0.06620144459914974,"140":0.07181174904239515,"141":-0.1406575714863588,"142":-0.13206649624233155,"143":-0.060255130057533315,"144":0.07269677800224911,"145":-0.10427498587854095,"146":0.01801815892535414,"147":-0.05046494404271992,"148":0.006564988435250659,"149":0.004773596278004068,"150":0.18693293120554383,"151":-0.21098754864048416,"152":-0.10178733173166213,"153":-0.03549531127368579,"154":-0.08686474471165496,"155":-0.0483431409405818,"156":-0.025570989597451604,"157":0.012392038546126352,"158":-0.017956654798843046,"159":-0.20969772584722254,"160":0.1449331605259364,"161":0.052132141542166235,"162":-0.026750960781981664,"163":-0.025005390380665675,"164":-0.05935948323389143,"165":-0.13745288640649522,"166":-0.262553545831915,"167":-0.03508818427031379,"168":0.08995874155205916,"169":0.19246208831860412,"170":-0.2636352399195795,"171":0.11966828096651087,"172":-0.16067128551257842,"173":-0.12494106526254876,"174":-0.18240934130253275,"175":0.011264749326825784,"176":0.16878050083239132,"177":0.006049148088917114,"178":-0.2749692857570831,"179":0.1946138955842122,"180":-0.003959398362345065,"181":-0.021358978621974632,"182":0.15348089138996696,"183":-0.05957685136199378,"184":0.050358918707763836,"185":-0.017486789956743017,"186":-0.2401634629376397,"187":0.1598468580969142,"188":0.015314781778854878,"189":-0.15722273377201768,"190":-0.0032129369144139734,"191":-0.07255445193272794,"192":-0.02474864333767167,"193":-0.0480433898831711,"194":-0.05522348284505517,"195":0.09724341898550912,"196":-0.1232461266305571,"197":0.047125282258222226,"198":-0.022615784065141552,"199":-0.026473101653986975}},{"sx":5,"sy":5,"depth":8,"w":{"0":0.03883579585431734,"1":-0.08175163290726994,"2":-0.2696518062191763,"3":-0.08738216880036563,"4":-0.09304119506863974,"5":-0.048525127631227585,"6":-0.06181170284702227,"7":0.04067000065536409,"8":-0.10726852026434566,"9":0.04302931055288071,"10":-0.0581082342296064,"11":0.036844250997806735,"12":-0.029584725365542585,"13":-0.03733178515138089,"14":-0.008873875749594634,"15":-0.037659291918180765,"16":-0.02214915213539725,"17":-0.045474290147032005,"18":-0.03562030061525788,"19":-0.08759895857207253,"20":-0.11622115504289803,"21":-0.030735154260240247,"22":0.0333055844424224,"23":-0.05418130846747773,"24":-0.11418015644096623,"25":-0.10430896559164618,"26":-0.08862382062310237,"27":-0.06357300282963757,"28":-0.0063649008925161675,"29":-0.011127129088110732,"30":-0.05799125190131203,"31":-0.09768630086100988,"32":-0.12201970196045224,"33":-0.07046819409949273,"34":-0.08485417977439992,"35":-0.07070080447723834,"36":0.07268447015162813,"37":0.06082322014643269,"38":0.0015017868208424714,"39":-0.16799318063091215,"40":0.10752352715570887,"41":0.028831588797925238,"42":0.07960765238922596,"43":0.0694162753901463,"44":0.03571493161294572,"45":-0.07369554201272067,"46":0.034596059526095055,"47":0.09142786930687685,"48":-0.02185227786444756,"49":0.014883278342228655,"50":-0.025130238065162153,"51":0.06504864316859385,"52":-0.04374061724528968,"53":0.06341271784936851,"54":0.26000508578896253,"55":-0.005899434783326808,"56":0.06531690931383731,"57":-0.07917401830534167,"58":-0.20684108479270263,"59":-0.009171102119683317,"60":-0.09720890897099092,"61":-0.00500053273723682,"62":0.17779103474125107,"63":0.10946957314799513,"64":-0.10545783829313712,"65":-0.0137031831379685,"66":-0.010620406589457919,"67":-0.11240886726816192,"68":-0.012714474053781644,"69":-0.09721012541339483,"70":0.1246021748667734,"71":-0.036312639323013485,"72":-0.18318946255665913,"73":-0.15578913487174584,"74":-0.09609259426376357,"75":-0.1648554230227259,"76":-0.008965387436447264,"77":0.0018163891874667572,"78":-0.10440427052405456,"79":-0.034989180480422696,"80":0.12750049266011038,"81":-0.08441683800516715,"82":-0.0476612548333552,"83":0.07108617217454366,"84":0.056713788273019795,"85":-0.09817960401313684,"86":0.03714012580000723,"87":0.16302630449156386,"88":-0.10084769344350417,"89":0.005640926332251784,"90":0.09836122826894483,"91":0.021164589313785773,"92":0.18779559066158394,"93":-0.02746360860057201,"94":-0.03994376530948322,"95":0.10630770279495144,"96":0.019853307508248506,"97":-0.02998125347345054,"98":-0.07970374682902434,"99":0.08114448180299814,"100":-0.030085220940929486,"101":0.04643507036678398,"102":-0.06885843356807235,"103":-0.08967559308556529,"104":-0.1530705598843882,"105":-0.17047379237306906,"106":0.061130569729978664,"107":-0.1792196326630792,"108":-0.05338669329909471,"109":0.060333954770260004,"110":-0.05297226222156304,"111":0.013045418722966693,"112":-0.011995969652033256,"113":0.09047939619609233,"114":0.0905030742446576,"115":0.041579800541083685,"116":0.0671768947036911,"117":0.14423883071715118,"118":-0.04312587554774794,"119":0.12268997449621867,"120":-0.06508848487711844,"121":-0.07168016315469755,"122":0.011563537010385885,"123":-0.07010325488112883,"124":0.12793987294420592,"125":-0.0032545183833910694,"126":0.006205781500290056,"127":-0.13918886457217242,"128":-0.00849142060706503,"129":-0.03394224716427569,"130":-0.011215821586623535,"131":-0.09351145552593763,"132":-0.06891505391995349,"133":0.03564497260526989,"134":0.023709575313431805,"135":-0.15649510925959234,"136":0.09730568992454458,"137":-0.047787753043093975,"138":-0.006135904662221196,"139":-0.06918223214123852,"140":0.03048542315588326,"141":0.1095719133276121,"142":-0.1665160089787186,"143":-0.07910239832838738,"144":-0.2158996469263805,"145":-0.11216043562088703,"146":-0.04686938166666673,"147":-0.11800569352355997,"148":0.05544823877679184,"149":0.03573080225010171,"150":-0.03218862551382217,"151":-0.09715340570947646,"152":0.1266732804107653,"153":-0.016339125652693885,"154":0.09341173840827355,"155":-0.033903373985646516,"156":-0.18169609396597736,"157":0.03360660802753734,"158":0.13260232588981397,"159":0.10819559412037179,"160":-0.08954055115938599,"161":-0.011036261298986176,"162":-0.026420835842717982,"163":-0.018993168457031313,"164":-0.0030047382792112087,"165":0.04358127577123166,"166":0.07373168169616176,"167":-0.06478403062036288,"168":-0.1042010666293495,"169":0.012188521966833545,"170":0.06214958409482152,"171":-0.01614626212605759,"172":-0.12372910438922999,"173":-0.003630768424093932,"174":-0.024022622871958554,"175":-0.19037236337049446,"176":-0.2157569118457907,"177":0.12160796590495415,"178":0.008957594782130493,"179":-0.07282428343753204,"180":0.05378135829174974,"181":-0.05621149211768337,"182":-0.010465564921474692,"183":-0.010061017919225427,"184":-0.12529612783935515,"185":0.006667085923560942,"186":0.10406231206022558,"187":-0.09467034649336802,"188":0.018616681705581197,"189":-0.05631405876716619,"190":-0.09089464843523638,"191":-0.009634604568992185,"192":0.08076296726945625,"193":0.17496003842297012,"194":0.07096564388625425,"195":-0.1751169584562099,"196":-0.03383767085255429,"197":-0.19445516765360416,"198":-0.03538952588730551,"199":0.043197676689651174}},{"sx":5,"sy":5,"depth":8,"w":{"0":-0.029665407603435848,"1":0.059945741767614774,"2":0.02442801324113234,"3":-0.09572988764405232,"4":-0.0023720626802813238,"5":-0.1028332041062489,"6":0.01426406130932244,"7":-0.040884235489735445,"8":0.062344995805713545,"9":0.08832704974868999,"10":0.16688663720809935,"11":0.10441100045113548,"12":0.14403500022641913,"13":-0.1959444525036669,"14":0.09886481237812376,"15":0.07512844654986725,"16":0.18279666366619018,"17":-0.010295886419934251,"18":0.04605580751693163,"19":0.05577605837118464,"20":0.04484825451069808,"21":-0.014108165462358869,"22":0.1717212671467205,"23":-0.010418186293282582,"24":-0.0370598314168184,"25":-0.010725462931602653,"26":0.08319347232856292,"27":0.14867614524326528,"28":0.0014680451229182293,"29":-0.07230968617034239,"30":0.05529451251924377,"31":-0.08201706765636983,"32":0.06831631853590459,"33":-0.10434964966290831,"34":-0.0015758513405036106,"35":0.034700285347462057,"36":-0.0612334484323649,"37":0.1344607326650984,"38":0.22896817332050465,"39":0.22275881226131558,"40":0.010508435046245775,"41":-0.11629304061531773,"42":0.1598962421234453,"43":-0.13381789978178169,"44":-0.09735533527537686,"45":0.01680374711530921,"46":-0.14133509508960504,"47":0.06135354331394062,"48":-0.04855544731475922,"49":-0.09013258793036667,"50":-0.009321033957124728,"51":-0.17118355203288235,"52":-0.05521210843597571,"53":0.023355479579268187,"54":-0.17627975305882052,"55":0.17627459357563569,"56":-0.053209796066272824,"57":-0.035805064713685164,"58":0.18989579331962309,"59":-0.06804144055666486,"60":0.027250382684092005,"61":0.018093753243282003,"62":-0.14494229397018024,"63":0.05133645308401721,"64":-0.11888613099752914,"65":-0.12475420692695716,"66":0.0905770169739546,"67":0.019087232513878213,"68":0.11380810879060722,"69":0.09711633439885886,"70":0.030658168216351027,"71":0.015014485085185403,"72":-0.041625037205614245,"73":0.02709895517589571,"74":0.053747209075379894,"75":0.027549822901915454,"76":0.06357498576633656,"77":0.19281977604511985,"78":0.05672341128303942,"79":0.017871493827260925,"80":-0.17734826249692714,"81":-0.08890975118177212,"82":-0.0618116916916131,"83":0.0501042005105808,"84":-0.009280396543630692,"85":0.04023562583774993,"86":0.27084742239709925,"87":-0.1561661832713853,"88":-0.09710403428320818,"89":-0.2069342326492586,"90":-0.014003109176829516,"91":-0.14943724209105974,"92":-0.13978666690337568,"93":0.23293056881703977,"94":0.027859739903908602,"95":-0.14536514164609005,"96":-0.1208283061938525,"97":-0.09887837939939309,"98":0.03902741658222607,"99":-0.2809982889840231,"100":-0.1636353998164758,"101":0.0017878364334931783,"102":-0.1534301829376684,"103":-0.1994159811784358,"104":-0.09874014018255484,"105":-0.058988982975595884,"106":0.07812428736515366,"107":-0.20903141637413003,"108":-0.02629376776330973,"109":-0.061819781771354325,"110":0.007378905903498324,"111":-0.08898164353898341,"112":0.006401000478206967,"113":-0.018827966761272828,"114":-0.04686170122727215,"115":-0.1536915868405426,"116":0.027787619946738777,"117":-0.028679507225973924,"118":0.043142048004052636,"119":-0.06438579993669287,"120":0.15233997887655057,"121":-0.06332986223038907,"122":-0.19126539788690203,"123":0.0699532487712793,"124":0.057755933876042255,"125":-0.10922102695353744,"126":0.36313510362539514,"127":0.08125139787261015,"128":-0.00783492778804576,"129":-0.01598297711125706,"130":-0.23082529722478207,"131":0.07668774593250428,"132":-0.013735691836710362,"133":0.09386793280303521,"134":0.24676494484280959,"135":-0.030016456293633913,"136":-0.06136575892914411,"137":-0.07529843036562922,"138":-0.15975779047094188,"139":0.051064666552238826,"140":-0.1950279084374297,"141":-0.018852849789716006,"142":0.1315752018945152,"143":-0.02652733324202134,"144":-0.06947029608387544,"145":-0.13181552938425742,"146":0.009237525224069638,"147":-0.10424230514695611,"148":-0.12034366423243448,"149":-0.16523655379835897,"150":0.051871646690992895,"151":-0.02187647835617669,"152":-0.1236701313380492,"153":-0.07682491106779599,"154":0.02071169532868244,"155":-0.03567044505051063,"156":-0.049813400486739975,"157":0.025579017503121502,"158":-0.20311390868700852,"159":0.027312980135548157,"160":0.11943932062259477,"161":0.13045527779725483,"162":-0.11487759833846588,"163":0.09932425163699457,"164":-0.08807571074466845,"165":-0.11624834119675324,"166":-0.0861464001224624,"167":-0.004598436158774207,"168":0.046205115349170316,"169":0.11113554186662296,"170":-0.14474486740328193,"171":0.11570616135195218,"172":-0.08964145531632857,"173":-0.03342291994229164,"174":0.10968255309298905,"175":-0.05638133184585237,"176":0.07310327548362949,"177":-0.019754153851561936,"178":-0.2692761222274104,"179":0.16789956219798613,"180":-0.12814910801262958,"181":-0.03320725304612581,"182":0.28477437015599333,"183":0.058509485305093326,"184":0.0036689776802746425,"185":-0.07132942840593473,"186":-0.015459948429535431,"187":0.10192545273940343,"188":0.036515066633319215,"189":-0.044318730542050835,"190":0.21815740519677382,"191":-0.02433761122891589,"192":-0.10404336223270354,"193":0.05261187116356709,"194":-0.08588191557333455,"195":-0.012981746778502506,"196":-0.11732434029686495,"197":0.06991660387790993,"198":0.017712724245215132,"199":-0.09517696903072417}},{"sx":5,"sy":5,"depth":8,"w":{"0":-0.1405440631155792,"1":-0.03812300219668326,"2":0.15439080043348882,"3":-0.08584205987002246,"4":-0.06489021046308649,"5":0.07410158744443879,"6":-0.06400920481809418,"7":-0.10746637197086245,"8":-0.026125973671207364,"9":0.07711509349026445,"10":0.19079344766060444,"11":-0.05612787423094923,"12":-0.1640879349896604,"13":-0.12779870275391375,"14":-0.07404854797417529,"15":0.026496106487587216,"16":-0.13334372029722394,"17":0.04480176307177811,"18":0.06282287240351529,"19":0.05452479160424662,"20":0.08567745528765798,"21":-0.07180844176451208,"22":-0.1444929747133891,"23":0.15577346478416354,"24":0.13139712912580684,"25":-0.05564305641222208,"26":0.0963984054623486,"27":0.16406121509702384,"28":0.10045741097586826,"29":-0.24416313586397026,"30":-0.4367343828586999,"31":0.12956812796980743,"32":0.05384113645724141,"33":-0.04558179227693486,"34":-0.07738873021508991,"35":-0.15099624611681137,"36":-0.09530623581872123,"37":-0.2805213334901993,"38":-0.34528345379972436,"39":0.023805458064388326,"40":-0.08653383241991462,"41":-0.00676673942443742,"42":0.2307167954758954,"43":-0.13831451386388854,"44":0.008645962874979981,"45":0.21044670947098096,"46":-0.0587093142339801,"47":-0.0030839886937772173,"48":0.029473354021381626,"49":-0.05556345179922558,"50":0.16673449474716623,"51":-0.11146114198884101,"52":0.08818409421886442,"53":0.07507529628619714,"54":-0.13705045254860568,"55":0.15565493059725957,"56":0.10371270066586816,"57":0.0447926194802788,"58":0.03965101567678342,"59":0.19282837346422238,"60":0.14991650840783619,"61":-0.08621457316019815,"62":-0.11439348065784181,"63":0.28418794959355165,"64":0.02436795906555555,"65":0.12605376745172311,"66":-0.0037151243782680083,"67":0.19122740991854772,"68":0.06333233556664088,"69":-0.12258935289733675,"70":0.05513791026986673,"71":-0.018674704998759305,"72":0.027739435540494642,"73":0.1475083170154999,"74":-0.13770883076956456,"75":0.2158668124051439,"76":-0.11352716225869074,"77":-0.1420244596527298,"78":0.3652260597173044,"79":0.058667751837329876,"80":-0.1117327232044748,"81":0.0564147440277582,"82":-0.0003168401691344409,"83":0.03769812110322829,"84":-0.07800794468090837,"85":0.005869833091175894,"86":-0.14264624755036293,"87":-0.15583771303920865,"88":-0.15442500300472006,"89":-0.20553561556623848,"90":0.0071629528651695985,"91":-0.07075814633167282,"92":0.017026483375502957,"93":0.01466736385413819,"94":-0.05032566078944777,"95":0.03675417887062526,"96":0.16223192683023638,"97":0.022426613462689718,"98":-0.04754807007997433,"99":0.15794635058129647,"100":0.061718578867818556,"101":-0.05255392017159777,"102":-0.05097885365452636,"103":0.013005004138467465,"104":0.3169716619822378,"105":0.1093875268151955,"106":0.08324906270167785,"107":0.14914614692010264,"108":-0.08879107373767343,"109":-0.23146736023140785,"110":-0.01905410430989965,"111":0.01981921506913429,"112":0.2218689633236782,"113":0.09969506276053733,"114":-0.05255501481520157,"115":0.24560977631539907,"116":-0.12502913571495702,"117":-0.09175325356278592,"118":0.24368890689074607,"119":0.31579209519560725,"120":-0.021494131363854255,"121":-0.02905060327273075,"122":-0.033576252027881934,"123":-0.09033295123194611,"124":0.10848921585416177,"125":-0.03267280948140209,"126":-0.14204341378620375,"127":-0.036126466071905936,"128":0.03566566184197674,"129":-0.20310283749690733,"130":0.04917222266537085,"131":0.0007563600321390694,"132":-0.07426500135729516,"133":0.043322669554366026,"134":-0.07140235002770995,"135":-0.16979318588892364,"136":-0.09197364783092238,"137":-0.2891064179358077,"138":-0.014644951818405118,"139":-0.096209084569426,"140":-0.022984708840415896,"141":0.16163630823101724,"142":-0.03926430178066566,"143":-0.14949594531031601,"144":0.07005803361119399,"145":-0.07779707150756622,"146":-0.04165034595659445,"147":-0.1843851520022248,"148":-0.04919294721627887,"149":0.032409719454530854,"150":-0.24911369707501096,"151":-0.19582288292790123,"152":0.192515947292392,"153":-0.07800089714701255,"154":0.3223713733135362,"155":-0.34340812365806334,"156":-0.03575931700329112,"157":0.06355954539792577,"158":-0.1275010230787929,"159":-0.05069331559495758,"160":-0.04563386160819692,"161":-0.04073021048078197,"162":0.156915472052216,"163":-0.02986900016648983,"164":0.1682145921836905,"165":0.14756911609862616,"166":0.015681138306412372,"167":0.050381574573609623,"168":-0.015589287511886358,"169":-0.11339041850041383,"170":0.0887557037714764,"171":-0.0378517328153847,"172":-0.015404247596027452,"173":0.16110727336705388,"174":0.048968796907506905,"175":-0.16480733675044915,"176":-0.10191485598047219,"177":-0.12678701080750507,"178":-0.09499811464597137,"179":-0.09925373880127605,"180":-0.06426296355631014,"181":0.24884036713981939,"182":0.0532835721445766,"183":-0.1116284789650387,"184":-0.10196117537078879,"185":-0.039197296460031256,"186":0.005636075752723112,"187":-0.16720636979247724,"188":-0.19159804393076907,"189":0.0682064692368036,"190":0.051961624473228274,"191":-0.19033669998145072,"192":-0.19270903773365544,"193":0.12775489324742112,"194":0.09423877867048872,"195":-0.08477148078328026,"196":-0.04393944812233275,"197":0.13710664111044804,"198":0.06820381965370542,"199":-0.14611667874434783}},{"sx":5,"sy":5,"depth":8,"w":{"0":0.021734892845717422,"1":0.1381172833962438,"2":0.16672237486377114,"3":-0.1611283568338777,"4":-0.08179519568145563,"5":-0.09356570478401452,"6":-0.27653967249015343,"7":0.04637898023651642,"8":-0.08440981302681559,"9":0.05663435664334694,"10":-0.16488650607353383,"11":0.03344614691199906,"12":0.10011381596075193,"13":0.024802855254581337,"14":-0.0023948987433017608,"15":0.21735212199339976,"16":-0.09469085340132329,"17":-0.08814537942068032,"18":-0.024875733298797296,"19":0.0430479498859984,"20":0.1943968305303799,"21":0.0340781238964023,"22":-0.08615861777440036,"23":-0.04944179416024612,"24":-0.13833710434250193,"25":-0.07655157885931817,"26":0.09828344442738383,"27":-0.1117751614604943,"28":-0.08782252715917103,"29":0.13804410662227526,"30":-0.04537405401342436,"31":-0.2185793461002394,"32":-0.005392104060056024,"33":-0.0025018137790516247,"34":0.06254884279314546,"35":-0.19674333581242393,"36":-0.17862073184802202,"37":0.03176029811772457,"38":-0.00042718464432035027,"39":0.012938939202612854,"40":-0.030075631933310688,"41":0.038336854777650205,"42":-0.13263975522992552,"43":-0.01489155274805329,"44":-0.042209091431889875,"45":-0.001681613546777741,"46":-0.10889109420903019,"47":0.1142388872342253,"48":0.13178935462842054,"49":0.045633891246529106,"50":-0.13932862827340042,"51":0.18711259678531084,"52":0.19138070577956237,"53":0.007700443520417649,"54":-0.11077312877354747,"55":-0.015902130012140074,"56":-0.03398438087304338,"57":-0.11929793305973839,"58":0.1340633201610512,"59":0.12653964326016512,"60":0.22581750558508953,"61":0.07095714905047637,"62":-0.24960816001437997,"63":-0.15502731558164068,"64":0.027979227844432054,"65":-0.05153567821576541,"66":0.012674795381135633,"67":-0.11851404861448152,"68":-0.12787070111765758,"69":-0.03604849154653004,"70":-0.13704702418310358,"71":-0.26429122456041193,"72":-0.08299201697308063,"73":0.07623063251730648,"74":-0.008926613195133905,"75":-0.18427270170255472,"76":-0.02325688546779534,"77":-0.04295231364182135,"78":-0.15642621582777425,"79":0.0164826481162917,"80":-0.15467049855125342,"81":-0.16891041991749503,"82":-0.025677785224607685,"83":0.12842439735873462,"84":0.06677450050348466,"85":-0.03814504953272018,"86":-0.23541340983469128,"87":0.22909984043347525,"88":-0.029483367075788178,"89":-0.13790293979995685,"90":0.033378942919185806,"91":0.17414067921559923,"92":0.20453841046766463,"93":0.017335434961116534,"94":-0.12648298669008068,"95":-0.003773966665457577,"96":-0.10109380471056452,"97":-0.08910205679195468,"98":-0.03482857380367631,"99":0.11471354434219679,"100":0.009485682400207928,"101":-0.058441339595212596,"102":-0.14520235509245452,"103":-0.059250585925114084,"104":-0.1511319720144317,"105":0.025275609157448347,"106":-0.026242680502222598,"107":-0.1483296909614205,"108":-0.13975797781882857,"109":-0.15873925140523804,"110":-0.1285934219900079,"111":0.042379689861327244,"112":-0.14750296309452704,"113":0.18443210438039823,"114":-0.12165271315427066,"115":0.10195602793387037,"116":-0.18180531965169522,"117":-0.04217117096736895,"118":-0.21358772540713036,"119":0.09886222189829359,"120":-0.10647529650928139,"121":-0.0765203290166723,"122":0.1520804093619503,"123":0.17133205163093662,"124":0.07867006316960778,"125":-0.0912220208901921,"126":-0.22745272373728065,"127":0.12084460739102848,"128":-0.03281802608307681,"129":-0.07272822488060994,"130":-0.010002477095594467,"131":-0.04877002985696944,"132":0.1238650699896363,"133":-0.04070959150285536,"134":-0.22052981271038963,"135":-0.0010486948034796881,"136":-0.03962018279606549,"137":-0.10064385651238926,"138":0.003942916754872546,"139":-0.10659676234890307,"140":-0.026230896588887984,"141":0.04886231362003448,"142":0.025712430352385546,"143":0.000018605096070400213,"144":-0.13607745043146646,"145":0.07217540651961851,"146":-0.019398852688963,"147":-0.05342621556689926,"148":-0.06680499497396393,"149":-0.132062082854052,"150":-0.17372662831249683,"151":0.03051853022154025,"152":-0.0524990047469229,"153":0.008659111578553596,"154":0.020266036831069603,"155":-0.13441392195162086,"156":-0.027241821972744922,"157":-0.15560888279689836,"158":-0.11323831316864232,"159":0.14531062862981378,"160":0.012334718494052762,"161":-0.09655474324223601,"162":0.13867951447445565,"163":0.015588349178907354,"164":0.03791014944822638,"165":0.0414535740300648,"166":0.03609774524183494,"167":-0.09336140982682008,"168":0.021961862147462922,"169":0.032894395353302866,"170":-0.01580432147370003,"171":-0.00741086825364054,"172":0.0055397740037789935,"173":-0.02880347284465475,"174":0.22534491097610548,"175":-0.10415938266586455,"176":0.07113077967854255,"177":-0.010794187710314802,"178":-0.05375722901915319,"179":0.07017245446221347,"180":0.009393047702231231,"181":-0.1557125773003043,"182":0.16428106808571527,"183":-0.02701571950379712,"184":0.016164178167751453,"185":-0.11547018644195715,"186":-0.11690937563157375,"187":0.15525979379076726,"188":-0.02757382909928784,"189":-0.02363138927714425,"190":0.17779443360337335,"191":0.002143528985630138,"192":0.08250163773115231,"193":-0.03931156425713426,"194":0.12751636785629586,"195":0.056876426490895596,"196":0.10795994361677153,"197":-0.06548038986627923,"198":0.0577416084717782,"199":0.0058445563493122864}},{"sx":5,"sy":5,"depth":8,"w":{"0":0.10714069223816636,"1":-0.019259201444119776,"2":0.03621617561898861,"3":0.0427829050583732,"4":-0.10599597838803304,"5":-0.09674562602071324,"6":-0.06738472980172569,"7":0.06486623923383007,"8":0.01304176184494998,"9":-0.20877707382712293,"10":-0.045729425711276465,"11":0.0015107892522433731,"12":0.12108557222132571,"13":0.036075749860905296,"14":0.03940999944283865,"15":0.012354907900396405,"16":0.1492751030568695,"17":-0.0626468297378358,"18":0.1900463683007002,"19":-0.038810780823587375,"20":0.018818671657677193,"21":-0.029604092586459286,"22":-0.1490735396922683,"23":0.04248461531841535,"24":0.09781208537996275,"25":0.012546613091754396,"26":0.1008438848614241,"27":-0.09422086853873664,"28":0.09967409690606469,"29":-0.2214549944426846,"30":-0.3567110332157917,"31":0.04776088331342339,"32":0.14558844999683376,"33":0.05774470393902357,"34":-0.09731857342544104,"35":0.05563697905176586,"36":0.32291668861761674,"37":0.034721646138313036,"38":-0.14847468739499492,"39":-0.07316820392995871,"40":-0.13742392667845377,"41":-0.05323513956299472,"42":0.04600910943404898,"43":-0.13736408265008512,"44":0.15635324005198234,"45":-0.02386265478792773,"46":-0.1260933664657783,"47":-0.13081852564853888,"48":0.043325834010082574,"49":-0.0709715803645326,"50":0.039309134899223275,"51":-0.11263357723403931,"52":0.1511215236878072,"53":-0.05019737928492004,"54":-0.17818587564421384,"55":-0.1487347693183238,"56":-0.12359671970131443,"57":-0.05515694967862352,"58":0.12657592854974228,"59":-0.2958081196279919,"60":-0.035361011612127784,"61":-0.018414330881555613,"62":-0.1704739936389592,"63":-0.07818616136205225,"64":0.059161869918084975,"65":0.00564108142669593,"66":0.05214159368574998,"67":-0.12507244529746248,"68":-0.11146779570166018,"69":-0.21634912680019594,"70":-0.3319927982842382,"71":0.17145216953312103,"72":0.1944491434650182,"73":0.05988895621895706,"74":0.1090740027926967,"75":0.07892853292035161,"76":0.23462881910430877,"77":-0.060535196297674274,"78":-0.027344715239832163,"79":0.05707290638602771,"80":-0.06812055864150017,"81":-0.1992696038124898,"82":0.02807577655560177,"83":0.06648872447681603,"84":-0.01764743493022153,"85":0.024854019800368554,"86":0.1933227344394027,"87":0.06158041782842813,"88":-0.042584727919412826,"89":-0.1408732654769381,"90":-0.02436385474741914,"91":-0.016786942642564966,"92":-0.04149358074803138,"93":-0.03884695416919638,"94":0.05751637294539152,"95":-0.16306337135433607,"96":-0.2362854204048132,"97":-0.08139734394220052,"98":0.05705966070729722,"99":-0.07991250603967243,"100":-0.2870498302964615,"101":-0.003581178205882953,"102":-0.14948266064876192,"103":-0.07780090491235721,"104":-0.15172745728142692,"105":0.050689576942732906,"106":-0.0700888530013708,"107":-0.07978689180399261,"108":0.03476895809133339,"109":-0.04053460404021851,"110":-0.08227020251843858,"111":0.304153686668257,"112":0.09295847790701414,"113":-0.020822456565955452,"114":-0.12498997096635892,"115":0.018310100015397575,"116":0.3274637704733291,"117":-0.09851682753502457,"118":-0.11044429433316555,"119":-0.0752751431548675,"120":-0.1298914227127312,"121":-0.16861979472043417,"122":-0.08899798822978386,"123":0.09992529716990187,"124":-0.11356636424866705,"125":0.1041718260318824,"126":0.09036018132239906,"127":-0.03356580995743655,"128":0.036865910681594796,"129":0.05509344492330437,"130":0.07773468626805417,"131":-0.13914683687052362,"132":-0.15881358964343004,"133":-0.047642005759014255,"134":-0.11217350335483574,"135":-0.020779115905706552,"136":-0.032961076556031095,"137":0.07788422653035154,"138":-0.12459734191386394,"139":-0.09148664493723536,"140":-0.12650688402260174,"141":-0.0017021869647389403,"142":-0.08853327043464843,"143":0.08049602663239618,"144":-0.03885401154068587,"145":0.11163873078295523,"146":-0.012613110268844471,"147":-0.019969897412912618,"148":-0.01837941383326676,"149":-0.2535830924917461,"150":-0.12358984182949068,"151":0.02988730748424639,"152":0.0037116160295257122,"153":0.06840294077920392,"154":-0.27702839490552317,"155":0.005569053872345636,"156":0.35104923680524924,"157":0.009244443387621646,"158":-0.2086883660808786,"159":0.03207704648407114,"160":0.06718034935376156,"161":-0.008022797581298449,"162":-0.1229142430008479,"163":0.045300868700746524,"164":0.030234616325420974,"165":0.04642339114077124,"166":0.15551797089664302,"167":-0.10113496399711003,"168":-0.09787402965935905,"169":0.16340691658153345,"170":0.008270019576067593,"171":0.04437706443416542,"172":-0.18774782330749631,"173":-0.1567287588459211,"174":0.09756133693290531,"175":0.07480177089179656,"176":0.039850138867648266,"177":0.051032755160764026,"178":0.1449921967788283,"179":0.07870710844216776,"180":-0.03266307340374135,"181":-0.10932958818208473,"182":-0.016888277317539294,"183":0.15925658844685261,"184":-0.03820342196508956,"185":-0.02508646879951869,"186":-0.05816954385620721,"187":-0.009116943893941853,"188":0.013716813133504384,"189":-0.16701734551465272,"190":-0.13498880757767462,"191":0.006756021019707737,"192":-0.009306391494657132,"193":-0.12150663557202471,"194":-0.16102490084917578,"195":0.26553650759182146,"196":0.20989295447870787,"197":-0.1750202940648807,"198":-0.160241730494006,"199":-0.026440740579946477}},{"sx":5,"sy":5,"depth":8,"w":{"0":-0.014281376318492144,"1":0.10571990207846389,"2":-0.07565546422666192,"3":0.0210450865222548,"4":-0.021004831362842175,"5":0.09026337289446734,"6":-0.22076252047691303,"7":0.07783455171824076,"8":-0.09971789858998203,"9":-0.1691542206732493,"10":0.0666982876096785,"11":0.13077265542809255,"12":0.1881608377310343,"13":-0.09272158416610095,"14":-0.3501053296785005,"15":-0.02298273440921207,"16":0.041399530844683945,"17":-0.24106924076758884,"18":-0.04723187410529962,"19":0.002682970084175298,"20":0.030013960550276067,"21":0.028861665336962803,"22":-0.06940870219113449,"23":-0.18637169742027987,"24":-0.02173151159980679,"25":-0.0004513910085565728,"26":0.14434383747073706,"27":-0.10301392776997813,"28":-0.05099086087262179,"29":0.02294569194941444,"30":-0.026995405551763985,"31":-0.15331339537436006,"32":-0.0977476126768262,"33":-0.03399948244515884,"34":0.0337236860699259,"35":-0.19623777572766507,"36":-0.0581202719480971,"37":0.026698566891535647,"38":-0.04699015135437404,"39":0.09410540867501606,"40":-0.005568647983718765,"41":-0.01752744553128094,"42":0.0006578258063955495,"43":0.19194180476507974,"44":0.07865471136462952,"45":-0.1947723878256483,"46":-0.13990422341556658,"47":0.2220582114824678,"48":0.019439969502210205,"49":-0.04287955944812976,"50":-0.03151046081421161,"51":0.24896152547617187,"52":0.0584639113990705,"53":-0.1938783424964905,"54":-0.05590468781946929,"55":-0.1316914598430025,"56":-0.032042990641117375,"57":-0.16970250534069978,"58":-0.09167453937652355,"59":-0.11150963620633093,"60":-0.036990268230566364,"61":0.015235588336459974,"62":-0.1430958840521054,"63":-0.030627659170678192,"64":-0.22696541614943444,"65":-0.06825379885283046,"66":-0.0734992106170007,"67":-0.34807405598607427,"68":-0.00559738730110296,"69":0.11836189258464272,"70":0.06964800105417039,"71":0.019412872240498105,"72":-0.06598626287917754,"73":-0.08243994021971571,"74":-0.006173290970963231,"75":-0.09882922563723935,"76":-0.03712521970348084,"77":0.0035065755897614776,"78":-0.04389128217381078,"79":0.056308936447688404,"80":0.11839856961943462,"81":0.0695336474589562,"82":0.03159094513319031,"83":0.36357677983606795,"84":0.1366424944718312,"85":-0.27207227534676104,"86":-0.19878590797854703,"87":0.02263280662312873,"88":0.10671701955901386,"89":-0.06064688830749107,"90":0.12651956467712358,"91":-0.050419512512393405,"92":-0.21370779147868293,"93":0.06013935409915187,"94":-0.08177390043875582,"95":-0.03936538768103302,"96":0.05255909125815504,"97":0.0643309170654179,"98":-0.14959408062671922,"99":-0.013134642228437094,"100":-0.041524291453293935,"101":-0.029736898280081636,"102":-0.10464290736029096,"103":-0.14061786029169998,"104":-0.19650259883207113,"105":-0.14864544035452304,"106":0.0077511653022621346,"107":-0.12241922491734242,"108":-0.06326940245458032,"109":-0.08947725176238666,"110":-0.02136083194432677,"111":-0.0035217614861079434,"112":-0.15686296453265247,"113":-0.04100409395381238,"114":-0.12865137757544406,"115":-0.09388299354720928,"116":-0.14096625996434287,"117":-0.11714807665033851,"118":0.028394665090404884,"119":0.053281362207704804,"120":0.04874453958165606,"121":-0.2160998653908477,"122":-0.03818654192733434,"123":0.14075362030142527,"124":0.14774042406639548,"125":0.047290320082966825,"126":-0.3128856181478392,"127":-0.3013940778111674,"128":-0.09013941723281883,"129":-0.20965155914396896,"130":-0.013561993865468264,"131":-0.21586971267048102,"132":-0.05256551975466761,"133":0.09093119550173134,"134":-0.036201855662167666,"135":-0.14171671444501532,"136":-0.12743641306933082,"137":-0.11255311608912355,"138":0.03883875792944271,"139":-0.17456166490161337,"140":-0.1061035244206309,"141":0.05123812959231521,"142":-0.02740246497201563,"143":-0.07783684988010645,"144":-0.03231826470849004,"145":-0.006797484856441298,"146":0.07581219957868561,"147":-0.20158839892216937,"148":-0.1265415640158206,"149":-0.05188656248624055,"150":0.03374904499434864,"151":-0.045171087006816796,"152":-0.050345681470028485,"153":0.0702671816884986,"154":-0.040929132546067545,"155":-0.008162500676094378,"156":-0.042376776745640464,"157":-0.18001117350812418,"158":0.03600895751545913,"159":0.03435623623020623,"160":-0.021145197875416535,"161":-0.07463901647806899,"162":-0.262178342863691,"163":0.01754767951632421,"164":-0.026582775514903765,"165":0.0655847694124701,"166":0.05577630899077838,"167":-0.18272572341929258,"168":-0.008865298481666119,"169":0.1844626301633242,"170":-0.276536065277832,"171":-0.05316302569813178,"172":0.05218200514095634,"173":-0.03584344525668013,"174":0.16938180239677816,"175":-0.17968027021636837,"176":-0.04057592098194908,"177":0.04880355736636482,"178":-0.005395545349438425,"179":0.015192720867084267,"180":-0.12257080283931142,"181":0.10949586130388,"182":0.21151273716503977,"183":-0.034339641566262,"184":-0.002269784028951974,"185":0.18743445181873694,"186":0.04678781961250159,"187":0.058057048514118734,"188":0.08499466322292075,"189":-0.08960062257229508,"190":0.21089905213928722,"191":0.016696685468735366,"192":-0.044976894923333156,"193":0.00014673752762208944,"194":-0.0631884229411259,"195":-0.09285568992980775,"196":-0.11107575372215413,"197":-0.02837398201210101,"198":0.1332894808790524,"199":0.07290180289782403}},{"sx":5,"sy":5,"depth":8,"w":{"0":-0.10593470050286669,"1":-0.16938970892266855,"2":0.24218266199717323,"3":-0.029181829425515254,"4":0.10859303959740912,"5":0.03571697953269094,"6":-0.5362551153344242,"7":0.00435446288496236,"8":-0.04528959610278884,"9":0.05679405045272339,"10":0.26637119890768074,"11":-0.019686240275770893,"12":0.23266429692197063,"13":0.1500100202100798,"14":-0.10890756639894646,"15":-0.14022813553807575,"16":-0.01868348485858127,"17":-0.07739769699164623,"18":0.07092613975779892,"19":-0.22679271762217007,"20":0.020803470651067205,"21":0.16513629055056367,"22":0.04953379871706652,"23":-0.07977921866966106,"24":-0.09714661096961641,"25":-0.04241910380366197,"26":0.04008209568642659,"27":0.012842243311217288,"28":-0.13543605782272866,"29":0.06156259522658918,"30":-0.03823937772001121,"31":0.15877321591442614,"32":-0.08991287737411553,"33":-0.1305307297755025,"34":0.05410097839545676,"35":0.017741523030312414,"36":0.13403601532869533,"37":-0.01885529313069695,"38":-0.07081376835661975,"39":0.004792161672942833,"40":-0.16768338039199387,"41":-0.2382000390888938,"42":0.034701289943270416,"43":0.017474972839284075,"44":-0.03262131118427273,"45":-0.031557997429811246,"46":0.008331675857696157,"47":-0.054344951958150936,"48":-0.2202265839915543,"49":-0.09662278169893211,"50":-0.026166881622419945,"51":-0.30802597498435796,"52":0.07661325072306197,"53":-0.025633772248177547,"54":-0.03485457640718808,"55":-0.13166940402321062,"56":-0.23413333066487815,"57":0.02670206228736392,"58":-0.09502510580776252,"59":-0.20393671580841927,"60":-0.09081591444596608,"61":-0.1342574841562136,"62":-0.10048422629181375,"63":-0.1493984270408422,"64":-0.04783067945668351,"65":-0.14495370146890446,"66":-0.09624664337799602,"67":-0.0759179761432351,"68":-0.048572213604830605,"69":-0.020402059706662496,"70":-0.09380169465005468,"71":0.00013933427987671823,"72":-0.1664161164582835,"73":-0.31927194361014943,"74":-0.010997324818182608,"75":-0.03324983383331592,"76":-0.03903396223013391,"77":-0.045168226283285456,"78":-0.045444657859075956,"79":-0.16297588206656496,"80":0.07854224686292664,"81":-0.08381784298057902,"82":-0.08315176711208869,"83":-0.06982372856414203,"84":-0.01027387385487228,"85":-0.039075188280169,"86":0.18009399014999897,"87":0.06528565621969099,"88":0.10674851599205089,"89":0.050158340185455785,"90":-0.10467952819177088,"91":0.1310748772064072,"92":-0.21688846216808227,"93":-0.028038354995405135,"94":0.12214128773143394,"95":0.01750816297442845,"96":0.08074092516917886,"97":-0.23105328992131247,"98":-0.20417088874244274,"99":-0.07894345081909107,"100":-0.0343411296274449,"101":-0.05475934938117221,"102":0.08865481681745511,"103":-0.1683874741723659,"104":-0.1292254511058029,"105":-0.08656745598113735,"106":-0.06725595524064237,"107":0.042464457213798074,"108":0.013212788662436532,"109":0.0015382923125795325,"110":0.03470504537209857,"111":0.08575569570519728,"112":-0.1531874510356796,"113":-0.21296062272500127,"114":-0.15524380226631201,"115":-0.16722851849788067,"116":-0.15194813266517743,"117":-0.10200413666261693,"118":0.16039522655231447,"119":-0.1790944455456947,"120":0.0002637001074773421,"121":0.008660866048517617,"122":-0.09993141638199265,"123":0.19210604918064583,"124":-0.17462500889451568,"125":0.008546154731788574,"126":0.04060947269759877,"127":0.04445894629845396,"128":0.08093403746486146,"129":-0.08253201756286252,"130":-0.2184934926839029,"131":0.0637628092280474,"132":0.04075169643192396,"133":-0.09565222214059259,"134":0.014928911463759246,"135":0.00915922753957515,"136":0.04786464311478791,"137":0.14700104851132403,"138":-0.228877847196434,"139":0.1656957213047314,"140":0.07298531450938883,"141":-0.02171256969514635,"142":-0.013854014986142771,"143":0.11116909641001965,"144":-0.15038811985888262,"145":-0.04178936384171409,"146":-0.155155084851815,"147":0.11370832773836183,"148":-0.06737729574509134,"149":-0.039924172204381575,"150":0.1471771540106628,"151":-0.03701488296737826,"152":-0.0037642686913050335,"153":-0.04915093561543036,"154":-0.3440527915455842,"155":0.10924603768296974,"156":-0.08740255215993688,"157":-0.033562914364808405,"158":0.13502171648488387,"159":-0.064195561638764,"160":0.037853517022294995,"161":0.1824746283788573,"162":0.20899998152099605,"163":0.11938877241656469,"164":0.02838067754879125,"165":-0.043598023289961325,"166":-0.07514866344735427,"167":0.12073818300415654,"168":0.1892134393246092,"169":0.049651675535400085,"170":0.014148781469631609,"171":0.0159226932481616,"172":-0.0022769030902204898,"173":-0.043878677128098204,"174":-0.1089168438688669,"175":0.12018859545517582,"176":-0.027776873786142953,"177":0.1037889003870539,"178":-0.057146985495495156,"179":0.053125280955366685,"180":-0.1200020566496558,"181":-0.12907661978382756,"182":-0.09662919722562363,"183":0.0881708691480386,"184":0.09929629714113472,"185":0.1608719170052405,"186":-0.21295883342322464,"187":0.21855614539077084,"188":-0.01593785750254058,"189":-0.047166303045866026,"190":-0.009523584399717469,"191":-0.06697608126108907,"192":0.18017779933222858,"193":-0.0009601984905661292,"194":-0.46247625611331655,"195":0.09358072348968019,"196":-0.020251420826068598,"197":0.12386126572390599,"198":0.2696248300809145,"199":-0.09138277177279719}},{"sx":5,"sy":5,"depth":8,"w":{"0":0.012527048123563951,"1":0.058338219213309526,"2":-0.16406981841737128,"3":0.002095886251206204,"4":-0.07849626460961079,"5":-0.15245525603511934,"6":0.3117700051482179,"7":0.10058227252269411,"8":0.0663400821884225,"9":-0.01856450177750163,"10":0.1268690004033375,"11":-0.04404311387823589,"12":-0.08670070779195391,"13":-0.11122075129320931,"14":0.03292656319875393,"15":0.09817617606454306,"16":-0.010951979597883821,"17":0.104039291410512,"18":-0.17706405981332007,"19":-0.19454069798797746,"20":-0.16174483079924515,"21":-0.09666607078411783,"22":-0.06793666903896756,"23":0.19015438217249186,"24":-0.0018939921997489474,"25":0.12991642256331562,"26":-0.15509664292370046,"27":0.028396886576757995,"28":0.06889809418160059,"29":-0.007689299605999853,"30":-0.05868065557732501,"31":0.04568372935972649,"32":0.057690158350643984,"33":-0.17107062476524806,"34":-0.09409784186387316,"35":-0.05007681310863477,"36":0.019907603917164313,"37":0.05769303310744472,"38":-0.050910706990052366,"39":0.037823299797091404,"40":-0.010934494219924991,"41":-0.3016617472006871,"42":-0.03809968105738918,"43":-0.20431229078919103,"44":-0.05634799468328269,"45":-0.08938818212037564,"46":-0.15935153960305756,"47":0.10108022064534102,"48":-0.1623294851169946,"49":0.07516696511869121,"50":0.27756650209018996,"51":-0.11481728125500683,"52":-0.05595048166015285,"53":-0.07890263950418774,"54":-0.05759622016009888,"55":-0.12982537200659805,"56":-0.057448706735202394,"57":0.054771027802686535,"58":-0.0017749743322730933,"59":-0.14000790791071427,"60":0.22048416741306642,"61":-0.09491320086139178,"62":-0.12677821794645192,"63":0.07647031857060303,"64":0.21610645127309866,"65":-0.008078870455243218,"66":-0.13394052341956733,"67":0.08102201575182903,"68":0.21430353160805157,"69":-0.1555799416860601,"70":-0.28901998920534394,"71":-0.07233470896097921,"72":0.07983427294887144,"73":-0.014972399078808768,"74":-0.05768615163047013,"75":0.03293346222205766,"76":0.01273710366173389,"77":0.0025628503247366635,"78":-0.16474373844554518,"79":-0.11204912819749871,"80":-0.08516063655486437,"81":0.049001385845590495,"82":0.16944092739011613,"83":-0.07640442350844137,"84":-0.01870395823969599,"85":-0.15487578049538078,"86":-0.032406350880437515,"87":-0.16629279298241906,"88":0.008299090315612767,"89":-0.02001691933259107,"90":-0.08278773290513,"91":-0.003985317793281631,"92":-0.11263681651846036,"93":-0.2229836509511968,"94":0.1369935838079649,"95":-0.007597048071251705,"96":0.07343672416528349,"97":0.052447759978609135,"98":0.10607945901713295,"99":0.02060578039581393,"100":0.007110788171628775,"101":-0.22362424792552185,"102":0.11751078950185272,"103":0.12665565241596033,"104":-0.0019346489598768678,"105":0.12745632950617944,"106":0.0017407090358540385,"107":0.19133821902718484,"108":0.10215616772785739,"109":0.007100866244704176,"110":-0.15757766821502117,"111":0.07077980456102011,"112":-0.015535842949159944,"113":0.055245433765313864,"114":0.06553064123073445,"115":0.12370172687648075,"116":-0.07893491183509736,"117":-0.1557538918538784,"118":-0.1259122073809732,"119":-0.14273014796426964,"120":0.05159180445547907,"121":0.11454016241136775,"122":0.04464101878539365,"123":0.07803987484817575,"124":-0.10757267550418632,"125":-0.09450900064257234,"126":0.03964138124219805,"127":0.052695327178337505,"128":0.1362635814491445,"129":-0.1436747857652575,"130":-0.05027034721282863,"131":0.014045854539380875,"132":0.05781177139659781,"133":-0.018411278499247553,"134":0.06352740647349545,"135":0.2197353213112279,"136":0.08656767216540719,"137":-0.07611114327011782,"138":0.24056059591151693,"139":0.08471165933075987,"140":0.18888241573763978,"141":-0.23197346198910826,"142":-0.1918653140171144,"143":0.1387500396178942,"144":0.00285734616082574,"145":-0.09541463461405944,"146":0.14412496992409002,"147":-0.16189808345873574,"148":-0.028814588116615584,"149":-0.02701642651094583,"150":-0.17879132417501228,"151":-0.16232378317567434,"152":-0.03039103822655783,"153":-0.19074757465481626,"154":0.05663651412364871,"155":-0.11010566593285928,"156":0.05813482694412842,"157":-0.03579052385155953,"158":-0.08660427184954377,"159":-0.08360048513920085,"160":0.01950973473954784,"161":-0.04981709747040555,"162":-0.1643700367392831,"163":0.1364202451555823,"164":0.05468286543114258,"165":-0.08070994152582472,"166":-0.0790692516572647,"167":0.15140663239915964,"168":-0.1257512741365089,"169":-0.24407810531997012,"170":0.16134943995379916,"171":0.06281430221720857,"172":0.12446147704992637,"173":-0.017623734441991404,"174":-0.31364319096558946,"175":0.03678721860737214,"176":-0.09795728239927327,"177":-0.12506682979659695,"178":0.11146795569140816,"179":-0.04452596761141037,"180":0.006614952676533112,"181":0.09245921198791224,"182":-0.33996693204521916,"183":-0.1698441962490867,"184":0.003203499185927163,"185":-0.21619607518292672,"186":0.03464247407342602,"187":-0.1464793877710656,"188":-0.07864441807059473,"189":0.14877489361294058,"190":-0.14785320428748372,"191":-0.3300925573766652,"192":-0.2985798823966077,"193":-0.2685352615821432,"194":-0.10764309960236197,"195":-0.18778965506084583,"196":-0.20048083965862784,"197":0.13830246876663618,"198":-0.04560786944927342,"199":-0.3334118364421659}},{"sx":5,"sy":5,"depth":8,"w":{"0":-0.008618681649814901,"1":-0.15190188766183274,"2":0.07085835983416515,"3":0.0643196472322631,"4":-0.04183778174837997,"5":-0.11662634884753509,"6":-0.146176927732851,"7":0.07853042714444725,"8":-0.04961768962822321,"9":-0.02860519082928337,"10":-0.06443456496545888,"11":0.00001678345940886103,"12":0.10132399974512872,"13":-0.04292104013992097,"14":-0.024449162221963448,"15":-0.054767744109363636,"16":0.06334650236227853,"17":0.10507831599336921,"18":0.004275832901107536,"19":-0.00031409457433672055,"20":-0.019132170484646837,"21":-0.07402565854952635,"22":-0.15944615483687713,"23":0.03428781707957924,"24":0.09396746127161078,"25":0.04275483376800619,"26":0.072993110150354,"27":0.16972204683099198,"28":0.027014371325206944,"29":-0.13389650852251528,"30":-0.04334337535762065,"31":0.09338030417772276,"32":0.12923968878750455,"33":-0.07155506277765863,"34":-0.2204809662564026,"35":0.06948884910772134,"36":-0.20879867872562527,"37":-0.05361533910029888,"38":-0.03481979193140292,"39":0.1056660504641962,"40":-0.11640738031583886,"41":-0.07549027759336618,"42":-0.05359212741458729,"43":-0.18241719372457668,"44":-0.035554975902105816,"45":0.13081979279621275,"46":-0.2282623074785691,"47":-0.13809480681470268,"48":0.02107374594422571,"49":-0.12048327511923439,"50":0.053851076019010125,"51":-0.21436758988909735,"52":0.04212703857389117,"53":0.27313100682065733,"54":-0.09474676611304135,"55":-0.1746667827360536,"56":-0.17944892471987145,"57":-0.053799962698530504,"58":0.21570769792407143,"59":-0.16952822492388162,"60":0.031353409131093114,"61":0.04344024328447099,"62":-0.02016265334307105,"63":-0.07021105766047911,"64":0.033958528484535705,"65":-0.04364192062772395,"66":0.053671759109260295,"67":-0.045232888474902755,"68":0.08307317895050417,"69":0.2212576554500689,"70":-0.2780819715617443,"71":-0.05123138592117754,"72":-0.0581991515827297,"73":-0.048715363252411235,"74":0.10274293269820457,"75":-0.18512387283051437,"76":0.07284831829789391,"77":-0.16876336084123544,"78":-0.24555328356541908,"79":-0.15743610085997273,"80":-0.010480112611873366,"81":-0.15228272974128107,"82":-0.03914942471010358,"83":0.10820522559754522,"84":0.06038538635143382,"85":0.11693351046684286,"86":0.05756051775331334,"87":-0.004954802337555298,"88":-0.1486800158907627,"89":-0.08202345155773573,"90":-0.032342920560837804,"91":-0.16168838321214277,"92":-0.1308280380999803,"93":0.009464627597675941,"94":-0.22025201774777714,"95":-0.13811229700572158,"96":-0.02586249036192605,"97":0.16930058709873372,"98":0.1004732886291924,"99":-0.006135996452410525,"100":-0.02632867369232166,"101":-0.06707762281725349,"102":-0.07431590273977404,"103":-0.032514245340632075,"104":0.13507836054271077,"105":0.23523445236474708,"106":-0.03723572402665054,"107":0.10159723861650792,"108":0.0868992037044264,"109":0.16519108822451953,"110":0.016700821244737925,"111":0.020059559466167987,"112":-0.09996301524548998,"113":-0.2679432151067501,"114":-0.139056678359079,"115":-0.027705472968148886,"116":0.11342007541469663,"117":0.29253907105462773,"118":0.16209265141302434,"119":-0.09273889441930537,"120":-0.027974840000355137,"121":-0.19298484979938738,"122":0.0237322542568272,"123":0.1971300736221123,"124":0.07641632772026673,"125":0.1854330784060856,"126":0.065163506358106,"127":-0.07227690253270877,"128":-0.2790741351177189,"129":-0.22686349712255627,"130":-0.011784548403008657,"131":-0.06564656052457414,"132":0.007499613516827868,"133":0.14713215742812982,"134":-0.1455635338315477,"135":-0.08602906281770994,"136":0.11342582406898064,"137":0.20527059215399474,"138":0.3070962081471539,"139":-0.06173523240157049,"140":-0.017727391666267044,"141":-0.07899304063562176,"142":-0.14869830770099415,"143":0.0776425047538066,"144":0.1256668588329396,"145":0.029794374184499484,"146":0.04233430121558414,"147":0.022459504439282896,"148":-0.07768126529187658,"149":0.03219851403144563,"150":0.15829187398822686,"151":-0.14545844765041574,"152":-0.08504281277410135,"153":-0.16512585734077015,"154":-0.018467148016220868,"155":0.08924203379035177,"156":-0.016024291114170957,"157":0.23971998659863303,"158":0.10036399280696129,"159":0.006937186153185308,"160":0.007397488854848939,"161":-0.09281640335694824,"162":0.006784268785284592,"163":0.32190508999262407,"164":0.1792445806011703,"165":-0.09211724205957798,"166":0.021039821051118335,"167":-0.12641693578199176,"168":-0.14875446192170907,"169":-0.0839012324993242,"170":-0.1612897657587381,"171":-0.046593049369481346,"172":0.03823526198200363,"173":0.019399525506435186,"174":0.0026890796485965784,"175":-0.05425827915584265,"176":-0.1232860502147356,"177":-0.10387356347762748,"178":0.03475851101593815,"179":-0.09905838721904614,"180":-0.209155147471133,"181":0.0319522718388391,"182":-0.05768028898159644,"183":0.2403061999013387,"184":0.14052126378922816,"185":0.07891296492975246,"186":-0.07975560237290062,"187":0.06281004375012605,"188":0.05437702363998476,"189":-0.04978087716701398,"190":-0.07540263530979414,"191":0.015550811184555032,"192":0.06060573117063533,"193":-0.22157344368066942,"194":-0.04682075695334125,"195":0.09362027322521989,"196":0.13863107684020307,"197":0.13932986267783223,"198":0.06654829160913683,"199":-0.22731751994671787}},{"sx":5,"sy":5,"depth":8,"w":{"0":-0.04401813732051452,"1":-0.07131103149357766,"2":0.009359678191540932,"3":-0.04388899566156715,"4":-0.03949883350997491,"5":-0.10851650660987242,"6":0.15861289570603448,"7":0.019654909752602923,"8":-0.023074517934078075,"9":0.05366798992951094,"10":-0.018495116576813617,"11":-0.02994101650829274,"12":-0.12316306115208771,"13":0.13559232146738112,"14":0.32989209981008216,"15":-0.01210507185529188,"16":-0.06347929427355159,"17":-0.009502498463885326,"18":0.02818101557118128,"19":-0.0024292462155549766,"20":-0.10300524211910701,"21":-0.08536352399059052,"22":0.21728192253164758,"23":-0.029732872303195275,"24":-0.049184953016712996,"25":0.09323596441030439,"26":-0.05400605545804478,"27":-0.07660484488356226,"28":-0.3425051402474964,"29":0.04983003387773019,"30":0.15289171153860015,"31":0.08267200299656781,"32":0.08089462826466202,"33":-0.12019069719185706,"34":0.020639883521026695,"35":0.06685076336922698,"36":-0.10694597192782831,"37":-0.07225317661840548,"38":0.2540193543937398,"39":0.09942262117177103,"40":0.16629518926024903,"41":0.15562035170619806,"42":0.08244764407205704,"43":0.05313746874520471,"44":-0.011471017297231084,"45":-0.08414252099540584,"46":0.15439675655432994,"47":0.04590293617581969,"48":0.06596974262200284,"49":0.06442195746480991,"50":0.10916314399328701,"51":0.024165204782060485,"52":0.05553462162468581,"53":-0.04067661987866451,"54":0.1987256289026676,"55":0.20973893264413235,"56":-0.016629301292212774,"57":0.04495411066765417,"58":-0.081574547156096,"59":0.042702838557306375,"60":-0.17666727347293198,"61":-0.050737191017992844,"62":0.08375791202316059,"63":0.22760015061800293,"64":0.07673071860645776,"65":0.01701901139427628,"66":0.09595129044921327,"67":0.02280627945017152,"68":-0.0930054854984381,"69":-0.03995446507543607,"70":0.047938400968143446,"71":0.10752828051460632,"72":-0.027672120925401045,"73":0.04212069378130491,"74":0.05036473017207849,"75":-0.078172045409972,"76":0.13237666058739792,"77":-0.058005778815579986,"78":-0.0333908103138579,"79":0.15291271235029785,"80":-0.013895500396556848,"81":-0.039078869492792,"82":0.020978145994836977,"83":-0.009865443746751312,"84":-0.036268271927199766,"85":-0.028137724099454836,"86":-0.22063978802873208,"87":0.009223549598598207,"88":0.052910477244695685,"89":-0.046564072032419586,"90":0.04228224998707195,"91":-0.10488545896565218,"92":-0.0043601053735756925,"93":0.030273433602806397,"94":-0.13747185131577622,"95":0.005756937894306521,"96":-0.053800241398715844,"97":-0.07384235945510306,"98":0.01923321968659028,"99":-0.16512143779781652,"100":0.134913142975001,"101":-0.020728955927595903,"102":-0.29250593918863865,"103":0.07987663106940744,"104":-0.16599805981195012,"105":-0.029798393856572757,"106":0.058360344865242726,"107":-0.12150238294930091,"108":0.061596461358623206,"109":-0.025925306725824947,"110":-0.26612178674274,"111":-0.009540562634661536,"112":-0.18667059585408918,"113":0.058366125351884436,"114":0.21897180683581263,"115":-0.25948284999622034,"116":0.004660343508019478,"117":0.033693391657521554,"118":-0.1754500377575191,"119":-0.20084351074946974,"120":-0.05606342443575625,"121":-0.15229660107116416,"122":-0.08474497640793369,"123":0.07019875602570974,"124":-0.08622172168348669,"125":0.06124322191490506,"126":-0.04849710499462328,"127":-0.10961796380900336,"128":-0.23522857946731796,"129":-0.13303570097582476,"130":0.03290867890858402,"131":-0.12787081173178716,"132":-0.024772589431878045,"133":0.20279540161901746,"134":-0.00006295191723839391,"135":-0.10477197411051765,"136":-0.1337801890457523,"137":-0.16363248398373167,"138":0.026599480072461087,"139":-0.20179016169965627,"140":-0.06690062150966679,"141":0.02729987457142904,"142":0.09723329195583655,"143":-0.19426490846360497,"144":-0.025030392831876996,"145":0.055994916631025606,"146":0.04939524085787442,"147":-0.11092053801174598,"148":-0.054535442596525124,"149":-0.0385555522578319,"150":0.03833225407971953,"151":-0.2103526012702508,"152":-0.0026659953632901766,"153":0.12847088162479864,"154":-0.05030082403936154,"155":-0.10136720485312645,"156":-0.16827560033342837,"157":-0.05759256050419563,"158":0.149975299638841,"159":-0.03793875908783833,"160":0.11863247771052057,"161":-0.21476896045638177,"162":-0.049147563701853546,"163":-0.12795559256024994,"164":-0.1544417598951665,"165":-0.06811489981810609,"166":0.18586866081405434,"167":0.08441034193428873,"168":0.0718705450952962,"169":0.027266356668180117,"170":-0.16982516449206636,"171":-0.013095741930362854,"172":-0.04010223358834093,"173":0.03908749940482341,"174":0.0878992451801715,"175":0.021956165854682238,"176":0.001405354202445907,"177":0.013840393613928373,"178":0.0029385370728832096,"179":0.020248191821372066,"180":-0.10315033327400654,"181":-0.18598754693589706,"182":0.012333021975145837,"183":0.06474704975128248,"184":-0.04242354570288545,"185":0.05249412089026189,"186":-0.17023192528758543,"187":0.007064538456813704,"188":-0.02325101041162153,"189":-0.06539470584669108,"190":0.011244555780883278,"191":0.08877878732472781,"192":0.1773537598990167,"193":0.05572073768343102,"194":0.011799848456619789,"195":-0.046095491655193714,"196":-0.12154402664436906,"197":-0.22744446397471113,"198":-0.04910454351443831,"199":0.0003602392849069314}},{"sx":5,"sy":5,"depth":8,"w":{"0":-0.03098065923906381,"1":0.05207613001050806,"2":0.08201398918226999,"3":0.009829578926248733,"4":0.14304117888755755,"5":0.0864018669513737,"6":-0.05387754854151404,"7":-0.003257684583093353,"8":0.07529254891787522,"9":-0.07557453813255859,"10":0.014630620526060817,"11":0.035190401197266866,"12":-0.022673134971780126,"13":0.1393844580961833,"14":-0.05279511355305747,"15":-0.1546822982319928,"16":-0.22561082228624293,"17":0.029860063603580376,"18":-0.02083023653562853,"19":-0.18850222312640358,"20":-0.07418100848675775,"21":-0.03571147461385903,"22":-0.10482236813385674,"23":-0.10653245058291283,"24":-0.09496994513931548,"25":0.05793533054557089,"26":-0.045214507941957714,"27":-0.03666290491284363,"28":-0.12718397089792366,"29":-0.020427487744869292,"30":0.07817128832359721,"31":0.06949091464534257,"32":0.06027067722897243,"33":0.08633524726693104,"34":-0.04946408161038826,"35":0.07000998616299364,"36":-0.07866068814922324,"37":0.010473817190919795,"38":0.0779078784421032,"39":0.021923961547900536,"40":-0.029465845057409,"41":-0.07301006985785172,"42":-0.03287647406739668,"43":-0.08761523918466486,"44":-0.04337486375291489,"45":0.08795935312066924,"46":-0.022804005972042424,"47":-0.007138601629896898,"48":-0.15288243991299708,"49":-0.11906072407082506,"50":0.06894205683025803,"51":0.11126681332864384,"52":-0.02224987289511311,"53":0.0833594650664898,"54":-0.03799290244540212,"55":-0.29169981621132607,"56":-0.13957934722710244,"57":-0.17493823314878193,"58":-0.1142590508221582,"59":-0.24395288148253064,"60":-0.16190583903008138,"61":-0.04341158722467505,"62":-0.14076967562672388,"63":-0.11910778295526939,"64":0.024425371241665442,"65":0.03394260990621686,"66":0.127729212749137,"67":-0.12518540618775842,"68":0.0471662210310825,"69":-0.07600665407125959,"70":-0.09596477995948886,"71":0.11124280374580435,"72":0.023704451319096702,"73":-0.031225718264538738,"74":-0.01152909419326243,"75":0.012718629735643448,"76":-0.04022790608670897,"77":0.10840283934017791,"78":0.16551603172580062,"79":0.13256899004809292,"80":-0.048039966812273294,"81":0.040350845574679946,"82":0.15353540101452237,"83":-0.0716775366713239,"84":-0.05988972674745767,"85":-0.0025711291105509557,"86":-0.09657443108689996,"87":-0.07358099542897228,"88":-0.028587433432840533,"89":0.11088286298352439,"90":-0.14884211239251388,"91":0.003898950848712364,"92":-0.08415577823244752,"93":-0.09465236254956763,"94":0.01486983984960863,"95":-0.12318912142018083,"96":-0.24890675313849855,"97":-0.12254558313059298,"98":-0.22103674364118087,"99":-0.16805369275418594,"100":-0.022414928803818783,"101":0.04179672033306166,"102":-0.03476297684895489,"103":-0.09434766784930311,"104":-0.11055517343950981,"105":-0.2190659558595719,"106":-0.08261406531078101,"107":-0.1485539829813181,"108":0.024398009241047368,"109":-0.0019452950798894688,"110":-0.013859162401937665,"111":-0.17216891809422993,"112":-0.01889714371179516,"113":-0.17424724311405157,"114":-0.051308034420341944,"115":-0.1135124529815032,"116":0.19866358053577168,"117":-0.021612558666924877,"118":-0.02722221745080661,"119":-0.16411932219101566,"120":-0.07826113387077771,"121":-0.17474074881770268,"122":-0.03638943683371982,"123":-0.16870052375321776,"124":0.005355713638512479,"125":-0.05407568657219639,"126":0.0040150619044327426,"127":-0.0006450512554497631,"128":-0.0027139809018425403,"129":0.1564321596102278,"130":-0.026808834063121633,"131":-0.16206261186584667,"132":-0.0442182018979676,"133":0.0044930729065759175,"134":0.016099208509881575,"135":-0.04395556297903947,"136":0.05009387227228483,"137":0.10093932640869734,"138":-0.004691526590092454,"139":-0.009991126236590788,"140":-0.2005282048975272,"141":-0.019349172759638225,"142":0.04713143571163065,"143":-0.016075785717825575,"144":-0.0022223342730017235,"145":0.017665171622744936,"146":-0.15286508281382483,"147":0.06645063944152603,"148":0.02735717804066942,"149":0.013862646494021762,"150":0.16584274637855023,"151":-0.10082565171598802,"152":-0.028000641367522842,"153":-0.02444969626946689,"154":-0.07425386760300011,"155":0.04105861192656964,"156":0.1422271774448718,"157":-0.09737300957816714,"158":0.15443979253165047,"159":-0.01279968692538294,"160":0.0333311171105724,"161":-0.05484424387664509,"162":0.02519568949465364,"163":0.14638850754606547,"164":-0.09504350549849101,"165":-0.09034220471277905,"166":0.15852238245421876,"167":-0.07041870327647697,"168":-0.05990456123129775,"169":-0.03364220855902475,"170":-0.08044677009366243,"171":0.015824177988036696,"172":-0.03559310187435967,"173":0.057873350409202044,"174":0.13034311984530347,"175":0.0005498802909199025,"176":0.04762754704393912,"177":-0.121901277146531,"178":-0.04279140138477129,"179":0.10798511769344843,"180":0.06534805712237889,"181":-0.13493458978087342,"182":0.1533442290476909,"183":0.20920097891161815,"184":0.07008828613692866,"185":0.14425631154305796,"186":-0.16116074040669662,"187":0.10413306691726842,"188":-0.1604117698680237,"189":-0.1649565970278642,"190":0.13274663389270652,"191":0.0015222772668595473,"192":0.20103021647583205,"193":0.0927731401414208,"194":-0.05315019615899528,"195":0.0906255573628577,"196":-0.13235265413058192,"197":-0.2232461863624325,"198":0.047412763931612784,"199":0.0288669047247754}}],"biases":{"sx":1,"sy":1,"depth":16,"w":{"0":0.03196122805316602,"1":0.05118316584418307,"2":-0.007651520971230005,"3":0.07133821507861714,"4":-0.022902961562040428,"5":0.04963261471846042,"6":-0.057064396673514504,"7":0.09281696004983565,"8":0.10487477096772113,"9":0.05398882747844332,"10":0.08055021995684922,"11":0.04669741943390741,"12":0.004017773635778026,"13":0.07029738821286916,"14":-0.004340491807303676,"15":0.016226798828582797}}},{"out_depth":16,"out_sx":12,"out_sy":12,"layer_type":"relu"},{"sx":3,"sy":3,"stride":3,"in_depth":16,"out_depth":16,"out_sx":4,"out_sy":4,"layer_type":"pool","pad":0},{"out_depth":10,"out_sx":1,"out_sy":1,"layer_type":"fc","num_inputs":256,"l1_decay_mul":0,"l2_decay_mul":1,"filters":[{"sx":1,"sy":1,"depth":256,"w":{"0":-0.06126522163660133,"1":-0.24529747726037562,"2":-0.024583362867095032,"3":-0.010313604122950916,"4":-0.028645893672129184,"5":-0.08117967029451356,"6":0.05988111499316686,"7":-0.1653098906451216,"8":-0.07019690188533,"9":-0.15160272457365498,"10":-0.07865615726705563,"11":-0.0019433823904320485,"12":-0.0387960415126121,"13":-0.11432539968234588,"14":0.11535222862296599,"15":0.011185878976847308,"16":-0.0652655297936585,"17":-0.05078974469062153,"18":-0.03354671770847264,"19":0.0775468049388324,"20":0.0030744806256922637,"21":0.0627179104643389,"22":0.016946605341010074,"23":-0.05873022646567054,"24":-0.037052046685433604,"25":-0.004137663323963928,"26":-0.11814430355727379,"27":0.09497218827808117,"28":0.03812661526274733,"29":-0.17976970834631428,"30":-0.13293504815458212,"31":0.12475494049001348,"32":-0.14042505273365374,"33":0.10851854057570513,"34":-0.044770209126359616,"35":-0.09374456948568335,"36":0.041530528143282806,"37":0.08595650755165707,"38":-0.09393374726265374,"39":0.10839264629082102,"40":-0.03192776987892124,"41":-0.03686438137658636,"42":-0.08345890417631326,"43":0.19695822461404006,"44":0.03394181530227924,"45":-0.025339953175877294,"46":-0.20801168029803488,"47":0.1023166964936432,"48":0.09660008799297541,"49":0.08559719313586499,"50":0.04772599967585606,"51":-0.13557575726572133,"52":0.04261540521281199,"53":-0.039926727888104696,"54":0.12125884742258697,"55":0.015199276758724269,"56":-0.09173192832666603,"57":0.07626070582654021,"58":-0.14969564097593346,"59":-0.03981943527430712,"60":-0.14824583182396536,"61":0.0502358582985185,"62":-0.09983719263021607,"63":-0.1015022109041848,"64":-0.2748423086275268,"65":-0.0710762249030727,"66":-0.22112987847347104,"67":0.06833872876757749,"68":0.06953900460383611,"69":0.06578004600662161,"70":-0.07498676823352034,"71":-0.31759494938507776,"72":-0.1386643310506104,"73":-0.04566058442548604,"74":-0.1790884676044226,"75":-0.10639500302951115,"76":0.0036977456563682468,"77":0.10637472462087585,"78":-0.07469424975339899,"79":-0.20344965020907227,"80":-0.1869294785430097,"81":-0.21367881329624194,"82":-0.036191055304861316,"83":-0.08733405983991321,"84":0.12903906068252563,"85":-0.10750003904177931,"86":-0.19754362158314942,"87":-0.22024773485299312,"88":-0.0800508389030276,"89":0.07244418112790924,"90":0.04772347036922263,"91":-0.030591388918382076,"92":0.09462870031905261,"93":-0.049184369550630366,"94":-0.200893486910552,"95":-0.18672096606903416,"96":0.08887958354567822,"97":0.0686541161731406,"98":-0.20767872206847737,"99":0.10534026979444755,"100":-0.04724831498525999,"101":-0.12783249317109344,"102":-0.23126601306575909,"103":0.03756300222752957,"104":-0.011300824674222974,"105":0.10703671323912871,"106":-0.015706787385526357,"107":-0.19235076111352847,"108":-0.06421485524433043,"109":0.007062029425310448,"110":-0.14779971929705485,"111":0.05719087535326716,"112":0.12026306781274265,"113":0.12639732225519582,"114":-0.10428498350350214,"115":-0.06033569511227813,"116":-0.00126148023523257,"117":-0.10399739143660601,"118":-0.11965780739065297,"119":0.029277333433253998,"120":-0.015179691416380207,"121":0.03493574300227367,"122":-0.34853540057591487,"123":-0.11768433562353776,"124":-0.0031622883650228297,"125":-0.03584967712910899,"126":-0.4903631365682957,"127":-0.1685531526639427,"128":0.08371798914034778,"129":0.17336675979805144,"130":-0.20730149897857156,"131":0.09336381912166831,"132":0.11222735729919377,"133":-0.15533287607852153,"134":-0.06783814159665569,"135":0.016491829383440165,"136":0.032123466011172754,"137":0.18332850390664585,"138":0.08545146658888979,"139":-0.23073669803619712,"140":0.13544485960576869,"141":0.037760938579082845,"142":-0.1287958251292825,"143":-0.4661521397394429,"144":0.03372629206679589,"145":-0.0455515977171732,"146":-0.009002580112346073,"147":-0.15246672026062483,"148":0.020091232477348776,"149":-0.060125693661072434,"150":-0.023504957897818538,"151":-0.09252931511205682,"152":0.14219185427866154,"153":-0.14887453586777216,"154":0.09229114772340621,"155":-0.004942052500206907,"156":-0.083478208657864,"157":0.05879967270482513,"158":-0.08792204575037159,"159":-0.06926709885763417,"160":-0.20658981676022992,"161":-0.16000636091805429,"162":0.12341693975544375,"163":0.07838085753789253,"164":-0.25599577724481765,"165":-0.10922748340551877,"166":0.07551009101936358,"167":-0.037594685921053146,"168":0.02632277053629105,"169":0.1669478985918771,"170":-0.20087280873307642,"171":0.01038513394495842,"172":-0.01868104604221069,"173":0.06773404321566052,"174":-0.03159583082174797,"175":0.12604432387658573,"176":-0.07228897633654759,"177":0.06449102786160475,"178":-0.1161586697247114,"179":-0.12660292573724383,"180":0.08363294479020623,"181":-0.050479188068014526,"182":-0.04930119760837256,"183":0.08187820857614872,"184":0.10593702408573986,"185":0.15674119188448343,"186":-0.016900191345092047,"187":-0.1728738348179233,"188":0.007338180059143225,"189":-0.08882619985288662,"190":-0.006871496787505547,"191":-0.14570157656767158,"192":0.1816900195006126,"193":0.08046135396150413,"194":-0.060865136752660885,"195":0.040272016446613185,"196":0.020533598543529773,"197":-0.13311719499169433,"198":-0.11137351963436436,"199":0.05383618083073201,"200":0.06857963661420285,"201":0.0018242839483495353,"202":0.04562200233215461,"203":-0.016170171321440264,"204":0.03772865914497794,"205":-0.03175282150074435,"206":-0.039197949347097825,"207":0.018216543547623802,"208":0.0285481421935047,"209":0.08351486633654934,"210":0.11585140176744073,"211":-0.10826083574029413,"212":0.0045860777923835035,"213":0.06497773073324542,"214":0.027672019526854632,"215":0.09569227583321785,"216":-0.05285866993429765,"217":-0.07302514702773201,"218":-0.018290764062436887,"219":-0.07548870378442181,"220":0.06303732614319882,"221":-0.0359654489366841,"222":0.017310550211131974,"223":-0.09055944540569208,"224":-0.016749230545189703,"225":-0.2596766481172263,"226":-0.12994187364216547,"227":-0.052500347363511515,"228":-0.09078163095586857,"229":-0.08956760469727966,"230":0.12166530148818952,"231":-0.2759346829097256,"232":-0.10662442469832036,"233":-0.06876703966740279,"234":-0.180322397322626,"235":0.08438235003286482,"236":-0.16329269408748887,"237":-0.07466080544527737,"238":0.1484043942495577,"239":-0.020157473223280906,"240":0.030042230148923127,"241":-0.14448500967143701,"242":-0.024469805470572273,"243":-0.08103655964280868,"244":0.011148223148613821,"245":-0.06333712067558411,"246":-0.05818121754122681,"247":-0.09538526700391285,"248":0.03524569306893153,"249":0.019549225617157866,"250":0.10742052956713648,"251":-0.14119708638986778,"252":0.05119598319984895,"253":-0.04579958227718677,"254":0.07608780799648356,"255":0.056934061467888236}},{"sx":1,"sy":1,"depth":256,"w":{"0":-0.06422274934509102,"1":-0.007956331660379935,"2":0.020071306973380637,"3":-0.1522713041086979,"4":-0.11593603706256149,"5":-0.044407617038510205,"6":0.007427652886176485,"7":-0.06966335753370502,"8":-0.00023310580276213034,"9":-0.10156738588915223,"10":0.03754121827320929,"11":0.042369289900754635,"12":0.06838595530394587,"13":-0.09798463261313725,"14":0.0572490588749342,"15":-0.17838500920884892,"16":0.010699611770657374,"17":0.1939819993850136,"18":-0.11792202789970255,"19":0.026712526159627013,"20":-0.011372929354776792,"21":0.16643873162928532,"22":-0.024124024510093944,"23":0.036856193854839375,"24":0.04262155145810245,"25":0.14376682386534032,"26":0.0319493821927201,"27":-0.19887470763837622,"28":-0.010951098485964029,"29":0.1010268715281761,"30":0.09281574928877102,"31":-0.19740103859945665,"32":-0.20041131359133238,"33":0.1232992648707498,"34":-0.0072830038109598875,"35":0.0987967649916953,"36":0.15267154971338023,"37":0.11691213374385287,"38":-0.002396768477507939,"39":-0.11573117072463678,"40":0.022956076560300877,"41":0.3130420857602029,"42":0.17497292481642668,"43":-0.07844658663197511,"44":0.16434415730402943,"45":0.2406543137416543,"46":-0.2270585778959916,"47":0.03841650872665824,"48":-0.12768066259413513,"49":0.07059933993098218,"50":-0.15435185275822383,"51":-0.018298655458748113,"52":-0.15642939664035282,"53":0.01611765314649414,"54":-0.13590496108871952,"55":0.2529767990422794,"56":0.024036052332397587,"57":-0.019852487668703185,"58":-0.03593745922017409,"59":-0.1804526623715077,"60":-0.03993801707958244,"61":0.07499492532071113,"62":-0.0059549162170115764,"63":-0.032382032340090856,"64":-0.07443891998622071,"65":-0.26096800092727007,"66":-0.20331321556928106,"67":-0.10938368284799307,"68":-0.10524263778237741,"69":-0.09026128164943674,"70":0.06067751231689338,"71":0.005269223078225432,"72":-0.01508390912321245,"73":-0.28671438656687226,"74":0.030068136470958472,"75":-0.128015512619474,"76":-0.2225728571205201,"77":-0.24413504584643597,"78":0.06186878641882444,"79":-0.04534847008570309,"80":-0.13434121622990022,"81":0.08754173373389132,"82":-0.17674127882651955,"83":0.21284769126254402,"84":-0.1734259903831452,"85":0.22246526903048056,"86":-0.14138248205722487,"87":-0.1299376798947682,"88":-0.04722233054824494,"89":0.1781403909284247,"90":-0.032450053232444834,"91":-0.13948918736204324,